<?xml version="1.0"?><opencv_storage><stage1>  <maxWeakCount>30</maxWeakCount>  <stageThreshold>-9.1189473867416382e-01</stageThreshold>  <weakClassifiers>    <_>      <internalNodes>        0 -1 101935 1.0977795347571373e-02</internalNodes>      <leafValues>        1.3251267373561859e-01 7.1905422210693359e-01</leafValues></_>    <_>      <internalNodes>        0 -1 77350 -3.1553063308820128e-04</internalNodes>      <leafValues>        3.2000151276588440e-01 -2.5775125622749329e-01</leafValues></_>    <_>      <internalNodes>        0 -1 60198 1.7159644514322281e-02</internalNodes>      <leafValues>        -2.1561264991760254e-01 3.4310188889503479e-01</leafValues></_>    <_>      <internalNodes>        0 -1 97952 7.5201559811830521e-03</internalNodes>      <leafValues>        8.2496605813503265e-02 -6.3127356767654419e-01</leafValues></_>    <_>      <internalNodes>        0 -1 75731 -7.5325509533286095e-03</internalNodes>      <leafValues>        4.3561342358589172e-01 -1.3048718869686127e-01</leafValues></_>    <_>      <internalNodes>        0 -1 98826 -8.7208129116334021e-05</internalNodes>      <leafValues>        -3.4751534461975098e-01 1.7769947648048401e-01</leafValues></_>    <_>      <internalNodes>        0 -1 96535 -2.6107334997504950e-03</internalNodes>      <leafValues>        4.2870596051216125e-01 -1.0828572511672974e-01</leafValues></_>    <_>      <internalNodes>        0 -1 88765 -1.8093140795826912e-02</internalNodes>      <leafValues>        5.4736196994781494e-01 -9.9111594259738922e-02</leafValues></_>    <_>      <internalNodes>        0 -1 98537 -1.7236794519703835e-05</internalNodes>      <leafValues>        1.8511287868022919e-01 -2.7341878414154053e-01</leafValues></_>    <_>      <internalNodes>        0 -1 107946 -1.7477544024586678e-02</internalNodes>      <leafValues>        -5.2556008100509644e-01 1.1980487406253815e-01</leafValues></_>    <_>      <internalNodes>        0 -1 91031 -5.3219413384795189e-03</internalNodes>      <leafValues>        -6.6010618209838867e-01 8.0404721200466156e-02</leafValues></_>    <_>      <internalNodes>        0 -1 69973 -1.7760145710781217e-03</internalNodes>      <leafValues>        1.7946366965770721e-01 -2.7148970961570740e-01</leafValues></_>    <_>      <internalNodes>        0 -1 98920 2.4928517639636993e-02</internalNodes>      <leafValues>        -1.2232655286788940e-01 4.0423113107681274e-01</leafValues></_>    <_>      <internalNodes>        0 -1 116785 -4.9812714569270611e-03</internalNodes>      <leafValues>        3.5802629590034485e-01 -1.2145479768514633e-01</leafValues></_>    <_>      <internalNodes>        0 -1 124435 1.4614598825573921e-02</internalNodes>      <leafValues>        -7.6493002474308014e-02 6.2054139375686646e-01</leafValues></_>    <_>      <internalNodes>        0 -1 85393 -4.9441831652075052e-04</internalNodes>      <leafValues>        2.3910699784755707e-01 -1.7451830208301544e-01</leafValues></_>    <_>      <internalNodes>        0 -1 77036 1.1537354439496994e-02</internalNodes>      <leafValues>        9.3090601265430450e-02 -4.8221328854560852e-01</leafValues></_>    <_>      <internalNodes>        0 -1 113933 5.4324592929333448e-04</internalNodes>      <leafValues>        -2.0914237201213837e-01 2.2386443614959717e-01</leafValues></_>    <_>      <internalNodes>        0 -1 77995 9.9833160638809204e-03</internalNodes>      <leafValues>        9.2472553253173828e-02 -5.0247043371200562e-01</leafValues></_>    <_>      <internalNodes>        0 -1 49757 -1.8729094415903091e-02</internalNodes>      <leafValues>        4.2603361606597900e-01 -1.0813623666763306e-01</leafValues></_>    <_>      <internalNodes>        0 -1 58966 -1.9377788994461298e-03</internalNodes>      <leafValues>        3.2574051618576050e-01 -1.2454639375209808e-01</leafValues></_>    <_>      <internalNodes>        0 -1 90550 -6.7695660982280970e-04</internalNodes>      <leafValues>        1.9806678593158722e-01 -2.1309059858322144e-01</leafValues></_>    <_>      <internalNodes>        0 -1 95329 -1.2807042337954044e-02</internalNodes>      <leafValues>        4.6797046065330505e-01 -8.7033167481422424e-02</leafValues></_>    <_>      <internalNodes>        0 -1 107547 6.2797423452138901e-03</internalNodes>      <leafValues>        -1.2602967023849487e-01 3.0303943157196045e-01</leafValues></_>    <_>      <internalNodes>        0 -1 106 2.9137823730707169e-03</internalNodes>      <leafValues>        1.0315316170454025e-01 -3.5703846812248230e-01</leafValues></_>    <_>      <internalNodes>        0 -1 9 -1.0790014639496803e-03</internalNodes>      <leafValues>        -2.9604578018188477e-01 1.1294378340244293e-01</leafValues></_>    <_>      <internalNodes>        0 -1 97835 -1.1730563128367066e-03</internalNodes>      <leafValues>        2.7088591456413269e-01 -1.2543858587741852e-01</leafValues></_>    <_>      <internalNodes>        0 -1 70153 1.6865458339452744e-02</internalNodes>      <leafValues>        4.5203447341918945e-02 -7.8713554143905640e-01</leafValues></_>    <_>      <internalNodes>        0 -1 61784 9.8131177946925163e-04</internalNodes>      <leafValues>        -1.3589806854724884e-01 3.0577820539474487e-01</leafValues></_>    <_>      <internalNodes>        0 -1 90270 5.4043613374233246e-02</internalNodes>      <leafValues>        4.4503018260002136e-02 -8.2685351371765137e-01</leafValues></_></weakClassifiers></stage1></opencv_storage>