<?xml version="1.0"?><opencv_storage><stage0>  <maxWeakCount>22</maxWeakCount>  <stageThreshold>-8.7269288301467896e-01</stageThreshold>  <weakClassifiers>    <_>      <internalNodes>        0 -1 69503 -5.5883394088596106e-04</internalNodes>      <leafValues>        5.5965906381607056e-01 -1.2716762721538544e-01</leafValues></_>    <_>      <internalNodes>        0 -1 64807 1.3896828889846802e-01</internalNodes>      <leafValues>        -1.5197198092937469e-01 6.9249564409255981e-01</leafValues></_>    <_>      <internalNodes>        0 -1 83293 -5.3424742072820663e-03</internalNodes>      <leafValues>        3.5084423422813416e-01 -2.5639662146568298e-01</leafValues></_>    <_>      <internalNodes>        0 -1 98212 -4.0617911145091057e-04</internalNodes>      <leafValues>        3.2562673091888428e-01 -2.8148850798606873e-01</leafValues></_>    <_>      <internalNodes>        0 -1 75261 -1.4491947367787361e-03</internalNodes>      <leafValues>        3.4524780511856079e-01 -2.0104557275772095e-01</leafValues></_>    <_>      <internalNodes>        0 -1 78825 -2.0905197598040104e-03</internalNodes>      <leafValues>        2.7885767817497253e-01 -2.7997270226478577e-01</leafValues></_>    <_>      <internalNodes>        0 -1 77036 1.1366413906216621e-02</internalNodes>      <leafValues>        1.0573224723339081e-01 -5.6510263681411743e-01</leafValues></_>    <_>      <internalNodes>        0 -1 69513 1.4564661309123039e-02</internalNodes>      <leafValues>        5.4272081702947617e-02 -8.2796645164489746e-01</leafValues></_>    <_>      <internalNodes>        0 -1 44028 -4.4839153997600079e-03</internalNodes>      <leafValues>        3.1696182489395142e-01 -2.1181836724281311e-01</leafValues></_>    <_>      <internalNodes>        0 -1 115571 -6.1090238392353058e-02</internalNodes>      <leafValues>        5.7072794437408447e-01 -1.0219490528106689e-01</leafValues></_>    <_>      <internalNodes>        0 -1 98017 -8.3097373135387897e-04</internalNodes>      <leafValues>        2.6569265127182007e-01 -2.0787575840950012e-01</leafValues></_>    <_>      <internalNodes>        0 -1 96759 2.5223638862371445e-02</internalNodes>      <leafValues>        8.2516312599182129e-02 -6.4766848087310791e-01</leafValues></_>    <_>      <internalNodes>        0 -1 83715 2.8221651911735535e-02</internalNodes>      <leafValues>        5.4133210331201553e-02 -7.1736067533493042e-01</leafValues></_>    <_>      <internalNodes>        0 -1 98724 -8.0103834625333548e-04</internalNodes>      <leafValues>        2.9877933859825134e-01 -1.8959085643291473e-01</leafValues></_>    <_>      <internalNodes>        0 -1 85104 -1.4460855163633823e-02</internalNodes>      <leafValues>        -6.4901226758956909e-01 7.6334081590175629e-02</leafValues></_>    <_>      <internalNodes>        0 -1 83263 -7.5948575977236032e-04</internalNodes>      <leafValues>        2.2928577661514282e-01 -2.0078583061695099e-01</leafValues></_>    <_>      <internalNodes>        0 -1 44236 -3.5298407077789307e-02</internalNodes>      <leafValues>        4.3522909283638000e-01 -9.5724567770957947e-02</leafValues></_>    <_>      <internalNodes>        0 -1 91869 -4.3071975233033299e-04</internalNodes>      <leafValues>        2.4868732690811157e-01 -1.7689388990402222e-01</leafValues></_>    <_>      <internalNodes>        0 -1 91021 -7.6752831228077412e-04</internalNodes>      <leafValues>        2.7042195200920105e-01 -1.9561594724655151e-01</leafValues></_>    <_>      <internalNodes>        0 -1 10059 3.9770100265741348e-03</internalNodes>      <leafValues>        1.2089641392230988e-01 -3.7294095754623413e-01</leafValues></_>    <_>      <internalNodes>        0 -1 61148 2.8545591980218887e-02</internalNodes>      <leafValues>        -1.5036980807781219e-01 3.0609682202339172e-01</leafValues></_>    <_>      <internalNodes>        0 -1 78229 6.4111096435226500e-05</internalNodes>      <leafValues>        -2.1198853850364685e-01 2.0774431526660919e-01</leafValues></_></weakClassifiers></stage0></opencv_storage>