<?xml version="1.0"?><opencv_storage><stage13>  <maxWeakCount>5</maxWeakCount>  <stageThreshold>-4.8717144131660461e-01</stageThreshold>  <weakClassifiers>    <_>      <internalNodes>        0 -1 791550 -548824440 2012209096 1078124256 2051121184        -680044468 1610604527 1537438557 -2109537</internalNodes>      <leafValues>        -5.0344824790954590e-01 7.0810812711715698e-01</leafValues></_>    <_>      <internalNodes>        0 -1 451163 -1096548423 -822165507 -1073807981 -269683220        -2053128198 1148518388 -135004194 -17204</internalNodes>      <leafValues>        -4.3217852711677551e-01 6.8737542629241943e-01</leafValues></_>    <_>      <internalNodes>        0 -1 288876 -740855602 1393545241 1075413699 -65599021        -258246075 -1124072446 -83136111 -318640811</internalNodes>      <leafValues>        -6.6379266977310181e-01 4.6537342667579651e-01</leafValues></_>    <_>      <internalNodes>        0 -1 701173 -134221842 -575852562 -201493904 1909779431        -268447825 772573152 628488191 1463910287</internalNodes>      <leafValues>        -4.8926481604576111e-01 6.1219710111618042e-01</leafValues></_>    <_>      <internalNodes>        0 -1 384359 -544504865 403720469 520460307 -309000169 520356038        -861894592 -1140576357 1288034846</internalNodes>      <leafValues>        -6.1688709259033203e-01 5.0005096197128296e-01</leafValues></_></weakClassifiers></stage13></opencv_storage>