<?xml version="1.0"?><opencv_storage><stage15>  <maxWeakCount>13</maxWeakCount>  <stageThreshold>-1.7821242809295654e+00</stageThreshold>  <weakClassifiers>    <_>      <internalNodes>        0 -1 151139 2.3638905258849263e-04</internalNodes>      <leafValues>        -1.2482686042785645e+00 1.2482686042785645e+00</leafValues></_>    <_>      <internalNodes>        0 -1 53523 -2.4860827624797821e-01</internalNodes>      <leafValues>        7.9580157995223999e-01 -7.9580157995223999e-01</leafValues></_>    <_>      <internalNodes>        0 -1 7545 6.8444058299064636e-02</internalNodes>      <leafValues>        -8.3517670631408691e-01 8.3517670631408691e-01</leafValues></_>    <_>      <internalNodes>        0 -1 126394 -1.8417311366647482e-03</internalNodes>      <leafValues>        -7.7368003129959106e-01 7.7368003129959106e-01</leafValues></_>    <_>      <internalNodes>        0 -1 65557 1.0656507220119238e-03</internalNodes>      <leafValues>        -8.2682901620864868e-01 8.2682901620864868e-01</leafValues></_>    <_>      <internalNodes>        0 -1 84167 1.2154582655057311e-03</internalNodes>      <leafValues>        -6.7063564062118530e-01 6.7063564062118530e-01</leafValues></_>    <_>      <internalNodes>        0 -1 111033 -3.7287094164639711e-03</internalNodes>      <leafValues>        8.3234083652496338e-01 -8.3234083652496338e-01</leafValues></_>    <_>      <internalNodes>        0 -1 121245 2.1259849891066551e-03</internalNodes>      <leafValues>        -8.2297015190124512e-01 8.2297015190124512e-01</leafValues></_>    <_>      <internalNodes>        0 -1 120797 7.2777015157043934e-03</internalNodes>      <leafValues>        -6.4011889696121216e-01 6.4011889696121216e-01</leafValues></_>    <_>      <internalNodes>        0 -1 77922 1.0797746945172548e-03</internalNodes>      <leafValues>        8.3525997400283813e-01 -8.3525997400283813e-01</leafValues></_>    <_>      <internalNodes>        0 -1 66182 -5.0308695062994957e-03</internalNodes>      <leafValues>        7.6851224899291992e-01 -7.6851224899291992e-01</leafValues></_>    <_>      <internalNodes>        0 -1 115809 -5.0630802288651466e-03</internalNodes>      <leafValues>        6.9059354066848755e-01 -6.9059354066848755e-01</leafValues></_>    <_>      <internalNodes>        0 -1 113335 -8.0819160211831331e-04</internalNodes>      <leafValues>        7.8505295515060425e-01 -7.8505295515060425e-01</leafValues></_></weakClassifiers></stage15></opencv_storage>