<?xml version="1.0"?><opencv_storage><stage4>  <maxWeakCount>6</maxWeakCount>  <stageThreshold>-2.0398247241973877e+00</stageThreshold>  <weakClassifiers>    <_>      <internalNodes>        0 -1 101955 8.9605003595352173e-03</internalNodes>      <leafValues>        -1.5208708047866821e+00 1.5208708047866821e+00</leafValues></_>    <_>      <internalNodes>        0 -1 32610 1.3904144987463951e-02</internalNodes>      <leafValues>        -1.2506229877471924e+00 1.2506229877471924e+00</leafValues></_>    <_>      <internalNodes>        0 -1 138813 6.2448941171169281e-03</internalNodes>      <leafValues>        -1.1295537948608398e+00 1.1295537948608398e+00</leafValues></_>    <_>      <internalNodes>        0 -1 109339 -2.5747943669557571e-02</internalNodes>      <leafValues>        1.0209951400756836e+00 -1.0209951400756836e+00</leafValues></_>    <_>      <internalNodes>        0 -1 79508 -8.8299494236707687e-03</internalNodes>      <leafValues>        1.1136590242385864e+00 -1.1136590242385864e+00</leafValues></_>    <_>      <internalNodes>        0 -1 52158 2.2317009046673775e-02</internalNodes>      <leafValues>        -1.0878549814224243e+00 1.0878549814224243e+00</leafValues></_></weakClassifiers></stage4></opencv_storage>