<?xml version="1.0"?><opencv_storage><stage12>  <maxWeakCount>9</maxWeakCount>  <stageThreshold>-1.3864910602569580e+00</stageThreshold>  <weakClassifiers>    <_>      <internalNodes>        0 -1 112810 -2.2327918559312820e-03</internalNodes>      <leafValues>        -1.2930717468261719e+00 1.2930717468261719e+00</leafValues></_>    <_>      <internalNodes>        0 -1 55653 -8.5799545049667358e-03</internalNodes>      <leafValues>        8.9723509550094604e-01 -8.9723509550094604e-01</leafValues></_>    <_>      <internalNodes>        0 -1 112176 -1.5095747075974941e-03</internalNodes>      <leafValues>        9.0301126241683960e-01 -9.0301126241683960e-01</leafValues></_>    <_>      <internalNodes>        0 -1 17431 1.0238705575466156e-01</internalNodes>      <leafValues>        -8.5217159986495972e-01 8.5217159986495972e-01</leafValues></_>    <_>      <internalNodes>        0 -1 90481 1.8612250685691833e-01</internalNodes>      <leafValues>        -8.5426384210586548e-01 8.5426384210586548e-01</leafValues></_>    <_>      <internalNodes>        0 -1 129784 -1.6719190170988441e-04</internalNodes>      <leafValues>        8.1870627403259277e-01 -8.1870627403259277e-01</leafValues></_>    <_>      <internalNodes>        0 -1 69688 -2.2550455760210752e-03</internalNodes>      <leafValues>        7.5097978115081787e-01 -7.5097978115081787e-01</leafValues></_>    <_>      <internalNodes>        0 -1 136412 2.5221627205610275e-02</internalNodes>      <leafValues>        -7.5795644521713257e-01 7.5795644521713257e-01</leafValues></_>    <_>      <internalNodes>        0 -1 94921 -4.9812777433544397e-04</internalNodes>      <leafValues>        8.9300531148910522e-01 -8.9300531148910522e-01</leafValues></_></weakClassifiers></stage12></opencv_storage>