<?xml version="1.0"?><opencv_storage><stage18>  <maxWeakCount>8</maxWeakCount>  <stageThreshold>-2.0123097896575928e+00</stageThreshold>  <weakClassifiers>    <_>      <internalNodes>        0 -1 136792 2.2766245820093900e-04</internalNodes>      <leafValues>        1.4521775245666504e+00 -1.4521775245666504e+00</leafValues></_>    <_>      <internalNodes>        0 -1 99205 -4.2999461293220520e-03</internalNodes>      <leafValues>        1.2280615568161011e+00 -1.2280615568161011e+00</leafValues></_>    <_>      <internalNodes>        0 -1 6060 1.6724072396755219e-02</internalNodes>      <leafValues>        -1.1856672763824463e+00 1.1856672763824463e+00</leafValues></_>    <_>      <internalNodes>        0 -1 44034 1.4257742441259325e-04</internalNodes>      <leafValues>        1.2724062204360962e+00 -1.2724062204360962e+00</leafValues></_>    <_>      <internalNodes>        0 -1 133657 2.0900713279843330e-03</internalNodes>      <leafValues>        -9.8374032974243164e-01 9.8374032974243164e-01</leafValues></_>    <_>      <internalNodes>        0 -1 94333 -4.3455092236399651e-03</internalNodes>      <leafValues>        -1.1068514585494995e+00 1.1068514585494995e+00</leafValues></_>    <_>      <internalNodes>        0 -1 64453 -3.6648793611675501e-03</internalNodes>      <leafValues>        1.1152038574218750e+00 -1.1152038574218750e+00</leafValues></_>    <_>      <internalNodes>        0 -1 113756 -3.1672159093432128e-04</internalNodes>      <leafValues>        -1.0561088323593140e+00 1.0561088323593140e+00</leafValues></_></weakClassifiers></stage18></opencv_storage>