<?xml version="1.0"?><opencv_storage><stage2>  <maxWeakCount>5</maxWeakCount>  <stageThreshold>-1.9454081058502197e+00</stageThreshold>  <weakClassifiers>    <_>      <internalNodes>        0 -1 128354 6.3930571079254150e-02</internalNodes>      <leafValues>        -1.7987769842147827e+00 1.7987769842147827e+00</leafValues></_>    <_>      <internalNodes>        0 -1 19708 2.7157440781593323e-02</internalNodes>      <leafValues>        -1.4895601272583008e+00 1.4895601272583008e+00</leafValues></_>    <_>      <internalNodes>        0 -1 133170 4.6467240899801254e-03</internalNodes>      <leafValues>        -1.5289144515991211e+00 1.5289144515991211e+00</leafValues></_>    <_>      <internalNodes>        0 -1 104836 1.9425861537456512e-03</internalNodes>      <leafValues>        -1.1615583896636963e+00 1.1615583896636963e+00</leafValues></_>    <_>      <internalNodes>        0 -1 98985 3.9033722132444382e-02</internalNodes>      <leafValues>        -1.2688350677490234e+00 1.2688350677490234e+00</leafValues></_></weakClassifiers></stage2></opencv_storage>