<?xml version="1.0"?><opencv_storage><stage10>  <maxWeakCount>9</maxWeakCount>  <stageThreshold>-1.4750316143035889e+00</stageThreshold>  <weakClassifiers>    <_>      <internalNodes>        0 -1 118308 -4.7469395212829113e-04</internalNodes>      <leafValues>        -1.3149082660675049e+00 1.3149082660675049e+00</leafValues></_>    <_>      <internalNodes>        0 -1 153761 8.2871079212054610e-04</internalNodes>      <leafValues>        -8.6216592788696289e-01 8.6216592788696289e-01</leafValues></_>    <_>      <internalNodes>        0 -1 7536 5.7218559086322784e-02</internalNodes>      <leafValues>        -9.2794388532638550e-01 9.2794388532638550e-01</leafValues></_>    <_>      <internalNodes>        0 -1 75361 -4.6170141547918320e-02</internalNodes>      <leafValues>        8.6125642061233521e-01 -8.6125642061233521e-01</leafValues></_>    <_>      <internalNodes>        0 -1 121187 -9.1575458645820618e-03</internalNodes>      <leafValues>        9.3983036279678345e-01 -9.3983036279678345e-01</leafValues></_>    <_>      <internalNodes>        0 -1 136788 6.3661354943178594e-05</internalNodes>      <leafValues>        -7.7811574935913086e-01 7.7811574935913086e-01</leafValues></_>    <_>      <internalNodes>        0 -1 79979 -2.0871921442449093e-03</internalNodes>      <leafValues>        9.0979409217834473e-01 -9.0979409217834473e-01</leafValues></_>    <_>      <internalNodes>        0 -1 4491 6.1061404645442963e-02</internalNodes>      <leafValues>        -7.1449524164199829e-01 7.1449524164199829e-01</leafValues></_>    <_>      <internalNodes>        0 -1 105399 -2.9500224627554417e-05</internalNodes>      <leafValues>        8.6238682270050049e-01 -8.6238682270050049e-01</leafValues></_></weakClassifiers></stage10></opencv_storage>