<?xml version="1.0"?><opencv_storage><cascade>  <stageType>BOOST</stageType>  <featureType>LBP</featureType>  <height>75</height>  <width>75</width>  <stageParams>    <boostType>GAB</boostType>    <minHitRate>9.9500000476837158e-01</minHitRate>    <maxFalseAlarm>5.0000000000000000e-01</maxFalseAlarm>    <weightTrimRate>9.4999999999999996e-01</weightTrimRate>    <maxDepth>1</maxDepth>    <maxWeakCount>100</maxWeakCount></stageParams>  <featureParams>    <maxCatCount>256</maxCatCount>    <featSize>1</featSize></featureParams>  <stageNum>20</stageNum>  <stages>    <!-- stage 0 -->    <_>      <maxWeakCount>4</maxWeakCount>      <stageThreshold>-3.5448461771011353e-01</stageThreshold>      <weakClassifiers>        <_>          <internalNodes>            0 -1 11 -170665985 2013233151 1342248435 1978913175            1724644347 1165381771 1912586239 2012741631</internalNodes>          <leafValues>            -8.1277340650558472e-01 8.3582663536071777e-01</leafValues></_>        <_>          <internalNodes>            0 -1 31 -2097201 -620539294 -770586158 -585903728 -640685733            -620649981 -107752523 -27919792</internalNodes>          <leafValues>            -7.9679870605468750e-01 7.4263542890548706e-01</leafValues></_>        <_>          <internalNodes>            0 -1 83 -240125206 -1048325374 -804236064 -2138876557            1132974862 -913657721 1787769591 -1067188225</internalNodes>          <leafValues>            -7.7787500619888306e-01 6.7203652858734131e-01</leafValues></_>        <_>          <internalNodes>            0 -1 20 -271582518 -2080161462 -465452958 -351023021            -72622002 712605767 -1018955017 -372245645</internalNodes>          <leafValues>            -8.0747431516647339e-01 5.8305096626281738e-01</leafValues></_></weakClassifiers></_>    <!-- stage 1 -->    <_>      <maxWeakCount>2</maxWeakCount>      <stageThreshold>-5.4091840982437134e-02</stageThreshold>      <weakClassifiers>        <_>          <internalNodes>            0 -1 86 -278 -806388790 1627289696 -452984845 1918819918            -537460770 -34144265 -69206017</internalNodes>          <leafValues>            -6.1331218481063843e-01 8.1350481510162354e-01</leafValues></_>        <_>          <internalNodes>            0 -1 23 -74449590 -687087261 -649997872 -11053821 -79430901            -307527677 -779619757 -134749581</internalNodes>          <leafValues>            -8.6759668588638306e-01 6.1170047521591187e-01</leafValues></_></weakClassifiers></_>    <!-- stage 2 -->    <_>      <maxWeakCount>4</maxWeakCount>      <stageThreshold>-3.3442243933677673e-01</stageThreshold>      <weakClassifiers>        <_>          <internalNodes>            0 -1 15 -278 1299185486 -20480286 -553648657 -134750650            -1074798579 -403212297 -16779273</internalNodes>          <leafValues>            -6.8984961509704590e-01 7.3864483833312988e-01</leafValues></_>        <_>          <internalNodes>            0 -1 39 -208406565 1598525600 -1059992429 1593939136            -120849697 -1367310336 -55838875 -143262640</internalNodes>          <leafValues>            -7.8326541185379028e-01 5.7251709699630737e-01</leafValues></_>        <_>          <internalNodes>            0 -1 79 -679478578 -282865214 1921077964 -128600337            -1069072310 -1987886048 -1063532289 -1057228033</internalNodes>          <leafValues>            -7.5312048196792603e-01 5.4618132114410400e-01</leafValues></_>        <_>          <internalNodes>            0 -1 48 -1584297333 -184090367 -1585443791 1472922483            -125719893 -73676792 -1467953473 925192983</internalNodes>          <leafValues>            -6.6441243886947632e-01 5.9251123666763306e-01</leafValues></_></weakClassifiers></_>    <!-- stage 3 -->    <_>      <maxWeakCount>4</maxWeakCount>      <stageThreshold>-3.0400457978248596e-01</stageThreshold>      <weakClassifiers>        <_>          <internalNodes>            0 -1 93 -67110166 1827667946 -597954366 -117973549            1174372174 -822149878 -134907913 -587726985</internalNodes>          <leafValues>            -6.8805527687072754e-01 7.1136277914047241e-01</leafValues></_>        <_>          <internalNodes>            0 -1 46 -2368001 -174876617 -1878658605 -646458897            -619385995 -65568734 -301401328 -148880832</internalNodes>          <leafValues>            -7.6894789934158325e-01 5.6730711460113525e-01</leafValues></_>        <_>          <internalNodes>            0 -1 63 -573058593 -6602395 -804196097 -226361342 -118558790            -1165301630 -670369058 -1065314174</internalNodes>          <leafValues>            -7.2959071397781372e-01 5.5499953031539917e-01</leafValues></_>        <_>          <internalNodes>            0 -1 71 1795381442 -1014902654 -1744665982 -1874525178            1124827210 -1455066942 -247222085 -246425649</internalNodes>          <leafValues>            -6.7194062471389771e-01 5.9799909591674805e-01</leafValues></_></weakClassifiers></_>    <!-- stage 4 -->    <_>      <maxWeakCount>5</maxWeakCount>      <stageThreshold>-8.1010735034942627e-01</stageThreshold>      <weakClassifiers>        <_>          <internalNodes>            0 -1 88 -77070614 -1016088082 -1067749278 -520093705            2073386574 -134381574 -559625 -276824081</internalNodes>          <leafValues>            -6.8326693773269653e-01 7.0502549409866333e-01</leafValues></_>        <_>          <internalNodes>            0 -1 4 -256902422 -370945588 251056 1154306519 -1853124402            1359201256 -2147159885 -1128268833</internalNodes>          <leafValues>            -6.7267638444900513e-01 6.1557990312576294e-01</leafValues></_>        <_>          <internalNodes>            0 -1 44 -1052675 -68747781 -15 -537727804 -268566597            -1125842956 -134218497 -9055020</internalNodes>          <leafValues>            -5.2892410755157471e-01 6.9201129674911499e-01</leafValues></_>        <_>          <internalNodes>            0 -1 64 -262975250 1563771916 -737669062 -1639477097            -1304227313 -633617913 -1711017541 -1594103265</internalNodes>          <leafValues>            -6.8815648555755615e-01 5.2895694971084595e-01</leafValues></_>        <_>          <internalNodes>            0 -1 51 -200016289 -49589963 -506904357 -275054335            -743870412 -72727992 -1968723212 -16774400</internalNodes>          <leafValues>            -7.0845967531204224e-01 5.4580307006835938e-01</leafValues></_></weakClassifiers></_>    <!-- stage 5 -->    <_>      <maxWeakCount>5</maxWeakCount>      <stageThreshold>-7.9040366411209106e-01</stageThreshold>      <weakClassifiers>        <_>          <internalNodes>            0 -1 25 -17 -1049105 -16777998 -9437325 -178 -1622147217            -318769161 -8388751</internalNodes>          <leafValues>            -5.2755904197692871e-01 7.7419352531433105e-01</leafValues></_>        <_>          <internalNodes>            0 -1 89 -719324694 -959491614 1079170210 -233582129            -377009406 -810366678 -1824144429 -734530589</internalNodes>          <leafValues>            -6.7280602455139160e-01 5.5833518505096436e-01</leafValues></_>        <_>          <internalNodes>            0 -1 45 -409079809 -708226855 285415569 -821047088            -1985377601 -74235681 -1425297697 -674938283</internalNodes>          <leafValues>            -5.9446066617965698e-01 6.1672294139862061e-01</leafValues></_>        <_>          <internalNodes>            0 -1 69 1972504686 -654110637 -704555402 1879052291            -1341951857 -133472253 2013434863 -1060374565</internalNodes>          <leafValues>            -7.0367592573165894e-01 4.8860308527946472e-01</leafValues></_>        <_>          <internalNodes>            0 -1 2 1927270606 17155275 -767440702 -1435643165            -1177960214 671373474 -1975389713 -1997808993</internalNodes>          <leafValues>            -6.9536465406417847e-01 5.1290690898895264e-01</leafValues></_></weakClassifiers></_>    <!-- stage 6 -->    <_>      <maxWeakCount>5</maxWeakCount>      <stageThreshold>-1.0326964855194092e+00</stageThreshold>      <weakClassifiers>        <_>          <internalNodes>            0 -1 9 -575973174 -1884815582 -353444126 -1090519553            2144687170 -1885405202 -1627925001 -805308453</internalNodes>          <leafValues>            -5.5741828680038452e-01 7.4892449378967285e-01</leafValues></_>        <_>          <internalNodes>            0 -1 40 -172490753 -378871384 1090617521 -754974336            -624236289 1229504616 -1316885515 -331028236</internalNodes>          <leafValues>            -6.7711055278778076e-01 5.6388318538665771e-01</leafValues></_>        <_>          <internalNodes>            0 -1 90 1900534080 -251032959 1744918640 1415909541            2057984012 -641499030 1648974615 -8030139</internalNodes>          <leafValues>            -7.1130019426345825e-01 4.7859069705009460e-01</leafValues></_>        <_>          <internalNodes>            0 -1 68 2145349884 1975582977 -199159139 1889358085            -635954520 -309165655 -1954444648 -315574520</internalNodes>          <leafValues>            -7.1429926156997681e-01 5.0159949064254761e-01</leafValues></_>        <_>          <internalNodes>            0 -1 3 -732711414 1426625294 -1727803150 -778448453            -1828105660 -2139092760 9097411 1806695135</internalNodes>          <leafValues>            -7.9768735170364380e-01 4.1153311729431152e-01</leafValues></_></weakClassifiers></_>    <!-- stage 7 -->    <_>      <maxWeakCount>5</maxWeakCount>      <stageThreshold>-6.5650939941406250e-01</stageThreshold>      <weakClassifiers>        <_>          <internalNodes>            0 -1 14 -134218006 162004974 -16859454 -150994945 -178            -143720977 -33564681 2113926903</internalNodes>          <leafValues>            -6.2833672761917114e-01 6.7074930667877197e-01</leafValues></_>        <_>          <internalNodes>            0 -1 97 -647016214 -810549600 -26349982 -50331675 -614834            2147401711 1476263911 -11010081</internalNodes>          <leafValues>            -5.5192553997039795e-01 6.3744741678237915e-01</leafValues></_>        <_>          <internalNodes>            0 -1 32 395246586 210551946 1424075219 -781135794 673747962            436240384 857790679 -339291394</internalNodes>          <leafValues>            -6.0738509893417358e-01 5.4472672939300537e-01</leafValues></_>        <_>          <internalNodes>            0 -1 65 1632432878 -247082876 1116348 299974730 -519988022            -99088254 -803880993 999258623</internalNodes>          <leafValues>            -5.5514556169509888e-01 6.0439985990524292e-01</leafValues></_>        <_>          <internalNodes>            0 -1 19 -751577906 -2006469752 -1072508765 440660385            -1559833778 -1960624125 62179 -65670281</internalNodes>          <leafValues>            -6.3023519515991211e-01 5.3417176008224487e-01</leafValues></_></weakClassifiers></_>    <!-- stage 8 -->    <_>      <maxWeakCount>5</maxWeakCount>      <stageThreshold>-9.8181939125061035e-01</stageThreshold>      <weakClassifiers>        <_>          <internalNodes>            0 -1 36 -1 -148389902 -1 -13304074 -84676641 -9045364            -2097167 -3080620</internalNodes>          <leafValues>            -5.8834588527679443e-01 6.9843631982803345e-01</leafValues></_>        <_>          <internalNodes>            0 -1 91 -1090265886 -1050423288 -1069349853 -799567743            -70201190 1398898698 1506820267 -990714945</internalNodes>          <leafValues>            -6.5940642356872559e-01 5.6785011291503906e-01</leafValues></_>        <_>          <internalNodes>            0 -1 0 588245582 610314 1073828986 -1326370721 -2013148350            1823027718 -1727876769 -807404961</internalNodes>          <leafValues>            -6.8356543779373169e-01 4.8525243997573853e-01</leafValues></_>        <_>          <internalNodes>            0 -1 10 151117250 58953809 419512642 755335297 1073774727            -2047377262 2013384867 -1885879935</internalNodes>          <leafValues>            -7.0206636190414429e-01 4.8229417204856873e-01</leafValues></_>        <_>          <internalNodes>            0 -1 73 -639795346 -619510942 402657948 -24571819            -1305456308 -1825852648 -1718907944 -263656950</internalNodes>          <leafValues>            -8.0403536558151245e-01 3.9704385399818420e-01</leafValues></_></weakClassifiers></_>    <!-- stage 9 -->    <_>      <maxWeakCount>6</maxWeakCount>      <stageThreshold>-4.1160064935684204e-01</stageThreshold>      <weakClassifiers>        <_>          <internalNodes>            0 -1 85 -1356079910 -2136211476 1779527746 -1341828527            -246230006 -822083585 -1090584577 -1594097665</internalNodes>          <leafValues>            -5.9135562181472778e-01 6.7789167165756226e-01</leafValues></_>        <_>          <internalNodes>            0 -1 61 276651246 1350524271 -260080513 501120767 -327191041            -102793473 -858882306 -117473281</internalNodes>          <leafValues>            -5.3030014038085938e-01 6.2586575746536255e-01</leafValues></_>        <_>          <internalNodes>            0 -1 24 2147482602 -1453076030 -1832151870 1343467995            -528306161 -1203077120 -1064664585 -934021385</internalNodes>          <leafValues>            -7.0955401659011841e-01 4.6574899554252625e-01</leafValues></_>        <_>          <internalNodes>            0 -1 13 1561023578 -578086616 90545 -1415642867 -1794469819            17317927 537034887 -845461649</internalNodes>          <leafValues>            -6.2441420555114746e-01 5.2642333507537842e-01</leafValues></_>        <_>          <internalNodes>            0 -1 55 -673228929 -1659669701 -519840805 -24084393            -886556571 -340230109 1373274401 -265232624</internalNodes>          <leafValues>            -6.7739230394363403e-01 4.5885443687438965e-01</leafValues></_>        <_>          <internalNodes>            0 -1 82 -81543286 1157968043 -121015695 813814659 -905463221            -72269535 -75390049 -1066421681</internalNodes>          <leafValues>            -6.9347983598709106e-01 4.3433129787445068e-01</leafValues></_></weakClassifiers></_>    <!-- stage 10 -->    <_>      <maxWeakCount>6</maxWeakCount>      <stageThreshold>-3.3031901717185974e-01</stageThreshold>      <weakClassifiers>        <_>          <internalNodes>            0 -1 12 -1326223109 -210242817 821556223 1911779571            -201854721 -201852931 1912075775 1937503999</internalNodes>          <leafValues>            -5.1027399301528931e-01 7.1494966745376587e-01</leafValues></_>        <_>          <internalNodes>            0 -1 5 -654706962 621662662 268468390 674844879 -208817201            -78708286 717992443 -826281477</internalNodes>          <leafValues>            -5.7578963041305542e-01 5.9389829635620117e-01</leafValues></_>        <_>          <internalNodes>            0 -1 42 -1540690950 -777895736 1074267601 -1125760632            222363371 -586899448 1602269606 -1400313620</internalNodes>          <leafValues>            -7.6749914884567261e-01 4.4608572125434875e-01</leafValues></_>        <_>          <internalNodes>            0 -1 43 -50745921 1354821505 -50872653 -719995217 -322640667            -910102580 -856313938 -1627017695</internalNodes>          <leafValues>            -5.6092703342437744e-01 6.0260379314422607e-01</leafValues></_>        <_>          <internalNodes>            0 -1 29 -5848834 -754732925 -1879007213 -805207543            -331166900 -763297508 -515310997 1953525591</internalNodes>          <leafValues>            -6.5477389097213745e-01 4.9855679273605347e-01</leafValues></_>        <_>          <internalNodes>            0 -1 59 -1591745619 -716177352 1694499103 2139488284            -895376405 -1664808056 -2136244008 1417986248</internalNodes>          <leafValues>            -7.1099597215652466e-01 4.1592600941658020e-01</leafValues></_></weakClassifiers></_>    <!-- stage 11 -->    <_>      <maxWeakCount>4</maxWeakCount>      <stageThreshold>-3.5776364803314209e-01</stageThreshold>      <weakClassifiers>        <_>          <internalNodes>            0 -1 7 -527638 1139802087 -1124092702 -1862402049 -33554609            -786433 -265 -1881669633</internalNodes>          <leafValues>            -5.0689655542373657e-01 7.0965248346328735e-01</leafValues></_>        <_>          <internalNodes>            0 -1 78 -171835410 -280768507 -704539964 -26783423            1211580744 1829867777 -661800708 -1061437349</internalNodes>          <leafValues>            -7.6095300912857056e-01 5.1039874553680420e-01</leafValues></_>        <_>          <internalNodes>            0 -1 95 1134514630 1399017995 4542576 -787381679 1561508174            -83123965 702900611 2139479925</internalNodes>          <leafValues>            -6.4659869670867920e-01 5.1117283105850220e-01</leafValues></_>        <_>          <internalNodes>            0 -1 26 -1785071154 -1488895933 -2087647086 -116162541            -1568626097 -2008545253 411140341 -81557405</internalNodes>          <leafValues>            -8.1763595342636108e-01 4.1128233075141907e-01</leafValues></_></weakClassifiers></_>    <!-- stage 12 -->    <_>      <maxWeakCount>5</maxWeakCount>      <stageThreshold>-7.3685640096664429e-01</stageThreshold>      <weakClassifiers>        <_>          <internalNodes>            0 -1 94 -11019830 -1090705 1929376480 2142500659 2144689999            -11010209 2104850423 -539027501</internalNodes>          <leafValues>            -3.7910884618759155e-01 7.4296516180038452e-01</leafValues></_>        <_>          <internalNodes>            0 -1 22 -2029551149 -640925680 277088498 -1122938637 8488171            143132801 -2004449077 1199771971</internalNodes>          <leafValues>            -6.4789962768554688e-01 5.3730714321136475e-01</leafValues></_>        <_>          <internalNodes>            0 -1 62 -246165503 -720960000 -1055890981 -754004981            -1072776417 -11976320 -934820625 311598</internalNodes>          <leafValues>            -6.6732025146484375e-01 4.5260670781135559e-01</leafValues></_>        <_>          <internalNodes>            0 -1 58 -128625937 -267268011 -2146936806 -1811742693            943209083 -131657472 -1414911569 -65619909</internalNodes>          <leafValues>            -6.1170738935470581e-01 4.9639710783958435e-01</leafValues></_>        <_>          <internalNodes>            0 -1 8 354145482 -2129964790 1089048641 1498906655            -1987706801 1937854465 -1858027293 1213930347</internalNodes>          <leafValues>            -6.6099882125854492e-01 4.9019944667816162e-01</leafValues></_></weakClassifiers></_>    <!-- stage 13 -->    <_>      <maxWeakCount>5</maxWeakCount>      <stageThreshold>-4.8717144131660461e-01</stageThreshold>      <weakClassifiers>        <_>          <internalNodes>            0 -1 80 -548824440 2012209096 1078124256 2051121184            -680044468 1610604527 1537438557 -2109537</internalNodes>          <leafValues>            -5.0344824790954590e-01 7.0810812711715698e-01</leafValues></_>        <_>          <internalNodes>            0 -1 50 -1096548423 -822165507 -1073807981 -269683220            -2053128198 1148518388 -135004194 -17204</internalNodes>          <leafValues>            -4.3217852711677551e-01 6.8737542629241943e-01</leafValues></_>        <_>          <internalNodes>            0 -1 27 -740855602 1393545241 1075413699 -65599021            -258246075 -1124072446 -83136111 -318640811</internalNodes>          <leafValues>            -6.6379266977310181e-01 4.6537342667579651e-01</leafValues></_>        <_>          <internalNodes>            0 -1 67 -134221842 -575852562 -201493904 1909779431            -268447825 772573152 628488191 1463910287</internalNodes>          <leafValues>            -4.8926481604576111e-01 6.1219710111618042e-01</leafValues></_>        <_>          <internalNodes>            0 -1 34 -544504865 403720469 520460307 -309000169 520356038            -861894592 -1140576357 1288034846</internalNodes>          <leafValues>            -6.1688709259033203e-01 5.0005096197128296e-01</leafValues></_></weakClassifiers></_>    <!-- stage 14 -->    <_>      <maxWeakCount>6</maxWeakCount>      <stageThreshold>-1.1915490627288818e+00</stageThreshold>      <weakClassifiers>        <_>          <internalNodes>            0 -1 16 -108004630 795688928 1761596144 1357246463 -76117494            -285278337 -84412491 -1065919641</internalNodes>          <leafValues>            -6.1443066596984863e-01 6.2696474790573120e-01</leafValues></_>        <_>          <internalNodes>            0 -1 21 456392686 -1427648625 1945337298 -1582829585            -1217141297 -1352433905 -1829636645 -1570508807</internalNodes>          <leafValues>            -4.8427155613899231e-01 6.4113813638687134e-01</leafValues></_>        <_>          <internalNodes>            0 -1 70 -13410860 1934819587 268513529 -636282607 -209470584            -1115586432 -83445352 -170267064</internalNodes>          <leafValues>            -6.3446885347366333e-01 4.9460846185684204e-01</leafValues></_>        <_>          <internalNodes>            0 -1 35 327412699 -1056661333 -1874460597 295174476            -920418097 -1949761395 -2111051621 -106632968</internalNodes>          <leafValues>            -5.8270627260208130e-01 5.1927220821380615e-01</leafValues></_>        <_>          <internalNodes>            0 -1 76 -1052556862 -1052700414 536871104 1074102356            302942144 25526275 -2129404949 2106847665</internalNodes>          <leafValues>            -7.1047508716583252e-01 4.4112095236778259e-01</leafValues></_>        <_>          <internalNodes>            0 -1 75 -1549543850 -1792804094 -16777553 -247204317            -201593889 -922747017 -1117601793 -1073643005</internalNodes>          <leafValues>            -5.0857037305831909e-01 6.0093176364898682e-01</leafValues></_></weakClassifiers></_>    <!-- stage 15 -->    <_>      <maxWeakCount>6</maxWeakCount>      <stageThreshold>-1.1766968965530396e+00</stageThreshold>      <weakClassifiers>        <_>          <internalNodes>            0 -1 18 -1616159542 1328021480 -1023410461 1946156797            -4268470 -308281356 1023211479 2147472759</internalNodes>          <leafValues>            -4.9806949496269226e-01 6.5070009231567383e-01</leafValues></_>        <_>          <internalNodes>            0 -1 49 486499455 -1728086281 -33620739 -1644167425            -1577233153 -50334210 -824312193 -1912605441</internalNodes>          <leafValues>            -4.0904089808464050e-01 6.5222954750061035e-01</leafValues></_>        <_>          <internalNodes>            0 -1 87 -1291595573 96702880 1342898275 -170307153 285903310            1537867954 -1593134093 -1053035997</internalNodes>          <leafValues>            -4.3987923860549927e-01 6.2504249811172485e-01</leafValues></_>        <_>          <internalNodes>            0 -1 41 -254542593 -11420005 -1937695425 -1793224671            -636491675 -133070799 -1836328832 -13473008</internalNodes>          <leafValues>            -7.1401250362396240e-01 4.2421838641166687e-01</leafValues></_>        <_>          <internalNodes>            0 -1 72 1495488680 2105491556 1342247668 -635628543            1225259598 -586475520 -66862706 -265683710</internalNodes>          <leafValues>            -7.0822376012802124e-01 3.7956601381301880e-01</leafValues></_>        <_>          <internalNodes>            0 -1 96 1363391434 1896944019 268603394 1493238793 2627912            1076101160 1393906099 793928355</internalNodes>          <leafValues>            -6.9447141885757446e-01 3.7283340096473694e-01</leafValues></_></weakClassifiers></_>    <!-- stage 16 -->    <_>      <maxWeakCount>5</maxWeakCount>      <stageThreshold>-7.9624414443969727e-01</stageThreshold>      <weakClassifiers>        <_>          <internalNodes>            0 -1 66 -134265516 1897364853 -16818467 1952403447 -33591864            -135135756 -35129864 -237487606</internalNodes>          <leafValues>            -4.9586015939712524e-01 6.7179870605468750e-01</leafValues></_>        <_>          <internalNodes>            0 -1 30 -2030108678 -1383677970 -1090519053 -58658982            -698023941 100988893 175551955 -856699665</internalNodes>          <leafValues>            -5.5478256940841675e-01 5.6993943452835083e-01</leafValues></_>        <_>          <internalNodes>            0 -1 28 -11012538 1263730707 734 43188247 -887755196            1749024803 -2113090964 208906279</internalNodes>          <leafValues>            -6.4908462762832642e-01 5.0714617967605591e-01</leafValues></_>        <_>          <internalNodes>            0 -1 77 320590858 1103354760 1212350673 -657908729 274433166            -2147282943 -2120178793 1079845035</internalNodes>          <leafValues>            -6.6175860166549683e-01 4.5138743519783020e-01</leafValues></_>        <_>          <internalNodes>            0 -1 60 604263572 373899536 18960665 924582168 -1785700353            749217938 143214842 959860056</internalNodes>          <leafValues>            -6.9861835241317749e-01 4.0901094675064087e-01</leafValues></_></weakClassifiers></_>    <!-- stage 17 -->    <_>      <maxWeakCount>6</maxWeakCount>      <stageThreshold>-4.6727380156517029e-01</stageThreshold>      <weakClassifiers>        <_>          <internalNodes>            0 -1 81 1567847926 -437551633 889192046 2092381559            -857768626 -570458658 -713065089 -732465697</internalNodes>          <leafValues>            -4.6889507770538330e-01 6.5656566619873047e-01</leafValues></_>        <_>          <internalNodes>            0 -1 1 -713032466 -988983122 1500860 -1636597613 1925261823            -2145189757 1938105343 -1043340805</internalNodes>          <leafValues>            -5.5686712265014648e-01 5.2631205320358276e-01</leafValues></_>        <_>          <internalNodes>            0 -1 53 110085372 -559497002 1669660817 -981302802 10734591            136841371 25340642 -1946440996</internalNodes>          <leafValues>            -5.5604660511016846e-01 4.6805182099342346e-01</leafValues></_>        <_>          <internalNodes>            0 -1 17 1896566922 -1532505620 302006272 2014286785            -936861106 1074495648 1074037491 1002488821</internalNodes>          <leafValues>            -7.8684782981872559e-01 3.3227914571762085e-01</leafValues></_>        <_>          <internalNodes>            0 -1 84 -111037110 -477147125 -2063511419 -233678005            1350920964 -1031045098 -1299478493 -707006001</internalNodes>          <leafValues>            -5.6527346372604370e-01 4.4510826468467712e-01</leafValues></_>        <_>          <internalNodes>            0 -1 52 1431204587 -74890925 1359070711 -778234815 270656305            -68386782 -1413232444 -568178432</internalNodes>          <leafValues>            -6.8695086240768433e-01 3.8998603820800781e-01</leafValues></_></weakClassifiers></_>    <!-- stage 18 -->    <_>      <maxWeakCount>5</maxWeakCount>      <stageThreshold>-4.3601164221763611e-01</stageThreshold>      <weakClassifiers>        <_>          <internalNodes>            0 -1 38 -205521921 233369584 -15 -1514340616 -196610            1039925236 -720907 -2818564</internalNodes>          <leafValues>            -4.6438232064247131e-01 6.6830748319625854e-01</leafValues></_>        <_>          <internalNodes>            0 -1 37 -598556498 -715062669 -1157693854 -210403393            -1871663989 -665391315 406087707 439554330</internalNodes>          <leafValues>            -4.9868193268775940e-01 6.0553681850433350e-01</leafValues></_>        <_>          <internalNodes>            0 -1 74 -1784989522 -379650047 1666 939589923 -251581425            -1189033984 -1148581861 488246315</internalNodes>          <leafValues>            -6.7147690057754517e-01 4.7556418180465698e-01</leafValues></_>        <_>          <internalNodes>            0 -1 56 -1133478919 536424177 1056370687 359624254 930963131            318730173 -1392570962 -1109983284</internalNodes>          <leafValues>            -5.0854372978210449e-01 5.9635460376739502e-01</leafValues></_>        <_>          <internalNodes>            0 -1 33 -67108865 -529334294 -487589894 -35258386 2012505687            -260606139 -235603990 -120127514</internalNodes>          <leafValues>            -5.0204384326934814e-01 6.3163268566131592e-01</leafValues></_></weakClassifiers></_>    <!-- stage 19 -->    <_>      <maxWeakCount>5</maxWeakCount>      <stageThreshold>-5.8250325918197632e-01</stageThreshold>      <weakClassifiers>        <_>          <internalNodes>            0 -1 6 286478350 218943780 331842 11083811 75147 -1072103424            -2147479401 268959887</internalNodes>          <leafValues>            -6.7239403724670410e-01 6.3851231336593628e-01</leafValues></_>        <_>          <internalNodes>            0 -1 92 285430520 -2118057680 -2147479327 -805109551            -804617982 -1342177024 -1052466937 -930103293</internalNodes>          <leafValues>            -7.0225459337234497e-01 5.6362706422805786e-01</leafValues></_>        <_>          <internalNodes>            0 -1 54 -1332517644 276757857 -1073742163 1529439745            -1326096905 -1166180484 880569550 -264085554</internalNodes>          <leafValues>            -5.6093227863311768e-01 6.7861580848693848e-01</leafValues></_>        <_>          <internalNodes>            0 -1 57 1359074521 -268095339 201392411 1078755717 8519984            293617672 -1576001520 -1229946870</internalNodes>          <leafValues>            -5.9883546829223633e-01 6.3461065292358398e-01</leafValues></_>        <_>          <internalNodes>            0 -1 47 805302136 -1352372239 -285282398 522645244 82580530            -1942331742 126252860 -300161457</internalNodes>          <leafValues>            -5.2215611934661865e-01 7.1236503124237061e-01</leafValues></_></weakClassifiers></_></stages>  <features>    <_>      <rect>        0 1 10 15</rect></_>    <_>      <rect>        0 21 6 10</rect></_>    <_>      <rect>        0 22 6 8</rect></_>    <_>      <rect>        1 11 11 15</rect></_>    <_>      <rect>        1 21 7 13</rect></_>    <_>      <rect>        1 27 5 8</rect></_>    <_>      <rect>        2 30 5 8</rect></_>    <_>      <rect>        5 35 4 5</rect></_>    <_>      <rect>        6 8 4 15</rect></_>    <_>      <rect>        6 17 4 11</rect></_>    <_>      <rect>        7 4 14 6</rect></_>    <_>      <rect>        7 11 21 11</rect></_>    <_>      <rect>        8 0 20 11</rect></_>    <_>      <rect>        8 1 5 19</rect></_>    <_>      <rect>        8 29 3 4</rect></_>    <_>      <rect>        8 29 4 6</rect></_>    <_>      <rect>        8 35 4 7</rect></_>    <_>      <rect>        9 17 4 14</rect></_>    <_>      <rect>        9 18 3 11</rect></_>    <_>      <rect>        9 18 5 15</rect></_>    <_>      <rect>        9 21 5 7</rect></_>    <_>      <rect>        10 6 6 7</rect></_>    <_>      <rect>        10 10 12 8</rect></_>    <_>      <rect>        10 15 8 8</rect></_>    <_>      <rect>        10 22 3 5</rect></_>    <_>      <rect>        11 24 4 6</rect></_>    <_>      <rect>        12 20 5 6</rect></_>    <_>      <rect>        13 47 3 4</rect></_>    <_>      <rect>        14 48 5 8</rect></_>    <_>      <rect>        15 35 4 10</rect></_>    <_>      <rect>        17 10 3 5</rect></_>    <_>      <rect>        17 23 3 5</rect></_>    <_>      <rect>        18 10 4 5</rect></_>    <_>      <rect>        18 10 13 3</rect></_>    <_>      <rect>        19 7 13 8</rect></_>    <_>      <rect>        19 20 2 5</rect></_>    <_>      <rect>        19 24 2 4</rect></_>    <_>      <rect>        19 38 5 9</rect></_>    <_>      <rect>        20 16 2 5</rect></_>    <_>      <rect>        20 18 3 7</rect></_>    <_>      <rect>        20 20 2 4</rect></_>    <_>      <rect>        20 32 3 3</rect></_>    <_>      <rect>        21 5 4 7</rect></_>    <_>      <rect>        21 6 12 9</rect></_>    <_>      <rect>        21 14 6 4</rect></_>    <_>      <rect>        21 15 8 5</rect></_>    <_>      <rect>        21 31 2 3</rect></_>    <_>      <rect>        22 8 8 4</rect></_>    <_>      <rect>        22 17 10 7</rect></_>    <_>      <rect>        23 3 15 9</rect></_>    <_>      <rect>        23 11 5 4</rect></_>    <_>      <rect>        23 35 2 3</rect></_>    <_>      <rect>        23 36 2 3</rect></_>    <_>      <rect>        24 6 4 4</rect></_>    <_>      <rect>        27 1 11 6</rect></_>    <_>      <rect>        27 38 1 1</rect></_>    <_>      <rect>        28 0 7 6</rect></_>    <_>      <rect>        28 35 1 1</rect></_>    <_>      <rect>        29 6 13 5</rect></_>    <_>      <rect>        29 17 5 3</rect></_>    <_>      <rect>        30 0 7 5</rect></_>    <_>      <rect>        30 0 13 8</rect></_>    <_>      <rect>        38 18 8 15</rect></_>    <_>      <rect>        40 15 5 4</rect></_>    <_>      <rect>        41 8 9 8</rect></_>    <_>      <rect>        42 1 11 18</rect></_>    <_>      <rect>        42 8 5 5</rect></_>    <_>      <rect>        42 42 10 11</rect></_>    <_>      <rect>        43 8 4 5</rect></_>    <_>      <rect>        43 12 8 5</rect></_>    <_>      <rect>        46 12 4 4</rect></_>    <_>      <rect>        47 2 9 20</rect></_>    <_>      <rect>        47 11 5 7</rect></_>    <_>      <rect>        47 16 4 3</rect></_>    <_>      <rect>        48 6 6 7</rect></_>    <_>      <rect>        49 8 4 16</rect></_>    <_>      <rect>        51 6 8 22</rect></_>    <_>      <rect>        51 19 6 16</rect></_>    <_>      <rect>        53 20 4 4</rect></_>    <_>      <rect>        53 20 4 6</rect></_>    <_>      <rect>        54 3 7 21</rect></_>    <_>      <rect>        54 13 4 6</rect></_>    <_>      <rect>        54 28 3 4</rect></_>    <_>      <rect>        54 29 4 7</rect></_>    <_>      <rect>        54 46 2 3</rect></_>    <_>      <rect>        55 10 4 15</rect></_>    <_>      <rect>        55 22 6 12</rect></_>    <_>      <rect>        56 20 4 11</rect></_>    <_>      <rect>        56 24 5 8</rect></_>    <_>      <rect>        56 37 3 5</rect></_>    <_>      <rect>        57 16 6 17</rect></_>    <_>      <rect>        57 18 3 13</rect></_>    <_>      <rect>        58 23 3 9</rect></_>    <_>      <rect>        58 33 4 6</rect></_>    <_>      <rect>        60 21 5 9</rect></_>    <_>      <rect>        60 24 5 13</rect></_>    <_>      <rect>        60 37 5 7</rect></_>    <_>      <rect>        61 20 3 12</rect></_></features></cascade></opencv_storage>