<?xml version="1.0"?><opencv_storage><stage15>  <maxWeakCount>6</maxWeakCount>  <stageThreshold>-1.1766968965530396e+00</stageThreshold>  <weakClassifiers>    <_>      <internalNodes>        0 -1 202944 -1616159542 1328021480 -1023410461 1946156797        -4268470 -308281356 1023211479 2147472759</internalNodes>      <leafValues>        -4.9806949496269226e-01 6.5070009231567383e-01</leafValues></_>    <_>      <internalNodes>        0 -1 448360 486499455 -1728086281 -33620739 -1644167425        -1577233153 -50334210 -824312193 -1912605441</internalNodes>      <leafValues>        -4.0904089808464050e-01 6.5222954750061035e-01</leafValues></_>    <_>      <internalNodes>        0 -1 805544 -1291595573 96702880 1342898275 -170307153 285903310        1537867954 -1593134093 -1053035997</internalNodes>      <leafValues>        -4.3987923860549927e-01 6.2504249811172485e-01</leafValues></_>    <_>      <internalNodes>        0 -1 409012 -254542593 -11420005 -1937695425 -1793224671        -636491675 -133070799 -1836328832 -13473008</internalNodes>      <leafValues>        -7.1401250362396240e-01 4.2421838641166687e-01</leafValues></_>    <_>      <internalNodes>        0 -1 741442 1495488680 2105491556 1342247668 -635628543        1225259598 -586475520 -66862706 -265683710</internalNodes>      <leafValues>        -7.0822376012802124e-01 3.7956601381301880e-01</leafValues></_>    <_>      <internalNodes>        0 -1 826759 1363391434 1896944019 268603394 1493238793 2627912        1076101160 1393906099 793928355</internalNodes>      <leafValues>        -6.9447141885757446e-01 3.7283340096473694e-01</leafValues></_></weakClassifiers></stage15></opencv_storage>