<?xml version="1.0"?><opencv_storage><stage10>  <maxWeakCount>6</maxWeakCount>  <stageThreshold>-3.3031901717185974e-01</stageThreshold>  <weakClassifiers>    <_>      <internalNodes>        0 -1 174385 -1326223109 -210242817 821556223 1911779571        -201854721 -201852931 1912075775 1937503999</internalNodes>      <leafValues>        -5.1027399301528931e-01 7.1494966745376587e-01</leafValues></_>    <_>      <internalNodes>        0 -1 36372 -654706962 621662662 268468390 674844879 -208817201        -78708286 717992443 -826281477</internalNodes>      <leafValues>        -5.7578963041305542e-01 5.9389829635620117e-01</leafValues></_>    <_>      <internalNodes>        0 -1 416635 -1540690950 -777895736 1074267601 -1125760632        222363371 -586899448 1602269606 -1400313620</internalNodes>      <leafValues>        -7.6749914884567261e-01 4.4608572125434875e-01</leafValues></_>    <_>      <internalNodes>        0 -1 417235 -50745921 1354821505 -50872653 -719995217 -322640667        -910102580 -856313938 -1627017695</internalNodes>      <leafValues>        -5.6092703342437744e-01 6.0260379314422607e-01</leafValues></_>    <_>      <internalNodes>        0 -1 323223 -5848834 -754732925 -1879007213 -805207543        -331166900 -763297508 -515310997 1953525591</internalNodes>      <leafValues>        -6.5477389097213745e-01 4.9855679273605347e-01</leafValues></_>    <_>      <internalNodes>        0 -1 542188 -1591745619 -716177352 1694499103 2139488284        -895376405 -1664808056 -2136244008 1417986248</internalNodes>      <leafValues>        -7.1099597215652466e-01 4.1592600941658020e-01</leafValues></_></weakClassifiers></stage10></opencv_storage>