<?xml version="1.0"?><opencv_storage><stage7>  <maxWeakCount>5</maxWeakCount>  <stageThreshold>-6.5650939941406250e-01</stageThreshold>  <weakClassifiers>    <_>      <internalNodes>        0 -1 186693 -134218006 162004974 -16859454 -150994945 -178        -143720977 -33564681 2113926903</internalNodes>      <leafValues>        -6.2833672761917114e-01 6.7074930667877197e-01</leafValues></_>    <_>      <internalNodes>        0 -1 829642 -647016214 -810549600 -26349982 -50331675 -614834        2147401711 1476263911 -11010081</internalNodes>      <leafValues>        -5.5192553997039795e-01 6.3744741678237915e-01</leafValues></_>    <_>      <internalNodes>        0 -1 368000 395246586 210551946 1424075219 -781135794 673747962        436240384 857790679 -339291394</internalNodes>      <leafValues>        -6.0738509893417358e-01 5.4472672939300537e-01</leafValues></_>    <_>      <internalNodes>        0 -1 693357 1632432878 -247082876 1116348 299974730 -519988022        -99088254 -803880993 999258623</internalNodes>      <leafValues>        -5.5514556169509888e-01 6.0439985990524292e-01</leafValues></_>    <_>      <internalNodes>        0 -1 202986 -751577906 -2006469752 -1072508765 440660385        -1559833778 -1960624125 62179 -65670281</internalNodes>      <leafValues>        -6.3023519515991211e-01 5.3417176008224487e-01</leafValues></_></weakClassifiers></stage7></opencv_storage>