<?xml version="1.0"?><opencv_storage><stage6>  <maxWeakCount>5</maxWeakCount>  <stageThreshold>-1.0326964855194092e+00</stageThreshold>  <weakClassifiers>    <_>      <internalNodes>        0 -1 140944 -575973174 -1884815582 -353444126 -1090519553        2144687170 -1885405202 -1627925001 -805308453</internalNodes>      <leafValues>        -5.5741828680038452e-01 7.4892449378967285e-01</leafValues></_>    <_>      <internalNodes>        0 -1 405511 -172490753 -378871384 1090617521 -754974336        -624236289 1229504616 -1316885515 -331028236</internalNodes>      <leafValues>        -6.7711055278778076e-01 5.6388318538665771e-01</leafValues></_>    <_>      <internalNodes>        0 -1 810691 1900534080 -251032959 1744918640 1415909541        2057984012 -641499030 1648974615 -8030139</internalNodes>      <leafValues>        -7.1130019426345825e-01 4.7859069705009460e-01</leafValues></_>    <_>      <internalNodes>        0 -1 704950 2145349884 1975582977 -199159139 1889358085        -635954520 -309165655 -1954444648 -315574520</internalNodes>      <leafValues>        -7.1429926156997681e-01 5.0159949064254761e-01</leafValues></_>    <_>      <internalNodes>        0 -1 29421 -732711414 1426625294 -1727803150 -778448453        -1828105660 -2139092760 9097411 1806695135</internalNodes>      <leafValues>        -7.9768735170364380e-01 4.1153311729431152e-01</leafValues></_></weakClassifiers></stage6></opencv_storage>