<?xml version="1.0"?><opencv_storage><stage5>  <maxWeakCount>5</maxWeakCount>  <stageThreshold>-7.9040366411209106e-01</stageThreshold>  <weakClassifiers>    <_>      <internalNodes>        0 -1 244581 -17 -1049105 -16777998 -9437325 -178 -1622147217        -318769161 -8388751</internalNodes>      <leafValues>        -5.2755904197692871e-01 7.7419352531433105e-01</leafValues></_>    <_>      <internalNodes>        0 -1 807074 -719324694 -959491614 1079170210 -233582129        -377009406 -810366678 -1824144429 -734530589</internalNodes>      <leafValues>        -6.7280602455139160e-01 5.5833518505096436e-01</leafValues></_>    <_>      <internalNodes>        0 -1 420574 -409079809 -708226855 285415569 -821047088        -1985377601 -74235681 -1425297697 -674938283</internalNodes>      <leafValues>        -5.9446066617965698e-01 6.1672294139862061e-01</leafValues></_>    <_>      <internalNodes>        0 -1 705891 1972504686 -654110637 -704555402 1879052291        -1341951857 -133472253 2013434863 -1060374565</internalNodes>      <leafValues>        -7.0367592573165894e-01 4.8860308527946472e-01</leafValues></_>    <_>      <internalNodes>        0 -1 11742 1927270606 17155275 -767440702 -1435643165        -1177960214 671373474 -1975389713 -1997808993</internalNodes>      <leafValues>        -6.9536465406417847e-01 5.1290690898895264e-01</leafValues></_></weakClassifiers></stage5></opencv_storage>