<?xml version="1.0"?><opencv_storage><stage18>  <maxWeakCount>5</maxWeakCount>  <stageThreshold>-4.3601164221763611e-01</stageThreshold>  <weakClassifiers>    <_>      <internalNodes>        0 -1 404163 -205521921 233369584 -15 -1514340616 -196610        1039925236 -720907 -2818564</internalNodes>      <leafValues>        -4.6438232064247131e-01 6.6830748319625854e-01</leafValues></_>    <_>      <internalNodes>        0 -1 393810 -598556498 -715062669 -1157693854 -210403393        -1871663989 -665391315 406087707 439554330</internalNodes>      <leafValues>        -4.9868193268775940e-01 6.0553681850433350e-01</leafValues></_>    <_>      <internalNodes>        0 -1 748808 -1784989522 -379650047 1666 939589923 -251581425        -1189033984 -1148581861 488246315</internalNodes>      <leafValues>        -6.7147690057754517e-01 4.7556418180465698e-01</leafValues></_>    <_>      <internalNodes>        0 -1 522780 -1133478919 536424177 1056370687 359624254 930963131        318730173 -1392570962 -1109983284</internalNodes>      <leafValues>        -5.0854372978210449e-01 5.9635460376739502e-01</leafValues></_>    <_>      <internalNodes>        0 -1 368187 -67108865 -529334294 -487589894 -35258386 2012505687        -260606139 -235603990 -120127514</internalNodes>      <leafValues>        -5.0204384326934814e-01 6.3163268566131592e-01</leafValues></_></weakClassifiers></stage18></opencv_storage>