<?xml version="1.0"?><opencv_storage><stage8>  <maxWeakCount>6</maxWeakCount>  <stageThreshold>-2.5332397222518921e-01</stageThreshold>  <weakClassifiers>    <_>      <internalNodes>        0 -1 2842521 -4.7441593778785318e-05</internalNodes>      <leafValues>        -7.1578949689865112e-01 6.8928569555282593e-01</leafValues></_>    <_>      <internalNodes>        0 -1 2954958 -1.5349570661783218e-02</internalNodes>      <leafValues>        7.6838034391403198e-01 -4.2138555645942688e-01</leafValues></_>    <_>      <internalNodes>        0 -1 2172076 -4.0034370613284409e-05</internalNodes>      <leafValues>        -8.6275637149810791e-01 4.4567832350730896e-01</leafValues></_>    <_>      <internalNodes>        0 -1 2596622 5.2634708117693663e-04</internalNodes>      <leafValues>        -8.2317811250686646e-01 3.7689208984375000e-01</leafValues></_>    <_>      <internalNodes>        0 -1 1543194 7.2266603820025921e-03</internalNodes>      <leafValues>        -6.7823648452758789e-01 5.5262714624404907e-01</leafValues></_>    <_>      <internalNodes>        0 -1 1527792 -4.7943340614438057e-03</internalNodes>      <leafValues>        7.9737436771392822e-01 -4.5024880766868591e-01</leafValues></_></weakClassifiers></stage8></opencv_storage>