<?xml version="1.0"?><opencv_storage><stage16>  <maxWeakCount>8</maxWeakCount>  <stageThreshold>-9.0035563707351685e-01</stageThreshold>  <weakClassifiers>    <_>      <internalNodes>        0 -1 1491864 -2.2276951931416988e-03</internalNodes>      <leafValues>        6.3025212287902832e-01 -8.0645161867141724e-01</leafValues></_>    <_>      <internalNodes>        0 -1 2705662 2.9736263677477837e-03</internalNodes>      <leafValues>        -6.1142957210540771e-01 6.0339301824569702e-01</leafValues></_>    <_>      <internalNodes>        0 -1 2203913 7.2962446138262749e-03</internalNodes>      <leafValues>        -5.0036770105361938e-01 7.3065567016601562e-01</leafValues></_>    <_>      <internalNodes>        0 -1 2070179 1.0045841336250305e-03</internalNodes>      <leafValues>        -4.9497240781784058e-01 6.5180623531341553e-01</leafValues></_>    <_>      <internalNodes>        0 -1 2582143 3.2964301226456882e-06</internalNodes>      <leafValues>        -7.5085830688476562e-01 3.9883303642272949e-01</leafValues></_>    <_>      <internalNodes>        0 -1 1487499 9.1398635413497686e-04</internalNodes>      <leafValues>        -5.0139665603637695e-01 5.8173418045043945e-01</leafValues></_>    <_>      <internalNodes>        0 -1 654831 -1.5421487390995026e-02</internalNodes>      <leafValues>        7.4930912256240845e-01 -3.8443881273269653e-01</leafValues></_>    <_>      <internalNodes>        0 -1 1455436 1.5177297592163086e-01</internalNodes>      <leafValues>        -3.8256132602691650e-01 8.5308939218521118e-01</leafValues></_></weakClassifiers></stage16></opencv_storage>