<?xml version="1.0"?><opencv_storage><cascade>  <stageType>BOOST</stageType>  <featureType>HAAR</featureType>  <height>50</height>  <width>50</width>  <stageParams>    <boostType>GAB</boostType>    <minHitRate>9.9900001287460327e-01</minHitRate>    <maxFalseAlarm>5.0000000000000000e-01</maxFalseAlarm>    <weightTrimRate>9.4999999999999996e-01</weightTrimRate>    <maxDepth>1</maxDepth>    <maxWeakCount>100</maxWeakCount></stageParams>  <featureParams>    <maxCatCount>0</maxCatCount>    <featSize>1</featSize>    <mode>BASIC</mode></featureParams>  <stageNum>11</stageNum>  <stages>    <!-- stage 0 -->    <_>      <maxWeakCount>3</maxWeakCount>      <stageThreshold>-9.6295017004013062e-01</stageThreshold>      <weakClassifiers>        <_>          <internalNodes>            0 -1 35 -5.1904425024986267e-02</internalNodes>          <leafValues>            8.7832701206207275e-01 -9.4642859697341919e-01</leafValues></_>        <_>          <internalNodes>            0 -1 17 2.3871395736932755e-02</internalNodes>          <leafValues>            -6.5787714719772339e-01 8.7155598402023315e-01</leafValues></_>        <_>          <internalNodes>            0 -1 54 4.4040277134627104e-04</internalNodes>          <leafValues>            -8.8807755708694458e-01 6.7440378665924072e-01</leafValues></_></weakClassifiers></_>    <!-- stage 1 -->    <_>      <maxWeakCount>5</maxWeakCount>      <stageThreshold>-1.2461236715316772e+00</stageThreshold>      <weakClassifiers>        <_>          <internalNodes>            0 -1 61 -4.2643245309591293e-02</internalNodes>          <leafValues>            8.3886253833770752e-01 -8.6516851186752319e-01</leafValues></_>        <_>          <internalNodes>            0 -1 15 3.0198534950613976e-02</internalNodes>          <leafValues>            -6.3142579793930054e-01 8.3778679370880127e-01</leafValues></_>        <_>          <internalNodes>            0 -1 75 8.3935502916574478e-03</internalNodes>          <leafValues>            -7.2460645437240601e-01 7.2095865011215210e-01</leafValues></_>        <_>          <internalNodes>            0 -1 18 -2.2178456187248230e-02</internalNodes>          <leafValues>            4.7694638371467590e-01 -9.4746631383895874e-01</leafValues></_>        <_>          <internalNodes>            0 -1 32 -1.9892775453627110e-03</internalNodes>          <leafValues>            4.9813067913055420e-01 -7.8866690397262573e-01</leafValues></_></weakClassifiers></_>    <!-- stage 2 -->    <_>      <maxWeakCount>5</maxWeakCount>      <stageThreshold>-1.0693202018737793e+00</stageThreshold>      <weakClassifiers>        <_>          <internalNodes>            0 -1 38 1.1807337403297424e-02</internalNodes>          <leafValues>            -7.7990430593490601e-01 7.6340109109878540e-01</leafValues></_>        <_>          <internalNodes>            0 -1 52 5.2147150039672852e-02</internalNodes>          <leafValues>            -7.7040797472000122e-01 6.3222622871398926e-01</leafValues></_>        <_>          <internalNodes>            0 -1 5 1.0254161432385445e-02</internalNodes>          <leafValues>            -5.9901642799377441e-01 6.7638397216796875e-01</leafValues></_>        <_>          <internalNodes>            0 -1 49 8.7548932060599327e-03</internalNodes>          <leafValues>            -4.7088313102722168e-01 7.0998919010162354e-01</leafValues></_>        <_>          <internalNodes>            0 -1 36 -2.5881058536469936e-04</internalNodes>          <leafValues>            3.7001940608024597e-01 -8.7551790475845337e-01</leafValues></_></weakClassifiers></_>    <!-- stage 3 -->    <_>      <maxWeakCount>7</maxWeakCount>      <stageThreshold>-1.4687340259552002e+00</stageThreshold>      <weakClassifiers>        <_>          <internalNodes>            0 -1 73 7.1152527816593647e-03</internalNodes>          <leafValues>            -7.1282052993774414e-01 7.0090091228485107e-01</leafValues></_>        <_>          <internalNodes>            0 -1 26 9.1217793524265289e-03</internalNodes>          <leafValues>            -7.7807587385177612e-01 5.3655040264129639e-01</leafValues></_>        <_>          <internalNodes>            0 -1 25 -6.9809988141059875e-02</internalNodes>          <leafValues>            3.9673435688018799e-01 -8.4150916337966919e-01</leafValues></_>        <_>          <internalNodes>            0 -1 51 1.2684496119618416e-02</internalNodes>          <leafValues>            -5.9558606147766113e-01 6.2324094772338867e-01</leafValues></_>        <_>          <internalNodes>            0 -1 9 9.5487982034683228e-03</internalNodes>          <leafValues>            -6.5497493743896484e-01 4.7662237286567688e-01</leafValues></_>        <_>          <internalNodes>            0 -1 23 -5.2176299504935741e-04</internalNodes>          <leafValues>            2.8044521808624268e-01 -9.2007082700729370e-01</leafValues></_>        <_>          <internalNodes>            0 -1 3 6.4349961467087269e-03</internalNodes>          <leafValues>            -5.0307548046112061e-01 5.9554380178451538e-01</leafValues></_></weakClassifiers></_>    <!-- stage 4 -->    <_>      <maxWeakCount>8</maxWeakCount>      <stageThreshold>-1.7375305891036987e+00</stageThreshold>      <weakClassifiers>        <_>          <internalNodes>            0 -1 80 4.9048149958252907e-03</internalNodes>          <leafValues>            -6.2318837642669678e-01 6.9797420501708984e-01</leafValues></_>        <_>          <internalNodes>            0 -1 44 1.0076918639242649e-02</internalNodes>          <leafValues>            -4.7242316603660583e-01 7.0024490356445312e-01</leafValues></_>        <_>          <internalNodes>            0 -1 39 7.6898001134395599e-03</internalNodes>          <leafValues>            -5.7270604372024536e-01 5.9697043895721436e-01</leafValues></_>        <_>          <internalNodes>            0 -1 64 -1.3669356703758240e-02</internalNodes>          <leafValues>            4.4352388381958008e-01 -7.9312276840209961e-01</leafValues></_>        <_>          <internalNodes>            0 -1 8 2.0456172525882721e-02</internalNodes>          <leafValues>            -4.3161687254905701e-01 7.1611493825912476e-01</leafValues></_>        <_>          <internalNodes>            0 -1 57 8.9607556219561957e-06</internalNodes>          <leafValues>            3.1429964303970337e-01 -8.1701076030731201e-01</leafValues></_>        <_>          <internalNodes>            0 -1 77 6.2782755776424892e-06</internalNodes>          <leafValues>            -7.0655852556228638e-01 3.2532632350921631e-01</leafValues></_>        <_>          <internalNodes>            0 -1 45 -3.1050010875333101e-05</internalNodes>          <leafValues>            2.2662301361560822e-01 -8.7060517072677612e-01</leafValues></_></weakClassifiers></_>    <!-- stage 5 -->    <_>      <maxWeakCount>8</maxWeakCount>      <stageThreshold>-1.1169050931930542e+00</stageThreshold>      <weakClassifiers>        <_>          <internalNodes>            0 -1 11 3.0798362568020821e-02</internalNodes>          <leafValues>            -5.2272725105285645e-01 6.8867921829223633e-01</leafValues></_>        <_>          <internalNodes>            0 -1 71 -2.1579051463049836e-05</internalNodes>          <leafValues>            -7.1630418300628662e-01 4.5796313881874084e-01</leafValues></_>        <_>          <internalNodes>            0 -1 40 6.7607099190354347e-03</internalNodes>          <leafValues>            -6.0616749525070190e-01 4.5294183492660522e-01</leafValues></_>        <_>          <internalNodes>            0 -1 48 4.9754003994166851e-03</internalNodes>          <leafValues>            -7.4484986066818237e-01 3.9828100800514221e-01</leafValues></_>        <_>          <internalNodes>            0 -1 53 8.9186105469707400e-05</internalNodes>          <leafValues>            -7.4890887737274170e-01 2.9293203353881836e-01</leafValues></_>        <_>          <internalNodes>            0 -1 78 -5.2048720419406891e-02</internalNodes>          <leafValues>            6.1566889286041260e-01 -4.3625321984291077e-01</leafValues></_>        <_>          <internalNodes>            0 -1 56 -2.8092064894735813e-04</internalNodes>          <leafValues>            -8.4739691019058228e-01 2.6956668496131897e-01</leafValues></_>        <_>          <internalNodes>            0 -1 31 -2.4761346867308021e-04</internalNodes>          <leafValues>            2.8695327043533325e-01 -8.6542320251464844e-01</leafValues></_></weakClassifiers></_>    <!-- stage 6 -->    <_>      <maxWeakCount>8</maxWeakCount>      <stageThreshold>-1.4389659166336060e+00</stageThreshold>      <weakClassifiers>        <_>          <internalNodes>            0 -1 22 -5.8601982891559601e-04</internalNodes>          <leafValues>            5.6225216388702393e-01 -8.7447696924209595e-01</leafValues></_>        <_>          <internalNodes>            0 -1 4 3.7919517606496811e-02</internalNodes>          <leafValues>            -3.9350450038909912e-01 7.7791661024093628e-01</leafValues></_>        <_>          <internalNodes>            0 -1 33 -1.5915065887384117e-04</internalNodes>          <leafValues>            4.0507459640502930e-01 -7.7229350805282593e-01</leafValues></_>        <_>          <internalNodes>            0 -1 24 -3.9854366332292557e-03</internalNodes>          <leafValues>            4.8397657275199890e-01 -5.8584994077682495e-01</leafValues></_>        <_>          <internalNodes>            0 -1 0 1.2905900180339813e-01</internalNodes>          <leafValues>            -7.1004039049148560e-01 3.4276157617568970e-01</leafValues></_>        <_>          <internalNodes>            0 -1 55 7.8183920777519234e-06</internalNodes>          <leafValues>            3.3451133966445923e-01 -7.9555344581604004e-01</leafValues></_>        <_>          <internalNodes>            0 -1 66 -1.8320444723940454e-05</internalNodes>          <leafValues>            2.0606438815593719e-01 -8.1607115268707275e-01</leafValues></_>        <_>          <internalNodes>            0 -1 28 2.1341691899579018e-04</internalNodes>          <leafValues>            2.0882740616798401e-01 -8.9746338129043579e-01</leafValues></_></weakClassifiers></_>    <!-- stage 7 -->    <_>      <maxWeakCount>8</maxWeakCount>      <stageThreshold>-8.9700996875762939e-01</stageThreshold>      <weakClassifiers>        <_>          <internalNodes>            0 -1 68 -6.8794032558798790e-03</internalNodes>          <leafValues>            6.6176468133926392e-01 -5.3398060798645020e-01</leafValues></_>        <_>          <internalNodes>            0 -1 59 5.0687317525444087e-06</internalNodes>          <leafValues>            -8.2788109779357910e-01 3.8432139158248901e-01</leafValues></_>        <_>          <internalNodes>            0 -1 16 -4.3987348675727844e-02</internalNodes>          <leafValues>            3.2603564858436584e-01 -8.3360451459884644e-01</leafValues></_>        <_>          <internalNodes>            0 -1 19 2.6152804493904114e-03</internalNodes>          <leafValues>            -7.0985084772109985e-01 3.3905681967735291e-01</leafValues></_>        <_>          <internalNodes>            0 -1 2 6.4333692193031311e-02</internalNodes>          <leafValues>            -3.2640594244003296e-01 8.2929199934005737e-01</leafValues></_>        <_>          <internalNodes>            0 -1 37 -3.1139285420067608e-04</internalNodes>          <leafValues>            3.2160818576812744e-01 -7.5427871942520142e-01</leafValues></_>        <_>          <internalNodes>            0 -1 70 -2.1461617201566696e-02</internalNodes>          <leafValues>            6.9213509559631348e-01 -4.3955627083778381e-01</leafValues></_>        <_>          <internalNodes>            0 -1 47 -6.4321653917431831e-04</internalNodes>          <leafValues>            -9.1158473491668701e-01 3.2491531968116760e-01</leafValues></_></weakClassifiers></_>    <!-- stage 8 -->    <_>      <maxWeakCount>9</maxWeakCount>      <stageThreshold>-1.3867707252502441e+00</stageThreshold>      <weakClassifiers>        <_>          <internalNodes>            0 -1 72 -1.6608431935310364e-02</internalNodes>          <leafValues>            6.0613811016082764e-01 -6.4525991678237915e-01</leafValues></_>        <_>          <internalNodes>            0 -1 1 2.4967079982161522e-02</internalNodes>          <leafValues>            -4.9891138076782227e-01 5.6955003738403320e-01</leafValues></_>        <_>          <internalNodes>            0 -1 69 9.2321579359122552e-06</internalNodes>          <leafValues>            3.7153661251068115e-01 -7.3256587982177734e-01</leafValues></_>        <_>          <internalNodes>            0 -1 46 5.6958706409204751e-06</internalNodes>          <leafValues>            -8.2684874534606934e-01 2.8937205672264099e-01</leafValues></_>        <_>          <internalNodes>            0 -1 79 3.7716832011938095e-02</internalNodes>          <leafValues>            -4.6644026041030884e-01 5.5842238664627075e-01</leafValues></_>        <_>          <internalNodes>            0 -1 60 -1.9431039618211798e-05</internalNodes>          <leafValues>            2.9264685511589050e-01 -7.9165691137313843e-01</leafValues></_>        <_>          <internalNodes>            0 -1 6 1.4835751615464687e-02</internalNodes>          <leafValues>            -4.0753251314163208e-01 5.6319075822830200e-01</leafValues></_>        <_>          <internalNodes>            0 -1 10 5.0016948953270912e-03</internalNodes>          <leafValues>            -4.8554819822311401e-01 4.8250383138656616e-01</leafValues></_>        <_>          <internalNodes>            0 -1 30 -2.2233566269278526e-03</internalNodes>          <leafValues>            2.4260585010051727e-01 -8.3865213394165039e-01</leafValues></_></weakClassifiers></_>    <!-- stage 9 -->    <_>      <maxWeakCount>11</maxWeakCount>      <stageThreshold>-1.3994139432907104e+00</stageThreshold>      <weakClassifiers>        <_>          <internalNodes>            0 -1 82 1.9898583559552208e-05</internalNodes>          <leafValues>            -7.9174852371215820e-01 5.6322759389877319e-01</leafValues></_>        <_>          <internalNodes>            0 -1 7 3.7528038024902344e-02</internalNodes>          <leafValues>            -4.1401720046997070e-01 6.6320413351058960e-01</leafValues></_>        <_>          <internalNodes>            0 -1 65 -2.1425472368719056e-05</internalNodes>          <leafValues>            -8.0309873819351196e-01 3.2710865139961243e-01</leafValues></_>        <_>          <internalNodes>            0 -1 42 5.5409350898116827e-04</internalNodes>          <leafValues>            -6.7359298467636108e-01 2.8925392031669617e-01</leafValues></_>        <_>          <internalNodes>            0 -1 41 6.7128655500710011e-03</internalNodes>          <leafValues>            -4.4885617494583130e-01 4.7522005438804626e-01</leafValues></_>        <_>          <internalNodes>            0 -1 76 4.7986745812522713e-06</internalNodes>          <leafValues>            2.6037937402725220e-01 -7.9306578636169434e-01</leafValues></_>        <_>          <internalNodes>            0 -1 27 -1.8218980403617024e-04</internalNodes>          <leafValues>            2.1898366510868073e-01 -8.1765091419219971e-01</leafValues></_>        <_>          <internalNodes>            0 -1 63 5.6498156482120976e-06</internalNodes>          <leafValues>            -7.5678199529647827e-01 2.0344454050064087e-01</leafValues></_>        <_>          <internalNodes>            0 -1 21 1.4076018705964088e-03</internalNodes>          <leafValues>            1.7909020185470581e-01 -9.7242707014083862e-01</leafValues></_>        <_>          <internalNodes>            0 -1 20 -4.0845382027328014e-03</internalNodes>          <leafValues>            -8.4887081384658813e-01 1.6213846206665039e-01</leafValues></_>        <_>          <internalNodes>            0 -1 34 -7.4366672197356820e-04</internalNodes>          <leafValues>            4.0569880604743958e-01 -4.2496433854103088e-01</leafValues></_></weakClassifiers></_>    <!-- stage 10 -->    <_>      <maxWeakCount>12</maxWeakCount>      <stageThreshold>-1.2660121917724609e+00</stageThreshold>      <weakClassifiers>        <_>          <internalNodes>            0 -1 74 2.4695400148630142e-02</internalNodes>          <leafValues>            -5.9516614675521851e-01 5.9623610973358154e-01</leafValues></_>        <_>          <internalNodes>            0 -1 14 -1.9778821151703596e-03</internalNodes>          <leafValues>            5.9109443426132202e-01 -4.2128989100456238e-01</leafValues></_>        <_>          <internalNodes>            0 -1 83 -1.7498830333352089e-02</internalNodes>          <leafValues>            5.9683293104171753e-01 -3.2233053445816040e-01</leafValues></_>        <_>          <internalNodes>            0 -1 81 1.8702638044487685e-05</internalNodes>          <leafValues>            -7.5343549251556396e-01 2.7161329984664917e-01</leafValues></_>        <_>          <internalNodes>            0 -1 43 -3.2628634944558144e-03</internalNodes>          <leafValues>            2.2203738987445831e-01 -8.0770140886306763e-01</leafValues></_>        <_>          <internalNodes>            0 -1 29 1.0327511467039585e-02</internalNodes>          <leafValues>            1.8322251737117767e-01 -8.4221857786178589e-01</leafValues></_>        <_>          <internalNodes>            0 -1 13 -2.2973537445068359e-02</internalNodes>          <leafValues>            6.1504858732223511e-01 -3.3396461606025696e-01</leafValues></_>        <_>          <internalNodes>            0 -1 12 2.8548661619424820e-02</internalNodes>          <leafValues>            -3.4844726324081421e-01 7.3976695537567139e-01</leafValues></_>        <_>          <internalNodes>            0 -1 67 2.2624433040618896e-04</internalNodes>          <leafValues>            -8.6281371116638184e-01 2.9851329326629639e-01</leafValues></_>        <_>          <internalNodes>            0 -1 50 -6.0245259664952755e-03</internalNodes>          <leafValues>            5.3104287385940552e-01 -3.4868574142456055e-01</leafValues></_>        <_>          <internalNodes>            0 -1 58 1.2263644021004438e-03</internalNodes>          <leafValues>            1.9283479452133179e-01 -9.0469878911972046e-01</leafValues></_>        <_>          <internalNodes>            0 -1 62 -3.3569827792234719e-05</internalNodes>          <leafValues>            -8.5504579544067383e-01 1.5447598695755005e-01</leafValues></_></weakClassifiers></_></stages>  <features>    <_>      <rects>        <_>          0 0 50 33 -1.</_>        <_>          0 11 50 11 3.</_></rects>      <tilted>0</tilted></_>    <_>      <rects>        <_>          0 6 14 20 -1.</_>        <_>          7 6 7 20 2.</_></rects>      <tilted>0</tilted></_>    <_>      <rects>        <_>          0 10 18 19 -1.</_>        <_>          6 10 6 19 3.</_></rects>      <tilted>0</tilted></_>    <_>      <rects>        <_>          0 14 21 4 -1.</_>        <_>          7 14 7 4 3.</_></rects>      <tilted>0</tilted></_>    <_>      <rects>        <_>          0 15 18 10 -1.</_>        <_>          6 15 6 10 3.</_></rects>      <tilted>0</tilted></_>    <_>      <rects>        <_>          0 18 21 6 -1.</_>        <_>          7 18 7 6 3.</_></rects>      <tilted>0</tilted></_>    <_>      <rects>        <_>          1 1 28 8 -1.</_>        <_>          1 1 14 4 2.</_>        <_>          15 5 14 4 2.</_></rects>      <tilted>0</tilted></_>    <_>      <rects>        <_>          1 14 18 14 -1.</_>        <_>          7 14 6 14 3.</_></rects>      <tilted>0</tilted></_>    <_>      <rects>        <_>          3 13 10 23 -1.</_>        <_>          8 13 5 23 2.</_></rects>      <tilted>0</tilted></_>    <_>      <rects>        <_>          3 41 32 5 -1.</_>        <_>          19 41 16 5 2.</_></rects>      <tilted>0</tilted></_>    <_>      <rects>        <_>          3 43 26 2 -1.</_>        <_>          16 43 13 2 2.</_></rects>      <tilted>0</tilted></_>    <_>      <rects>        <_>          7 1 7 39 -1.</_>        <_>          7 14 7 13 3.</_></rects>      <tilted>0</tilted></_>    <_>      <rects>        <_>          7 4 10 39 -1.</_>        <_>          12 4 5 39 2.</_></rects>      <tilted>0</tilted></_>    <_>      <rects>        <_>          8 29 17 12 -1.</_>        <_>          8 35 17 6 2.</_></rects>      <tilted>0</tilted></_>    <_>      <rects>        <_>          9 18 8 3 -1.</_>        <_>          13 18 4 3 2.</_></rects>      <tilted>0</tilted></_>    <_>      <rects>        <_>          10 0 27 10 -1.</_>        <_>          10 5 27 5 2.</_></rects>      <tilted>0</tilted></_>    <_>      <rects>        <_>          11 11 11 32 -1.</_>        <_>          11 27 11 16 2.</_></rects>      <tilted>0</tilted></_>    <_>      <rects>        <_>          12 0 24 10 -1.</_>        <_>          12 5 24 5 2.</_></rects>      <tilted>0</tilted></_>    <_>      <rects>        <_>          13 12 8 30 -1.</_>        <_>          13 27 8 15 2.</_></rects>      <tilted>0</tilted></_>    <_>      <rects>        <_>          14 2 21 4 -1.</_>        <_>          14 4 21 2 2.</_></rects>      <tilted>0</tilted></_>    <_>      <rects>        <_>          15 14 12 12 -1.</_>        <_>          15 18 12 4 3.</_></rects>      <tilted>0</tilted></_>    <_>      <rects>        <_>          15 18 10 17 -1.</_>        <_>          20 18 5 17 2.</_></rects>      <tilted>0</tilted></_>    <_>      <rects>        <_>          16 11 8 10 -1.</_>        <_>          16 16 8 5 2.</_></rects>      <tilted>0</tilted></_>    <_>      <rects>        <_>          16 18 13 4 -1.</_>        <_>          16 20 13 2 2.</_></rects>      <tilted>0</tilted></_>    <_>      <rects>        <_>          16 44 23 6 -1.</_>        <_>          16 47 23 3 2.</_></rects>      <tilted>0</tilted></_>    <_>      <rects>        <_>          17 6 12 32 -1.</_>        <_>          17 22 12 16 2.</_></rects>      <tilted>0</tilted></_>    <_>      <rects>        <_>          17 13 33 5 -1.</_>        <_>          28 13 11 5 3.</_></rects>      <tilted>0</tilted></_>    <_>      <rects>        <_>          17 16 9 4 -1.</_>        <_>          17 18 9 2 2.</_></rects>      <tilted>0</tilted></_>    <_>      <rects>        <_>          17 21 2 12 -1.</_>        <_>          18 21 1 12 2.</_></rects>      <tilted>0</tilted></_>    <_>      <rects>        <_>          18 9 8 27 -1.</_>        <_>          18 18 8 9 3.</_></rects>      <tilted>0</tilted></_>    <_>      <rects>        <_>          18 21 3 14 -1.</_>        <_>          18 28 3 7 2.</_></rects>      <tilted>0</tilted></_>    <_>      <rects>        <_>          18 21 6 18 -1.</_>        <_>          21 21 3 18 2.</_></rects>      <tilted>0</tilted></_>    <_>      <rects>        <_>          19 13 8 16 -1.</_>        <_>          19 13 4 8 2.</_>        <_>          23 21 4 8 2.</_></rects>      <tilted>0</tilted></_>    <_>      <rects>        <_>          19 27 1 8 -1.</_>        <_>          19 31 1 4 2.</_></rects>      <tilted>0</tilted></_>    <_>      <rects>        <_>          19 31 2 8 -1.</_>        <_>          19 35 2 4 2.</_></rects>      <tilted>0</tilted></_>    <_>      <rects>        <_>          20 10 13 24 -1.</_>        <_>          20 22 13 12 2.</_></rects>      <tilted>0</tilted></_>    <_>      <rects>        <_>          20 25 1 10 -1.</_>        <_>          20 30 1 5 2.</_></rects>      <tilted>0</tilted></_>    <_>      <rects>        <_>          20 25 8 4 -1.</_>        <_>          24 25 4 4 2.</_></rects>      <tilted>0</tilted></_>    <_>      <rects>        <_>          20 32 18 10 -1.</_>        <_>          29 32 9 10 2.</_></rects>      <tilted>0</tilted></_>    <_>      <rects>        <_>          21 1 5 15 -1.</_>        <_>          21 6 5 5 3.</_></rects>      <tilted>0</tilted></_>    <_>      <rects>        <_>          21 1 9 8 -1.</_>        <_>          21 5 9 4 2.</_></rects>      <tilted>0</tilted></_>    <_>      <rects>        <_>          21 3 8 6 -1.</_>        <_>          21 6 8 3 2.</_></rects>      <tilted>0</tilted></_>    <_>      <rects>        <_>          21 14 15 5 -1.</_>        <_>          26 14 5 5 3.</_></rects>      <tilted>0</tilted></_>    <_>      <rects>        <_>          21 21 4 16 -1.</_>        <_>          21 29 4 8 2.</_></rects>      <tilted>0</tilted></_>    <_>      <rects>        <_>          21 38 8 12 -1.</_>        <_>          21 42 8 4 3.</_></rects>      <tilted>0</tilted></_>    <_>      <rects>        <_>          22 21 4 2 -1.</_>        <_>          22 22 4 1 2.</_></rects>      <tilted>0</tilted></_>    <_>      <rects>        <_>          23 16 6 1 -1.</_>        <_>          26 16 3 1 2.</_></rects>      <tilted>0</tilted></_>    <_>      <rects>        <_>          23 20 2 24 -1.</_>        <_>          24 20 1 24 2.</_></rects>      <tilted>0</tilted></_>    <_>      <rects>        <_>          23 35 16 3 -1.</_>        <_>          31 35 8 3 2.</_></rects>      <tilted>0</tilted></_>    <_>      <rects>        <_>          23 37 8 12 -1.</_>        <_>          23 41 8 4 3.</_></rects>      <tilted>0</tilted></_>    <_>      <rects>        <_>          23 43 10 6 -1.</_>        <_>          23 46 10 3 2.</_></rects>      <tilted>0</tilted></_>    <_>      <rects>        <_>          24 0 10 15 -1.</_>        <_>          24 5 10 5 3.</_></rects>      <tilted>0</tilted></_>    <_>      <rects>        <_>          24 0 12 27 -1.</_>        <_>          24 9 12 9 3.</_></rects>      <tilted>0</tilted></_>    <_>      <rects>        <_>          24 24 2 20 -1.</_>        <_>          24 24 1 10 2.</_>        <_>          25 34 1 10 2.</_></rects>      <tilted>0</tilted></_>    <_>      <rects>        <_>          24 35 2 10 -1.</_>        <_>          24 40 2 5 2.</_></rects>      <tilted>0</tilted></_>    <_>      <rects>        <_>          25 10 3 2 -1.</_>        <_>          25 11 3 1 2.</_></rects>      <tilted>0</tilted></_>    <_>      <rects>        <_>          25 10 9 6 -1.</_>        <_>          28 10 3 6 3.</_></rects>      <tilted>0</tilted></_>    <_>      <rects>        <_>          25 13 1 2 -1.</_>        <_>          25 14 1 1 2.</_></rects>      <tilted>0</tilted></_>    <_>      <rects>        <_>          25 13 6 22 -1.</_>        <_>          27 13 2 22 3.</_></rects>      <tilted>0</tilted></_>    <_>      <rects>        <_>          25 13 6 3 -1.</_>        <_>          28 13 3 3 2.</_></rects>      <tilted>0</tilted></_>    <_>      <rects>        <_>          25 19 2 2 -1.</_>        <_>          25 20 2 1 2.</_></rects>      <tilted>0</tilted></_>    <_>      <rects>        <_>          26 10 7 36 -1.</_>        <_>          26 22 7 12 3.</_></rects>      <tilted>0</tilted></_>    <_>      <rects>        <_>          26 18 3 1 -1.</_>        <_>          27 18 1 1 3.</_></rects>      <tilted>0</tilted></_>    <_>      <rects>        <_>          26 40 1 2 -1.</_>        <_>          26 41 1 1 2.</_></rects>      <tilted>0</tilted></_>    <_>      <rects>        <_>          27 13 4 18 -1.</_>        <_>          27 22 4 9 2.</_></rects>      <tilted>0</tilted></_>    <_>      <rects>        <_>          27 15 8 1 -1.</_>        <_>          31 15 4 1 2.</_></rects>      <tilted>0</tilted></_>    <_>      <rects>        <_>          27 21 1 2 -1.</_>        <_>          27 22 1 1 2.</_></rects>      <tilted>0</tilted></_>    <_>      <rects>        <_>          27 24 1 24 -1.</_>        <_>          27 36 1 12 2.</_></rects>      <tilted>0</tilted></_>    <_>      <rects>        <_>          27 34 14 12 -1.</_>        <_>          27 34 7 6 2.</_>        <_>          34 40 7 6 2.</_></rects>      <tilted>0</tilted></_>    <_>      <rects>        <_>          28 10 3 2 -1.</_>        <_>          28 11 3 1 2.</_></rects>      <tilted>0</tilted></_>    <_>      <rects>        <_>          28 34 22 8 -1.</_>        <_>          39 34 11 8 2.</_></rects>      <tilted>0</tilted></_>    <_>      <rects>        <_>          29 13 6 2 -1.</_>        <_>          32 13 3 2 2.</_></rects>      <tilted>0</tilted></_>    <_>      <rects>        <_>          29 14 3 30 -1.</_>        <_>          29 24 3 10 3.</_></rects>      <tilted>0</tilted></_>    <_>      <rects>        <_>          29 26 12 7 -1.</_>        <_>          35 26 6 7 2.</_></rects>      <tilted>0</tilted></_>    <_>      <rects>        <_>          30 2 8 24 -1.</_>        <_>          30 10 8 8 3.</_></rects>      <tilted>0</tilted></_>    <_>      <rects>        <_>          30 22 8 17 -1.</_>        <_>          34 22 4 17 2.</_></rects>      <tilted>0</tilted></_>    <_>      <rects>        <_>          31 14 1 2 -1.</_>        <_>          31 15 1 1 2.</_></rects>      <tilted>0</tilted></_>    <_>      <rects>        <_>          31 34 2 1 -1.</_>        <_>          32 34 1 1 2.</_></rects>      <tilted>0</tilted></_>    <_>      <rects>        <_>          32 2 18 40 -1.</_>        <_>          41 2 9 40 2.</_></rects>      <tilted>0</tilted></_>    <_>      <rects>        <_>          32 15 18 20 -1.</_>        <_>          38 15 6 20 3.</_></rects>      <tilted>0</tilted></_>    <_>      <rects>        <_>          32 20 8 11 -1.</_>        <_>          36 20 4 11 2.</_></rects>      <tilted>0</tilted></_>    <_>      <rects>        <_>          32 34 2 2 -1.</_>        <_>          33 34 1 2 2.</_></rects>      <tilted>0</tilted></_>    <_>      <rects>        <_>          34 34 2 3 -1.</_>        <_>          35 34 1 3 2.</_></rects>      <tilted>0</tilted></_>    <_>      <rects>        <_>          42 15 8 23 -1.</_>        <_>          46 15 4 23 2.</_></rects>      <tilted>0</tilted></_></features></cascade></opencv_storage>