<?xml version="1.0"?><opencv_storage><stage6>  <maxWeakCount>8</maxWeakCount>  <stageThreshold>-1.4389659166336060e+00</stageThreshold>  <weakClassifiers>    <_>      <internalNodes>        0 -1 1655368 -5.8601982891559601e-04</internalNodes>      <leafValues>        5.6225216388702393e-01 -8.7447696924209595e-01</leafValues></_>    <_>      <internalNodes>        0 -1 61492 3.7919517606496811e-02</internalNodes>      <leafValues>        -3.9350450038909912e-01 7.7791661024093628e-01</leafValues></_>    <_>      <internalNodes>        0 -1 1916495 -1.5915065887384117e-04</internalNodes>      <leafValues>        4.0507459640502930e-01 -7.7229350805282593e-01</leafValues></_>    <_>      <internalNodes>        0 -1 1703178 -3.9854366332292557e-03</internalNodes>      <leafValues>        4.8397657275199890e-01 -5.8584994077682495e-01</leafValues></_>    <_>      <internalNodes>        0 -1 4705 1.2905900180339813e-01</internalNodes>      <leafValues>        -7.1004039049148560e-01 3.4276157617568970e-01</leafValues></_>    <_>      <internalNodes>        0 -1 2286542 7.8183920777519234e-06</internalNodes>      <leafValues>        3.3451133966445923e-01 -7.9555344581604004e-01</leafValues></_>    <_>      <internalNodes>        0 -1 2417277 -1.8320444723940454e-05</internalNodes>      <leafValues>        2.0606438815593719e-01 -8.1607115268707275e-01</leafValues></_>    <_>      <internalNodes>        0 -1 1756139 2.1341691899579018e-04</internalNodes>      <leafValues>        2.0882740616798401e-01 -8.9746338129043579e-01</leafValues></_></weakClassifiers></stage6></opencv_storage>