<?xml version="1.0"?><opencv_storage><stage12>  <maxWeakCount>6</maxWeakCount>  <stageThreshold>-9.9692595005035400e-01</stageThreshold>  <weakClassifiers>    <_>      <internalNodes>        0 -1 375990 -8.1670694053173065e-03</internalNodes>      <leafValues>        -8.6363637447357178e-01 5.8899676799774170e-01</leafValues></_>    <_>      <internalNodes>        0 -1 1483622 -5.1889074966311455e-03</internalNodes>      <leafValues>        4.8812332749366760e-01 -7.5278437137603760e-01</leafValues></_>    <_>      <internalNodes>        0 -1 2309332 5.7103764265775681e-04</internalNodes>      <leafValues>        -7.2698265314102173e-01 4.0745899081230164e-01</leafValues></_>    <_>      <internalNodes>        0 -1 2750153 2.7002296410501003e-03</internalNodes>      <leafValues>        -6.5114808082580566e-01 4.6741059422492981e-01</leafValues></_>    <_>      <internalNodes>        0 -1 413756 -3.2903980463743210e-03</internalNodes>      <leafValues>        -8.5937696695327759e-01 3.3787977695465088e-01</leafValues></_>    <_>      <internalNodes>        0 -1 2895634 1.4403564819076564e-05</internalNodes>      <leafValues>        -6.5851682424545288e-01 4.1883808374404907e-01</leafValues></_></weakClassifiers></stage12></opencv_storage>