<?xml version="1.0"?><opencv_storage><stage3>  <maxWeakCount>5</maxWeakCount>  <stageThreshold>-9.5952111482620239e-01</stageThreshold>  <weakClassifiers>    <_>      <internalNodes>        0 -1 1420531 -3.0259978026151657e-02</internalNodes>      <leafValues>        6.4705884456634521e-01 -8.7096774578094482e-01</leafValues></_>    <_>      <internalNodes>        0 -1 2142205 6.4343865960836411e-03</internalNodes>      <leafValues>        -5.8524417877197266e-01 7.3926705121994019e-01</leafValues></_>    <_>      <internalNodes>        0 -1 519685 7.6139634475111961e-03</internalNodes>      <leafValues>        -5.2253538370132446e-01 7.8472936153411865e-01</leafValues></_>    <_>      <internalNodes>        0 -1 2470178 -1.1401310621295124e-04</internalNodes>      <leafValues>        5.5369383096694946e-01 -7.3776161670684814e-01</leafValues></_>    <_>      <internalNodes>        0 -1 2432730 1.3799841326544993e-05</internalNodes>      <leafValues>        -8.0862808227539062e-01 4.3247658014297485e-01</leafValues></_></weakClassifiers></stage3></opencv_storage>