<?xml version="1.0"?><opencv_storage><stage2>  <maxWeakCount>4</maxWeakCount>  <stageThreshold>-3.3442243933677673e-01</stageThreshold>  <weakClassifiers>    <_>      <internalNodes>        0 -1 186710 -278 1299185486 -20480286 -553648657 -134750650        -1074798579 -403212297 -16779273</internalNodes>      <leafValues>        -6.8984961509704590e-01 7.3864483833312988e-01</leafValues></_>    <_>      <internalNodes>        0 -1 404868 -208406565 1598525600 -1059992429 1593939136        -120849697 -1367310336 -55838875 -143262640</internalNodes>      <leafValues>        -7.8326541185379028e-01 5.7251709699630737e-01</leafValues></_>    <_>      <internalNodes>        0 -1 787469 -679478578 -282865214 1921077964 -128600337        -1069072310 -1987886048 -1063532289 -1057228033</internalNodes>      <leafValues>        -7.5312048196792603e-01 5.4618132114410400e-01</leafValues></_>    <_>      <internalNodes>        0 -1 437585 -1584297333 -184090367 -1585443791 1472922483        -125719893 -73676792 -1467953473 925192983</internalNodes>      <leafValues>        -6.6441243886947632e-01 5.9251123666763306e-01</leafValues></_></weakClassifiers></stage2></opencv_storage>