<?xml version="1.0"?><opencv_storage><stage16>  <maxWeakCount>5</maxWeakCount>  <stageThreshold>-7.9624414443969727e-01</stageThreshold>  <weakClassifiers>    <_>      <internalNodes>        0 -1 694985 -134265516 1897364853 -16818467 1952403447 -33591864        -135135756 -35129864 -237487606</internalNodes>      <leafValues>        -4.9586015939712524e-01 6.7179870605468750e-01</leafValues></_>    <_>      <internalNodes>        0 -1 350404 -2030108678 -1383677970 -1090519053 -58658982        -698023941 100988893 175551955 -856699665</internalNodes>      <leafValues>        -5.5478256940841675e-01 5.6993943452835083e-01</leafValues></_>    <_>      <internalNodes>        0 -1 307578 -11012538 1263730707 734 43188247 -887755196        1749024803 -2113090964 208906279</internalNodes>      <leafValues>        -6.4908462762832642e-01 5.0714617967605591e-01</leafValues></_>    <_>      <internalNodes>        0 -1 773926 320590858 1103354760 1212350673 -657908729 274433166        -2147282943 -2120178793 1079845035</internalNodes>      <leafValues>        -6.6175860166549683e-01 4.5138743519783020e-01</leafValues></_>    <_>      <internalNodes>        0 -1 550529 604263572 373899536 18960665 924582168 -1785700353        749217938 143214842 959860056</internalNodes>      <leafValues>        -6.9861835241317749e-01 4.0901094675064087e-01</leafValues></_></weakClassifiers></stage16></opencv_storage>