<?xml version="1.0"?><opencv_storage><stage17>  <maxWeakCount>6</maxWeakCount>  <stageThreshold>-4.6727380156517029e-01</stageThreshold>  <weakClassifiers>    <_>      <internalNodes>        0 -1 793005 1567847926 -437551633 889192046 2092381559        -857768626 -570458658 -713065089 -732465697</internalNodes>      <leafValues>        -4.6889507770538330e-01 6.5656566619873047e-01</leafValues></_>    <_>      <internalNodes>        0 -1 11299 -713032466 -988983122 1500860 -1636597613 1925261823        -2145189757 1938105343 -1043340805</internalNodes>      <leafValues>        -5.5686712265014648e-01 5.2631205320358276e-01</leafValues></_>    <_>      <internalNodes>        0 -1 465003 110085372 -559497002 1669660817 -981302802 10734591        136841371 25340642 -1946440996</internalNodes>      <leafValues>        -5.5604660511016846e-01 4.6805182099342346e-01</leafValues></_>    <_>      <internalNodes>        0 -1 202548 1896566922 -1532505620 302006272 2014286785        -936861106 1074495648 1074037491 1002488821</internalNodes>      <leafValues>        -7.8684782981872559e-01 3.3227914571762085e-01</leafValues></_>    <_>      <internalNodes>        0 -1 796416 -111037110 -477147125 -2063511419 -233678005        1350920964 -1031045098 -1299478493 -707006001</internalNodes>      <leafValues>        -5.6527346372604370e-01 4.4510826468467712e-01</leafValues></_>    <_>      <internalNodes>        0 -1 458316 1431204587 -74890925 1359070711 -778234815 270656305        -68386782 -1413232444 -568178432</internalNodes>      <leafValues>        -6.8695086240768433e-01 3.8998603820800781e-01</leafValues></_></weakClassifiers></stage17></opencv_storage>