<?xml version="1.0"?><opencv_storage><stage0>  <maxWeakCount>18</maxWeakCount>  <stageThreshold>-2.0499253273010254e+00</stageThreshold>  <weakClassifiers>    <_>      <internalNodes>        0 -1 2842822 -3.2420980278402567e-04</internalNodes>      <leafValues>        1.1684080362319946e+00 -1.1684080362319946e+00</leafValues></_>    <_>      <internalNodes>        0 -1 3442668 2.5736060342751443e-04</internalNodes>      <leafValues>        -9.8063796758651733e-01 9.8063796758651733e-01</leafValues></_>    <_>      <internalNodes>        0 -1 3867718 -3.5218552511651069e-05</internalNodes>      <leafValues>        7.1470504999160767e-01 -7.1470504999160767e-01</leafValues></_>    <_>      <internalNodes>        0 -1 3060544 -7.5656804256141186e-04</internalNodes>      <leafValues>        6.2770128250122070e-01 -6.2770128250122070e-01</leafValues></_>    <_>      <internalNodes>        0 -1 3195558 1.1481357738375664e-02</internalNodes>      <leafValues>        6.2398916482925415e-01 -6.2398916482925415e-01</leafValues></_>    <_>      <internalNodes>        0 -1 2779513 1.5065684914588928e-02</internalNodes>      <leafValues>        -5.8755773305892944e-01 5.8755773305892944e-01</leafValues></_>    <_>      <internalNodes>        0 -1 4312251 2.9220089345471933e-05</internalNodes>      <leafValues>        -5.9703141450881958e-01 5.9703141450881958e-01</leafValues></_>    <_>      <internalNodes>        0 -1 3958056 1.2457607954274863e-04</internalNodes>      <leafValues>        -5.2947217226028442e-01 5.2947217226028442e-01</leafValues></_>    <_>      <internalNodes>        0 -1 3422000 -1.8131423275917768e-03</internalNodes>      <leafValues>        5.1807278394699097e-01 -5.1807278394699097e-01</leafValues></_>    <_>      <internalNodes>        0 -1 2855882 -1.8836796516552567e-04</internalNodes>      <leafValues>        6.2608772516250610e-01 -6.2608772516250610e-01</leafValues></_>    <_>      <internalNodes>        0 -1 3564395 -3.0450848862528801e-03</internalNodes>      <leafValues>        5.1462036371231079e-01 -5.1462036371231079e-01</leafValues></_>    <_>      <internalNodes>        0 -1 3447607 3.3222488127648830e-05</internalNodes>      <leafValues>        -4.9781054258346558e-01 4.9781054258346558e-01</leafValues></_>    <_>      <internalNodes>        0 -1 3215826 6.1407592147588730e-04</internalNodes>      <leafValues>        4.9664291739463806e-01 -4.9664291739463806e-01</leafValues></_>    <_>      <internalNodes>        0 -1 2851614 -3.9144437760114670e-03</internalNodes>      <leafValues>        5.1549911499023438e-01 -5.1549911499023438e-01</leafValues></_>    <_>      <internalNodes>        0 -1 3052428 -6.0482427943497896e-04</internalNodes>      <leafValues>        4.1744941473007202e-01 -4.1744941473007202e-01</leafValues></_>    <_>      <internalNodes>        0 -1 3326779 3.4900098398793489e-05</internalNodes>      <leafValues>        5.5245602130889893e-01 -5.5245602130889893e-01</leafValues></_>    <_>      <internalNodes>        0 -1 3767163 2.1824083523824811e-04</internalNodes>      <leafValues>        -4.3279010057449341e-01 4.3279010057449341e-01</leafValues></_>    <_>      <internalNodes>        0 -1 3447616 2.6558444005786441e-05</internalNodes>      <leafValues>        4.5108944177627563e-01 -4.5108944177627563e-01</leafValues></_></weakClassifiers></stage0></opencv_storage>