<?xml version="1.0"?><opencv_storage><stage2>  <maxWeakCount>5</maxWeakCount>  <stageThreshold>-7.2346323728561401e-01</stageThreshold>  <weakClassifiers>    <_>      <internalNodes>        0 -1 116952 7.3850149055942893e-04</internalNodes>      <leafValues>        -7.2928822040557861e-01 6.4811617136001587e-01</leafValues></_>    <_>      <internalNodes>        0 -1 120897 -2.3268026416189969e-04</internalNodes>      <leafValues>        4.3087506294250488e-01 -8.0072116851806641e-01</leafValues></_>    <_>      <internalNodes>        0 -1 128873 3.2989970350172371e-05</internalNodes>      <leafValues>        -9.4921165704727173e-01 3.1099185347557068e-01</leafValues></_>    <_>      <internalNodes>        0 -1 128878 7.6293048914521933e-04</internalNodes>      <leafValues>        2.5511506199836731e-01 -9.4003975391387939e-01</leafValues></_>    <_>      <internalNodes>        0 -1 99092 3.0388560844585299e-04</internalNodes>      <leafValues>        -9.2976558208465576e-01 2.4043925106525421e-01</leafValues></_></weakClassifiers></stage2></opencv_storage>