<?xml version="1.0"?><opencv_storage><stage2>  <maxWeakCount>5</maxWeakCount>  <stageThreshold>-1.0693202018737793e+00</stageThreshold>  <weakClassifiers>    <_>      <internalNodes>        0 -1 1995367 1.1807337403297424e-02</internalNodes>      <leafValues>        -7.7990430593490601e-01 7.6340109109878540e-01</leafValues></_>    <_>      <internalNodes>        0 -1 2205102 5.2147150039672852e-02</internalNodes>      <leafValues>        -7.7040797472000122e-01 6.3222622871398926e-01</leafValues></_>    <_>      <internalNodes>        0 -1 71115 1.0254161432385445e-02</internalNodes>      <leafValues>        -5.9901642799377441e-01 6.7638397216796875e-01</leafValues></_>    <_>      <internalNodes>        0 -1 2199320 8.7548932060599327e-03</internalNodes>      <leafValues>        -4.7088313102722168e-01 7.0998919010162354e-01</leafValues></_>    <_>      <internalNodes>        0 -1 1986171 -2.5881058536469936e-04</internalNodes>      <leafValues>        3.7001940608024597e-01 -8.7551790475845337e-01</leafValues></_></weakClassifiers></stage2></opencv_storage>