<?xml version="1.0"?><opencv_storage><stage4>  <maxWeakCount>8</maxWeakCount>  <stageThreshold>-1.7375305891036987e+00</stageThreshold>  <weakClassifiers>    <_>      <internalNodes>        0 -1 2657241 4.9048149958252907e-03</internalNodes>      <leafValues>        -6.2318837642669678e-01 6.9797420501708984e-01</leafValues></_>    <_>      <internalNodes>        0 -1 2068645 1.0076918639242649e-02</internalNodes>      <leafValues>        -4.7242316603660583e-01 7.0024490356445312e-01</leafValues></_>    <_>      <internalNodes>        0 -1 2007655 7.6898001134395599e-03</internalNodes>      <leafValues>        -5.7270604372024536e-01 5.9697043895721436e-01</leafValues></_>    <_>      <internalNodes>        0 -1 2406370 -1.3669356703758240e-02</internalNodes>      <leafValues>        4.4352388381958008e-01 -7.9312276840209961e-01</leafValues></_>    <_>      <internalNodes>        0 -1 402619 2.0456172525882721e-02</internalNodes>      <leafValues>        -4.3161687254905701e-01 7.1611493825912476e-01</leafValues></_>    <_>      <internalNodes>        0 -1 2291712 8.9607556219561957e-06</internalNodes>      <leafValues>        3.1429964303970337e-01 -8.1701076030731201e-01</leafValues></_>    <_>      <internalNodes>        0 -1 2624615 6.2782755776424892e-06</internalNodes>      <leafValues>        -7.0655852556228638e-01 3.2532632350921631e-01</leafValues></_>    <_>      <internalNodes>        0 -1 2117007 -3.1050010875333101e-05</internalNodes>      <leafValues>        2.2662301361560822e-01 -8.7060517072677612e-01</leafValues></_></weakClassifiers></stage4></opencv_storage>