<?xml version="1.0"?><opencv_storage><stage19>  <maxWeakCount>5</maxWeakCount>  <stageThreshold>-5.8250325918197632e-01</stageThreshold>  <weakClassifiers>    <_>      <internalNodes>        0 -1 59672 286478350 218943780 331842 11083811 75147 -1072103424        -2147479401 268959887</internalNodes>      <leafValues>        -6.7239403724670410e-01 6.3851231336593628e-01</leafValues></_>    <_>      <internalNodes>        0 -1 816457 285430520 -2118057680 -2147479327 -805109551        -804617982 -1342177024 -1052466937 -930103293</internalNodes>      <leafValues>        -7.0225459337234497e-01 5.6362706422805786e-01</leafValues></_>    <_>      <internalNodes>        0 -1 508470 -1332517644 276757857 -1073742163 1529439745        -1326096905 -1166180484 880569550 -264085554</internalNodes>      <leafValues>        -5.6093227863311768e-01 6.7861580848693848e-01</leafValues></_>    <_>      <internalNodes>        0 -1 532600 1359074521 -268095339 201392411 1078755717 8519984        293617672 -1576001520 -1229946870</internalNodes>      <leafValues>        -5.9883546829223633e-01 6.3461065292358398e-01</leafValues></_>    <_>      <internalNodes>        0 -1 434403 805302136 -1352372239 -285282398 522645244 82580530        -1942331742 126252860 -300161457</internalNodes>      <leafValues>        -5.2215611934661865e-01 7.1236503124237061e-01</leafValues></_></weakClassifiers></stage19></opencv_storage>