<?xml version="1.0"?><opencv_storage><stage9>  <maxWeakCount>6</maxWeakCount>  <stageThreshold>-4.1160064935684204e-01</stageThreshold>  <weakClassifiers>    <_>      <internalNodes>        0 -1 798819 -1356079910 -2136211476 1779527746 -1341828527        -246230006 -822083585 -1090584577 -1594097665</internalNodes>      <leafValues>        -5.9135562181472778e-01 6.7789167165756226e-01</leafValues></_>    <_>      <internalNodes>        0 -1 550682 276651246 1350524271 -260080513 501120767 -327191041        -102793473 -858882306 -117473281</internalNodes>      <leafValues>        -5.3030014038085938e-01 6.2586575746536255e-01</leafValues></_>    <_>      <internalNodes>        0 -1 224424 2147482602 -1453076030 -1832151870 1343467995        -528306161 -1203077120 -1064664585 -934021385</internalNodes>      <leafValues>        -7.0955401659011841e-01 4.6574899554252625e-01</leafValues></_>    <_>      <internalNodes>        0 -1 174564 1561023578 -578086616 90545 -1415642867 -1794469819        17317927 537034887 -845461649</internalNodes>      <leafValues>        -6.2441420555114746e-01 5.2642333507537842e-01</leafValues></_>    <_>      <internalNodes>        0 -1 519073 -673228929 -1659669701 -519840805 -24084393        -886556571 -340230109 1373274401 -265232624</internalNodes>      <leafValues>        -6.7739230394363403e-01 4.5885443687438965e-01</leafValues></_>    <_>      <internalNodes>        0 -1 794863 -81543286 1157968043 -121015695 813814659 -905463221        -72269535 -75390049 -1066421681</internalNodes>      <leafValues>        -6.9347983598709106e-01 4.3433129787445068e-01</leafValues></_></weakClassifiers></stage9></opencv_storage>