<?xml version="1.0"?><opencv_storage><stage8>  <maxWeakCount>8</maxWeakCount>  <stageThreshold>-2.1957423686981201e+00</stageThreshold>  <weakClassifiers>    <_>      <internalNodes>        0 -1 150508 1.2443172745406628e-03</internalNodes>      <leafValues>        -1.4093706607818604e+00 1.4093706607818604e+00</leafValues></_>    <_>      <internalNodes>        0 -1 107733 1.7805557698011398e-02</internalNodes>      <leafValues>        -9.7000008821487427e-01 9.7000008821487427e-01</leafValues></_>    <_>      <internalNodes>        0 -1 110200 -6.2223942950367928e-03</internalNodes>      <leafValues>        1.0272600650787354e+00 -1.0272600650787354e+00</leafValues></_>    <_>      <internalNodes>        0 -1 55017 -5.2803054451942444e-02</internalNodes>      <leafValues>        1.0774931907653809e+00 -1.0774931907653809e+00</leafValues></_>    <_>      <internalNodes>        0 -1 85550 -2.9177921824157238e-03</internalNodes>      <leafValues>        9.0015512704849243e-01 -9.0015512704849243e-01</leafValues></_>    <_>      <internalNodes>        0 -1 121174 -9.5666795969009399e-03</internalNodes>      <leafValues>        9.5955997705459595e-01 -9.5955997705459595e-01</leafValues></_>    <_>      <internalNodes>        0 -1 132088 -4.3814620003104210e-03</internalNodes>      <leafValues>        9.3510222434997559e-01 -9.3510222434997559e-01</leafValues></_>    <_>      <internalNodes>        0 -1 145558 -8.9111872017383575e-02</internalNodes>      <leafValues>        8.3044135570526123e-01 -8.3044135570526123e-01</leafValues></_></weakClassifiers></stage8></opencv_storage>