<?xml version="1.0"?><opencv_storage><stage13>  <maxWeakCount>13</maxWeakCount>  <stageThreshold>-1.5820147991180420e+00</stageThreshold>  <weakClassifiers>    <_>      <internalNodes>        0 -1 124674 -1.1298259778413922e-05</internalNodes>      <leafValues>        -1.3532880544662476e+00 1.3532880544662476e+00</leafValues></_>    <_>      <internalNodes>        0 -1 66688 -1.0632672347128391e-03</internalNodes>      <leafValues>        8.2796597480773926e-01 -8.2796597480773926e-01</leafValues></_>    <_>      <internalNodes>        0 -1 143429 -1.1866099201142788e-02</internalNodes>      <leafValues>        8.4558618068695068e-01 -8.4558618068695068e-01</leafValues></_>    <_>      <internalNodes>        0 -1 111174 1.7437679343856871e-04</internalNodes>      <leafValues>        -7.4323540925979614e-01 7.4323540925979614e-01</leafValues></_>    <_>      <internalNodes>        0 -1 154438 1.2839121744036674e-02</internalNodes>      <leafValues>        -8.5971021652221680e-01 8.5971021652221680e-01</leafValues></_>    <_>      <internalNodes>        0 -1 3473 8.2168199121952057e-02</internalNodes>      <leafValues>        -7.5824064016342163e-01 7.5824064016342163e-01</leafValues></_>    <_>      <internalNodes>        0 -1 136537 1.7024655244313180e-04</internalNodes>      <leafValues>        -7.9370397329330444e-01 7.9370397329330444e-01</leafValues></_>    <_>      <internalNodes>        0 -1 80160 -6.8484018556773663e-03</internalNodes>      <leafValues>        7.3011285066604614e-01 -7.3011285066604614e-01</leafValues></_>    <_>      <internalNodes>        0 -1 96516 2.8607640415430069e-03</internalNodes>      <leafValues>        -8.2785570621490479e-01 8.2785570621490479e-01</leafValues></_>    <_>      <internalNodes>        0 -1 72467 1.1589917354285717e-02</internalNodes>      <leafValues>        -6.3529938459396362e-01 6.3529938459396362e-01</leafValues></_>    <_>      <internalNodes>        0 -1 86473 5.8315433561801910e-03</internalNodes>      <leafValues>        8.7197601795196533e-01 -8.7197601795196533e-01</leafValues></_>    <_>      <internalNodes>        0 -1 22199 -1.2311751022934914e-02</internalNodes>      <leafValues>        6.5362691879272461e-01 -6.5362691879272461e-01</leafValues></_>    <_>      <internalNodes>        0 -1 119605 -8.0932595301419497e-04</internalNodes>      <leafValues>        7.9417967796325684e-01 -7.9417967796325684e-01</leafValues></_></weakClassifiers></stage13></opencv_storage>