<?xml version="1.0"?><opencv_storage><stage6>  <maxWeakCount>9</maxWeakCount>  <stageThreshold>-2.1185829639434814e+00</stageThreshold>  <weakClassifiers>    <_>      <internalNodes>        0 -1 111916 -6.5571870654821396e-03</internalNodes>      <leafValues>        1.4220951795578003e+00 -1.4220951795578003e+00</leafValues></_>    <_>      <internalNodes>        0 -1 8251 2.8466353192925453e-02</internalNodes>      <leafValues>        -1.1395837068557739e+00 1.1395837068557739e+00</leafValues></_>    <_>      <internalNodes>        0 -1 90419 8.0817908048629761e-02</internalNodes>      <leafValues>        -1.0977683067321777e+00 1.0977683067321777e+00</leafValues></_>    <_>      <internalNodes>        0 -1 127860 8.0959941260516644e-04</internalNodes>      <leafValues>        -9.9702477455139160e-01 9.9702477455139160e-01</leafValues></_>    <_>      <internalNodes>        0 -1 101400 -1.4991997741162777e-03</internalNodes>      <leafValues>        9.4696217775344849e-01 -9.4696217775344849e-01</leafValues></_>    <_>      <internalNodes>        0 -1 31275 3.5447001457214355e-02</internalNodes>      <leafValues>        -8.2498085498809814e-01 8.2498085498809814e-01</leafValues></_>    <_>      <internalNodes>        0 -1 136912 -2.3862808942794800e-02</internalNodes>      <leafValues>        9.3569618463516235e-01 -9.3569618463516235e-01</leafValues></_>    <_>      <internalNodes>        0 -1 69016 -1.7290223389863968e-02</internalNodes>      <leafValues>        8.5106760263442993e-01 -8.5106760263442993e-01</leafValues></_>    <_>      <internalNodes>        0 -1 87625 1.5357616575784050e-05</internalNodes>      <leafValues>        -9.3718069791793823e-01 9.3718069791793823e-01</leafValues></_></weakClassifiers></stage6></opencv_storage>