<?xml version="1.0"?><opencv_storage><stage5>  <maxWeakCount>8</maxWeakCount>  <stageThreshold>-2.4202568531036377e+00</stageThreshold>  <weakClassifiers>    <_>      <internalNodes>        0 -1 112535 -8.7281595915555954e-04</internalNodes>      <leafValues>        1.4030451774597168e+00 -1.4030451774597168e+00</leafValues></_>    <_>      <internalNodes>        0 -1 38857 2.0395946502685547e-01</internalNodes>      <leafValues>        -1.1792329549789429e+00 1.1792329549789429e+00</leafValues></_>    <_>      <internalNodes>        0 -1 158865 -2.0609213039278984e-02</internalNodes>      <leafValues>        1.1508423089981079e+00 -1.1508423089981079e+00</leafValues></_>    <_>      <internalNodes>        0 -1 117118 -2.3905788839329034e-04</internalNodes>      <leafValues>        1.1129703521728516e+00 -1.1129703521728516e+00</leafValues></_>    <_>      <internalNodes>        0 -1 20393 4.2220398783683777e-02</internalNodes>      <leafValues>        -1.0213968753814697e+00 1.0213968753814697e+00</leafValues></_>    <_>      <internalNodes>        0 -1 146199 1.5032046940177679e-03</internalNodes>      <leafValues>        -1.0086725950241089e+00 1.0086725950241089e+00</leafValues></_>    <_>      <internalNodes>        0 -1 128021 -3.5700690932571888e-03</internalNodes>      <leafValues>        9.3670845031738281e-01 -9.3670845031738281e-01</leafValues></_>    <_>      <internalNodes>        0 -1 79986 -9.8836552351713181e-03</internalNodes>      <leafValues>        8.5661602020263672e-01 -8.5661602020263672e-01</leafValues></_></weakClassifiers></stage5></opencv_storage>