<?xml version="1.0"?><opencv_storage><stage4>  <maxWeakCount>64</maxWeakCount>  <stageThreshold>-8.8915675878524780e-01</stageThreshold>  <weakClassifiers>    <_>      <internalNodes>        0 -1 64834 1.5686437487602234e-01</internalNodes>      <leafValues>        1.7806364595890045e-01 7.0144462585449219e-01</leafValues></_>    <_>      <internalNodes>        0 -1 59421 3.4517303109169006e-02</internalNodes>      <leafValues>        -4.1707944124937057e-02 5.0552171468734741e-01</leafValues></_>    <_>      <internalNodes>        0 -1 97952 7.6938676647841930e-03</internalNodes>      <leafValues>        5.3189966827630997e-02 -5.7690829038619995e-01</leafValues></_>    <_>      <internalNodes>        0 -1 104641 -6.1839979025535285e-05</internalNodes>      <leafValues>        -2.2923266887664795e-01 1.6126842796802521e-01</leafValues></_>    <_>      <internalNodes>        0 -1 97453 1.9196290522813797e-03</internalNodes>      <leafValues>        -1.7672285437583923e-01 2.0244421064853668e-01</leafValues></_>    <_>      <internalNodes>        0 -1 83715 1.9697189331054688e-02</internalNodes>      <leafValues>        7.2638101875782013e-02 -5.1419472694396973e-01</leafValues></_>    <_>      <internalNodes>        0 -1 85747 -8.1732049584388733e-03</internalNodes>      <leafValues>        -6.6547435522079468e-01 5.6623935699462891e-02</leafValues></_>    <_>      <internalNodes>        0 -1 45708 -5.4118342697620392e-02</internalNodes>      <leafValues>        4.7455620765686035e-01 -6.8845532834529877e-02</leafValues></_>    <_>      <internalNodes>        0 -1 69858 5.1866263675037771e-05</internalNodes>      <leafValues>        -2.1492110192775726e-01 1.4255581796169281e-01</leafValues></_>    <_>      <internalNodes>        0 -1 52952 2.0766012370586395e-02</internalNodes>      <leafValues>        -7.5581215322017670e-02 3.9431214332580566e-01</leafValues></_>    <_>      <internalNodes>        0 -1 9551 9.1477512614801526e-04</internalNodes>      <leafValues>        1.1705751717090607e-01 -2.7594056725502014e-01</leafValues></_>    <_>      <internalNodes>        0 -1 54486 2.6863662060350180e-04</internalNodes>      <leafValues>        1.1588835716247559e-01 -2.3004867136478424e-01</leafValues></_>    <_>      <internalNodes>        0 -1 95357 -1.1838462203741074e-02</internalNodes>      <leafValues>        2.6508367061614990e-01 -1.0544809699058533e-01</leafValues></_>    <_>      <internalNodes>        0 -1 44499 -4.4547305151354522e-05</internalNodes>      <leafValues>        -1.7537556588649750e-01 1.4276939630508423e-01</leafValues></_>    <_>      <internalNodes>        0 -1 58907 -4.3367482721805573e-03</internalNodes>      <leafValues>        2.0924018323421478e-01 -1.2308836728334427e-01</leafValues></_>    <_>      <internalNodes>        0 -1 22020 2.9521534452214837e-04</internalNodes>      <leafValues>        1.1782084405422211e-01 -2.1952627599239349e-01</leafValues></_>    <_>      <internalNodes>        0 -1 39007 2.7053266763687134e-02</internalNodes>      <leafValues>        -1.2013154476881027e-01 2.1933172643184662e-01</leafValues></_>    <_>      <internalNodes>        0 -1 59265 -6.7570254206657410e-02</internalNodes>      <leafValues>        -7.0903652906417847e-01 3.8442488759756088e-02</leafValues></_>    <_>      <internalNodes>        0 -1 75275 -4.9837930127978325e-03</internalNodes>      <leafValues>        1.8745031952857971e-01 -1.4720243215560913e-01</leafValues></_>    <_>      <internalNodes>        0 -1 77625 4.3207930866628885e-04</internalNodes>      <leafValues>        1.7389202117919922e-01 -1.9511067867279053e-01</leafValues></_>    <_>      <internalNodes>        0 -1 77923 -3.5706236958503723e-03</internalNodes>      <leafValues>        -3.2021853327751160e-01 9.2371918261051178e-02</leafValues></_>    <_>      <internalNodes>        0 -1 124459 -5.5333850905299187e-03</internalNodes>      <leafValues>        3.7447363138198853e-01 -6.6585220396518707e-02</leafValues></_>    <_>      <internalNodes>        0 -1 85399 -3.3366122806910425e-05</internalNodes>      <leafValues>        -1.9090679287910461e-01 1.2451148033142090e-01</leafValues></_>    <_>      <internalNodes>        0 -1 124882 2.8468098025768995e-04</internalNodes>      <leafValues>        1.0777556896209717e-01 -2.1368743479251862e-01</leafValues></_>    <_>      <internalNodes>        0 -1 124760 1.1264419183135033e-02</internalNodes>      <leafValues>        -5.7787597179412842e-02 4.2546987533569336e-01</leafValues></_>    <_>      <internalNodes>        0 -1 37863 3.5219627898186445e-04</internalNodes>      <leafValues>        1.1622674763202667e-01 -2.0688289403915405e-01</leafValues></_>    <_>      <internalNodes>        0 -1 91873 -5.6558102369308472e-04</internalNodes>      <leafValues>        1.5848982334136963e-01 -1.5405096113681793e-01</leafValues></_>    <_>      <internalNodes>        0 -1 91021 -5.6944577954709530e-04</internalNodes>      <leafValues>        1.7371363937854767e-01 -1.7570596933364868e-01</leafValues></_>    <_>      <internalNodes>        0 -1 91122 -5.6845173239707947e-03</internalNodes>      <leafValues>        -4.4483086466789246e-01 5.8908697217702866e-02</leafValues></_>    <_>      <internalNodes>        0 -1 108118 -1.3509528711438179e-02</internalNodes>      <leafValues>        2.7641403675079346e-01 -9.4087824225425720e-02</leafValues></_>    <_>      <internalNodes>        0 -1 114260 2.4201525375247002e-03</internalNodes>      <leafValues>        -1.3600268959999084e-01 1.8751627206802368e-01</leafValues></_>    <_>      <internalNodes>        0 -1 47911 5.5625706911087036e-02</internalNodes>      <leafValues>        -1.0486864298582077e-01 2.1056573092937469e-01</leafValues></_>    <_>      <internalNodes>        0 -1 64915 -1.4835551381111145e-01</internalNodes>      <leafValues>        3.3909252285957336e-01 -8.5186429321765900e-02</leafValues></_>    <_>      <internalNodes>        0 -1 114015 -2.9011494480073452e-03</internalNodes>      <leafValues>        2.1963144838809967e-01 -1.1208986490964890e-01</leafValues></_>    <_>      <internalNodes>        0 -1 113101 5.2480377256870270e-02</internalNodes>      <leafValues>        -9.2948533594608307e-02 2.6487329602241516e-01</leafValues></_>    <_>      <internalNodes>        0 -1 123531 -2.6710773818194866e-03</internalNodes>      <leafValues>        -2.2286824882030487e-01 1.0252253711223602e-01</leafValues></_>    <_>      <internalNodes>        0 -1 123544 6.7778798984363675e-04</internalNodes>      <leafValues>        1.0637769848108292e-01 -2.4563303589820862e-01</leafValues></_>    <_>      <internalNodes>        0 -1 52580 -1.3034814968705177e-02</internalNodes>      <leafValues>        3.6165538430213928e-01 -6.6766709089279175e-02</leafValues></_>    <_>      <internalNodes>        0 -1 77917 1.0398589074611664e-02</internalNodes>      <leafValues>        -5.3557999432086945e-02 4.3615046143531799e-01</leafValues></_>    <_>      <internalNodes>        0 -1 97856 2.3614214733242989e-03</internalNodes>      <leafValues>        8.3251528441905975e-02 -2.9659986495971680e-01</leafValues></_>    <_>      <internalNodes>        0 -1 84625 1.0712116491049528e-03</internalNodes>      <leafValues>        -1.4971281588077545e-01 1.8002000451087952e-01</leafValues></_>    <_>      <internalNodes>        0 -1 85054 -8.6646550334990025e-04</internalNodes>      <leafValues>        1.7853708565235138e-01 -1.4550130069255829e-01</leafValues></_>    <_>      <internalNodes>        0 -1 70018 -2.0597826689481735e-02</internalNodes>      <leafValues>        -8.0717211961746216e-01 3.5651721060276031e-02</leafValues></_>    <_>      <internalNodes>        0 -1 67557 4.6439383178949356e-02</internalNodes>      <leafValues>        4.3357908725738525e-02 -4.6018645167350769e-01</leafValues></_>    <_>      <internalNodes>        0 -1 110471 -2.6967594400048256e-02</internalNodes>      <leafValues>        4.9874359369277954e-01 -4.7179073095321655e-02</leafValues></_>    <_>      <internalNodes>        0 -1 102904 1.7497006803750992e-02</internalNodes>      <leafValues>        -1.1611300706863403e-01 1.8843376636505127e-01</leafValues></_>    <_>      <internalNodes>        0 -1 111445 1.3423627242445946e-02</internalNodes>      <leafValues>        -8.9469887316226959e-02 2.8130701184272766e-01</leafValues></_>    <_>      <internalNodes>        0 -1 19363 -1.2881397269666195e-03</internalNodes>      <leafValues>        -2.5150299072265625e-01 9.2391245067119598e-02</leafValues></_>    <_>      <internalNodes>        0 -1 91022 7.2613783413544297e-04</internalNodes>      <leafValues>        -1.2702456116676331e-01 1.7904865741729736e-01</leafValues></_>    <_>      <internalNodes>        0 -1 103742 4.0817977860569954e-03</internalNodes>      <leafValues>        5.5665075778961182e-02 -4.1431936621665955e-01</leafValues></_>    <_>      <internalNodes>        0 -1 76846 1.1381020303815603e-03</internalNodes>      <leafValues>        -1.0201476514339447e-01 2.0834784209728241e-01</leafValues></_>    <_>      <internalNodes>        0 -1 71479 2.5000027380883694e-04</internalNodes>      <leafValues>        1.0733673721551895e-01 -1.9502717256546021e-01</leafValues></_>    <_>      <internalNodes>        0 -1 71479 -9.0994697529822588e-04</internalNodes>      <leafValues>        -2.9587623476982117e-01 8.9933022856712341e-02</leafValues></_>    <_>      <internalNodes>        0 -1 77742 -2.5737747550010681e-02</internalNodes>      <leafValues>        4.3998771905899048e-01 -5.9944275766611099e-02</leafValues></_>    <_>      <internalNodes>        0 -1 53845 1.4783920487388968e-03</internalNodes>      <leafValues>        -1.1617166548967361e-01 2.0822927355766296e-01</leafValues></_>    <_>      <internalNodes>        0 -1 10060 -3.3286926336586475e-03</internalNodes>      <leafValues>        -2.5340875983238220e-01 8.7907396256923676e-02</leafValues></_>    <_>      <internalNodes>        0 -1 84638 -5.6286423932760954e-04</internalNodes>      <leafValues>        1.4665904641151428e-01 -1.4899668097496033e-01</leafValues></_>    <_>      <internalNodes>        0 -1 84713 3.5395533777773380e-03</internalNodes>      <leafValues>        4.8629894852638245e-02 -4.5810434222221375e-01</leafValues></_>    <_>      <internalNodes>        0 -1 103404 3.2308191293850541e-04</internalNodes>      <leafValues>        -1.7336900532245636e-01 1.3651746511459351e-01</leafValues></_>    <_>      <internalNodes>        0 -1 109136 1.7150897532701492e-02</internalNodes>      <leafValues>        -7.9289957880973816e-02 3.0716091394424438e-01</leafValues></_>    <_>      <internalNodes>        0 -1 94315 2.2233545314520597e-04</internalNodes>      <leafValues>        1.1360293626785278e-01 -1.9070734083652496e-01</leafValues></_>    <_>      <internalNodes>        0 -1 78377 7.7442161273211241e-04</internalNodes>      <leafValues>        -1.6502253711223602e-01 1.3532897830009460e-01</leafValues></_>    <_>      <internalNodes>        0 -1 95780 1.0429535806179047e-01</internalNodes>      <leafValues>        5.0947327166795731e-02 -4.2440262436866760e-01</leafValues></_>    <_>      <internalNodes>        0 -1 68239 1.2760117650032043e-02</internalNodes>      <leafValues>        -1.1627156287431717e-01 2.3136059939861298e-01</leafValues></_></weakClassifiers></stage4></opencv_storage>