<?xml version="1.0"?><opencv_storage><stage2>  <maxWeakCount>41</maxWeakCount>  <stageThreshold>-7.8041273355484009e-01</stageThreshold>  <weakClassifiers>    <_>      <internalNodes>        0 -1 95415 -1.9241861999034882e-02</internalNodes>      <leafValues>        7.5609755516052246e-01 1.8202392756938934e-01</leafValues></_>    <_>      <internalNodes>        0 -1 69961 -2.8846641071140766e-03</internalNodes>      <leafValues>        2.7958831191062927e-01 -2.2417481243610382e-01</leafValues></_>    <_>      <internalNodes>        0 -1 23158 -2.4048911407589912e-02</internalNodes>      <leafValues>        3.5805469751358032e-01 -1.3938251137733459e-01</leafValues></_>    <_>      <internalNodes>        0 -1 69859 -4.1892478475347161e-04</internalNodes>      <leafValues>        2.2530376911163330e-01 -2.3834720253944397e-01</leafValues></_>    <_>      <internalNodes>        0 -1 103746 3.5745492205023766e-03</internalNodes>      <leafValues>        5.0718918442726135e-02 -6.2684363126754761e-01</leafValues></_>    <_>      <internalNodes>        0 -1 90061 -6.6190906800329685e-03</internalNodes>      <leafValues>        -3.6214649677276611e-01 8.9465357363224030e-02</leafValues></_>    <_>      <internalNodes>        0 -1 75322 4.1109673678874969e-02</internalNodes>      <leafValues>        6.4990520477294922e-02 -5.9751987457275391e-01</leafValues></_>    <_>      <internalNodes>        0 -1 52419 1.4494247734546661e-02</internalNodes>      <leafValues>        -1.3052184879779816e-01 3.3490166068077087e-01</leafValues></_>    <_>      <internalNodes>        0 -1 66325 4.5603804290294647e-02</internalNodes>      <leafValues>        -1.0901145637035370e-01 3.2787474989891052e-01</leafValues></_>    <_>      <internalNodes>        0 -1 90550 -7.8130664769560099e-04</internalNodes>      <leafValues>        1.7752242088317871e-01 -2.1414101123809814e-01</leafValues></_>    <_>      <internalNodes>        0 -1 85407 -3.0584272462874651e-04</internalNodes>      <leafValues>        1.5686558187007904e-01 -2.2036488354206085e-01</leafValues></_>    <_>      <internalNodes>        0 -1 77492 -6.2053166329860687e-03</internalNodes>      <leafValues>        -3.3062630891799927e-01 1.3150683045387268e-01</leafValues></_>    <_>      <internalNodes>        0 -1 92214 -6.4382189884781837e-04</internalNodes>      <leafValues>        2.2912368178367615e-01 -1.5800945460796356e-01</leafValues></_>    <_>      <internalNodes>        0 -1 83471 -3.8833271712064743e-02</internalNodes>      <leafValues>        6.1799240112304688e-01 -5.8408141136169434e-02</leafValues></_>    <_>      <internalNodes>        0 -1 96169 1.4248833060264587e-02</internalNodes>      <leafValues>        -9.2050775885581970e-02 3.6527130007743835e-01</leafValues></_>    <_>      <internalNodes>        0 -1 77858 -2.2858681040816009e-04</internalNodes>      <leafValues>        1.4101570844650269e-01 -2.5965115427970886e-01</leafValues></_>    <_>      <internalNodes>        0 -1 103742 4.6525695361196995e-03</internalNodes>      <leafValues>        7.1143619716167450e-02 -5.6980443000793457e-01</leafValues></_>    <_>      <internalNodes>        0 -1 91472 3.9905047742649913e-04</internalNodes>      <leafValues>        -2.2332143783569336e-01 1.8959784507751465e-01</leafValues></_>    <_>      <internalNodes>        0 -1 9856 8.4157870151102543e-04</internalNodes>      <leafValues>        8.4688767790794373e-02 -3.5222059488296509e-01</leafValues></_>    <_>      <internalNodes>        0 -1 77828 1.1671488173305988e-03</internalNodes>      <leafValues>        -1.0737225413322449e-01 2.9748001694679260e-01</leafValues></_>    <_>      <internalNodes>        0 -1 77364 -4.9802375724539161e-04</internalNodes>      <leafValues>        1.6806110739707947e-01 -2.0229105651378632e-01</leafValues></_>    <_>      <internalNodes>        0 -1 91873 -6.4238079357892275e-04</internalNodes>      <leafValues>        2.0040485262870789e-01 -1.8609298765659332e-01</leafValues></_>    <_>      <internalNodes>        0 -1 83715 -3.6246217787265778e-02</internalNodes>      <leafValues>        -4.3275830149650574e-01 8.2691684365272522e-02</leafValues></_>    <_>      <internalNodes>        0 -1 98695 2.2728864103555679e-02</internalNodes>      <leafValues>        -1.0660583525896072e-01 3.4493616223335266e-01</leafValues></_>    <_>      <internalNodes>        0 -1 75217 1.3366935774683952e-02</internalNodes>      <leafValues>        -1.5718464553356171e-01 2.3011226952075958e-01</leafValues></_>    <_>      <internalNodes>        0 -1 48959 -3.4789048135280609e-02</internalNodes>      <leafValues>        4.3052008748054504e-01 -7.5411088764667511e-02</leafValues></_>    <_>      <internalNodes>        0 -1 100987 2.8614031150937080e-02</internalNodes>      <leafValues>        -6.5346844494342804e-02 4.3124729394912720e-01</leafValues></_>    <_>      <internalNodes>        0 -1 102313 4.5187339186668396e-02</internalNodes>      <leafValues>        5.4225798696279526e-02 -6.3690334558486938e-01</leafValues></_>    <_>      <internalNodes>        0 -1 76865 1.8746897578239441e-02</internalNodes>      <leafValues>        5.1901716738939285e-02 -5.5073243379592896e-01</leafValues></_>    <_>      <internalNodes>        0 -1 35998 -2.3363433778285980e-02</internalNodes>      <leafValues>        2.6033788919448853e-01 -1.1358810216188431e-01</leafValues></_>    <_>      <internalNodes>        0 -1 28810 -3.1411979580298066e-04</internalNodes>      <leafValues>        -2.4182568490505219e-01 1.2703430652618408e-01</leafValues></_>    <_>      <internalNodes>        0 -1 82634 -4.9317707307636738e-03</internalNodes>      <leafValues>        2.3234023153781891e-01 -1.3961865007877350e-01</leafValues></_>    <_>      <internalNodes>        0 -1 121144 9.9095497280359268e-03</internalNodes>      <leafValues>        -9.7945258021354675e-02 3.1889122724533081e-01</leafValues></_>    <_>      <internalNodes>        0 -1 91457 1.1603513266891241e-03</internalNodes>      <leafValues>        8.7252296507358551e-02 -3.9817214012145996e-01</leafValues></_>    <_>      <internalNodes>        0 -1 102764 6.6323955543339252e-03</internalNodes>      <leafValues>        -1.2895436584949493e-01 2.4693197011947632e-01</leafValues></_>    <_>      <internalNodes>        0 -1 120433 -1.0257057845592499e-02</internalNodes>      <leafValues>        3.5301172733306885e-01 -1.0812392085790634e-01</leafValues></_>    <_>      <internalNodes>        0 -1 25687 2.5968559086322784e-02</internalNodes>      <leafValues>        -6.3898660242557526e-02 4.2150956392288208e-01</leafValues></_>    <_>      <internalNodes>        0 -1 75936 -3.0150907114148140e-02</internalNodes>      <leafValues>        -4.9643811583518982e-01 6.0743544250726700e-02</leafValues></_>    <_>      <internalNodes>        0 -1 69392 4.1384901851415634e-03</internalNodes>      <leafValues>        -6.8440310657024384e-02 4.5393317937850952e-01</leafValues></_>    <_>      <internalNodes>        0 -1 121538 2.2197701036930084e-03</internalNodes>      <leafValues>        9.6777625381946564e-02 -3.0009812116622925e-01</leafValues></_>    <_>      <internalNodes>        0 -1 114918 1.4682083856314421e-03</internalNodes>      <leafValues>        9.1157384216785431e-02 -3.3361995220184326e-01</leafValues></_></weakClassifiers></stage2></opencv_storage>