<?xml version="1.0"?><opencv_storage><stage5>  <maxWeakCount>62</maxWeakCount>  <stageThreshold>-7.0853108167648315e-01</stageThreshold>  <weakClassifiers>    <_>      <internalNodes>        0 -1 104208 3.0109990388154984e-02</internalNodes>      <leafValues>        1.7317612469196320e-01 6.2584120035171509e-01</leafValues></_>    <_>      <internalNodes>        0 -1 21801 4.2388245463371277e-02</internalNodes>      <leafValues>        -4.1752226650714874e-02 4.9000832438468933e-01</leafValues></_>    <_>      <internalNodes>        0 -1 78989 2.7796888025477529e-04</internalNodes>      <leafValues>        1.1361441016197205e-01 -2.2720813751220703e-01</leafValues></_>    <_>      <internalNodes>        0 -1 92236 -7.8546609729528427e-03</internalNodes>      <leafValues>        -4.7438344359397888e-01 5.6441538035869598e-02</leafValues></_>    <_>      <internalNodes>        0 -1 91466 2.1968563087284565e-03</internalNodes>      <leafValues>        -1.0284878313541412e-01 2.6101845502853394e-01</leafValues></_>    <_>      <internalNodes>        0 -1 70348 7.0204399526119232e-04</internalNodes>      <leafValues>        1.2631274759769440e-01 -2.8614136576652527e-01</leafValues></_>    <_>      <internalNodes>        0 -1 78229 6.1096809804439545e-04</internalNodes>      <leafValues>        -1.7473024129867554e-01 2.1212270855903625e-01</leafValues></_>    <_>      <internalNodes>        0 -1 91021 -1.2066483031958342e-03</internalNodes>      <leafValues>        2.4736717343330383e-01 -1.4588612318038940e-01</leafValues></_>    <_>      <internalNodes>        0 -1 2360 7.5936186313629150e-01</internalNodes>      <leafValues>        -5.1959909498691559e-02 5.5492460727691650e-01</leafValues></_>    <_>      <internalNodes>        0 -1 43613 -5.6005172431468964e-02</internalNodes>      <leafValues>        4.0531349182128906e-01 -7.8227534890174866e-02</leafValues></_>    <_>      <internalNodes>        0 -1 85041 -1.5431407373398542e-03</internalNodes>      <leafValues>        3.7428456544876099e-01 -7.1963250637054443e-02</leafValues></_>    <_>      <internalNodes>        0 -1 97952 6.7965947091579437e-03</internalNodes>      <leafValues>        6.6523641347885132e-02 -4.6692878007888794e-01</leafValues></_>    <_>      <internalNodes>        0 -1 36536 6.9102609995752573e-04</internalNodes>      <leafValues>        9.2486329376697540e-02 -2.9224735498428345e-01</leafValues></_>    <_>      <internalNodes>        0 -1 68520 -3.7352487444877625e-02</internalNodes>      <leafValues>        -7.6047855615615845e-01 3.5003092139959335e-02</leafValues></_>    <_>      <internalNodes>        0 -1 68451 6.8114906549453735e-02</internalNodes>      <leafValues>        2.3788515478372574e-02 -7.6515901088714600e-01</leafValues></_>    <_>      <internalNodes>        0 -1 77855 -1.2792089255526662e-03</internalNodes>      <leafValues>        1.4583221077919006e-01 -1.7361445724964142e-01</leafValues></_>    <_>      <internalNodes>        0 -1 34337 -8.4171351045370102e-03</internalNodes>      <leafValues>        2.2834824025630951e-01 -1.2357357144355774e-01</leafValues></_>    <_>      <internalNodes>        0 -1 68062 6.7297041416168213e-02</internalNodes>      <leafValues>        2.9316529631614685e-02 -9.2094647884368896e-01</leafValues></_>    <_>      <internalNodes>        0 -1 92215 6.3238388975150883e-05</internalNodes>      <leafValues>        -1.7803619801998138e-01 1.2505598366260529e-01</leafValues></_>    <_>      <internalNodes>        0 -1 84190 -6.1715310439467430e-03</internalNodes>      <leafValues>        -1.9103896617889404e-01 1.5264591574668884e-01</leafValues></_>    <_>      <internalNodes>        0 -1 103744 -5.4243905469775200e-04</internalNodes>      <leafValues>        1.3291771709918976e-01 -2.2969736158847809e-01</leafValues></_>    <_>      <internalNodes>        0 -1 92527 -8.7619526311755180e-04</internalNodes>      <leafValues>        -3.4208872914314270e-01 6.8197771906852722e-02</leafValues></_>    <_>      <internalNodes>        0 -1 69406 -1.2980537489056587e-02</internalNodes>      <leafValues>        5.0761455297470093e-01 -4.7424141317605972e-02</leafValues></_>    <_>      <internalNodes>        0 -1 67149 -8.2291867583990097e-03</internalNodes>      <leafValues>        2.3548273742198944e-01 -9.5747023820877075e-02</leafValues></_>    <_>      <internalNodes>        0 -1 102526 2.6582523714751005e-03</internalNodes>      <leafValues>        -5.8562804013490677e-02 3.4647843241691589e-01</leafValues></_>    <_>      <internalNodes>        0 -1 96142 -4.3571996502578259e-03</internalNodes>      <leafValues>        2.6702204346656799e-01 -1.0163752734661102e-01</leafValues></_>    <_>      <internalNodes>        0 -1 71302 -1.3874222058802843e-03</internalNodes>      <leafValues>        1.7766715586185455e-01 -1.2854667007923126e-01</leafValues></_>    <_>      <internalNodes>        0 -1 9593 -2.9830518178641796e-03</internalNodes>      <leafValues>        -2.2101676464080811e-01 1.0723441094160080e-01</leafValues></_>    <_>      <internalNodes>        0 -1 80019 -4.5885518193244934e-04</internalNodes>      <leafValues>        -2.1595482528209686e-01 9.8797366023063660e-02</leafValues></_>    <_>      <internalNodes>        0 -1 67486 1.8251327797770500e-02</internalNodes>      <leafValues>        -9.5685534179210663e-02 2.3542307317256927e-01</leafValues></_>    <_>      <internalNodes>        0 -1 105784 1.4921890571713448e-02</internalNodes>      <leafValues>        -1.0028755664825439e-01 2.5120279192924500e-01</leafValues></_>    <_>      <internalNodes>        0 -1 59563 4.4163037091493607e-03</internalNodes>      <leafValues>        8.4842056035995483e-02 -2.7970623970031738e-01</leafValues></_>    <_>      <internalNodes>        0 -1 98995 1.0364864021539688e-02</internalNodes>      <leafValues>        -7.6512843370437622e-02 2.7216437458992004e-01</leafValues></_>    <_>      <internalNodes>        0 -1 85800 -1.7252573743462563e-03</internalNodes>      <leafValues>        -2.1238701045513153e-01 9.6896164119243622e-02</leafValues></_>    <_>      <internalNodes>        0 -1 15980 6.0396175831556320e-03</internalNodes>      <leafValues>        -6.3938274979591370e-02 3.1981638073921204e-01</leafValues></_>    <_>      <internalNodes>        0 -1 28904 1.2035181280225515e-03</internalNodes>      <leafValues>        1.0236501693725586e-01 -2.1291017532348633e-01</leafValues></_>    <_>      <internalNodes>        0 -1 77350 -5.5197058827616274e-05</internalNodes>      <leafValues>        1.0508157312870026e-01 -2.0535644888877869e-01</leafValues></_>    <_>      <internalNodes>        0 -1 68490 1.2990444898605347e-02</internalNodes>      <leafValues>        -7.2210825979709625e-02 3.2591667771339417e-01</leafValues></_>    <_>      <internalNodes>        0 -1 84719 3.2708823680877686e-02</internalNodes>      <leafValues>        4.1104294359683990e-02 -5.4009413719177246e-01</leafValues></_>    <_>      <internalNodes>        0 -1 99072 1.6478691250085831e-03</internalNodes>      <leafValues>        -8.5105098783969879e-02 2.7553883194923401e-01</leafValues></_>    <_>      <internalNodes>        0 -1 124794 -9.2277670046314597e-04</internalNodes>      <leafValues>        -2.2169286012649536e-01 9.3649968504905701e-02</leafValues></_>    <_>      <internalNodes>        0 -1 121149 1.9571026787161827e-03</internalNodes>      <leafValues>        -1.2341682612895966e-01 1.6331973671913147e-01</leafValues></_>    <_>      <internalNodes>        0 -1 113133 -1.6995575278997421e-03</internalNodes>      <leafValues>        2.6081973314285278e-01 -7.6172202825546265e-02</leafValues></_>    <_>      <internalNodes>        0 -1 91462 -4.1078601498156786e-04</internalNodes>      <leafValues>        1.5542508661746979e-01 -1.2662215530872345e-01</leafValues></_>    <_>      <internalNodes>        0 -1 84713 2.0939530804753304e-03</internalNodes>      <leafValues>        6.4633153378963470e-02 -3.7823441624641418e-01</leafValues></_>    <_>      <internalNodes>        0 -1 75732 -3.8128134328871965e-03</internalNodes>      <leafValues>        2.0007207989692688e-01 -1.1136924475431442e-01</leafValues></_>    <_>      <internalNodes>        0 -1 48165 -1.5034278854727745e-02</internalNodes>      <leafValues>        2.5834077596664429e-01 -1.0248016566038132e-01</leafValues></_>    <_>      <internalNodes>        0 -1 103404 -3.9202289190143347e-04</internalNodes>      <leafValues>        -1.6923421621322632e-01 1.2588879466056824e-01</leafValues></_>    <_>      <internalNodes>        0 -1 124816 -2.9273969121277332e-03</internalNodes>      <leafValues>        -2.5617885589599609e-01 8.2663446664810181e-02</leafValues></_>    <_>      <internalNodes>        0 -1 68570 2.6289148256182671e-02</internalNodes>      <leafValues>        4.2116481810808182e-02 -4.8113936185836792e-01</leafValues></_>    <_>      <internalNodes>        0 -1 98212 -5.4364063544198871e-04</internalNodes>      <leafValues>        1.6393032670021057e-01 -1.3021583855152130e-01</leafValues></_>    <_>      <internalNodes>        0 -1 77985 7.0849508047103882e-03</internalNodes>      <leafValues>        4.2232636362314224e-02 -5.1508367061614990e-01</leafValues></_>    <_>      <internalNodes>        0 -1 85654 -1.8091564998030663e-02</internalNodes>      <leafValues>        3.5428473353385925e-01 -7.2895839810371399e-02</leafValues></_>    <_>      <internalNodes>        0 -1 85724 1.4629911631345749e-02</internalNodes>      <leafValues>        5.9624940156936646e-02 -3.9527586102485657e-01</leafValues></_>    <_>      <internalNodes>        0 -1 119622 1.6075093299150467e-02</internalNodes>      <leafValues>        -6.7826464772224426e-02 3.5996985435485840e-01</leafValues></_>    <_>      <internalNodes>        0 -1 113359 5.2756275981664658e-03</internalNodes>      <leafValues>        -7.5638458132743835e-02 3.2189527153968811e-01</leafValues></_>    <_>      <internalNodes>        0 -1 99848 -2.0754896104335785e-03</internalNodes>      <leafValues>        -3.7697163224220276e-01 5.9960626065731049e-02</leafValues></_>    <_>      <internalNodes>        0 -1 113019 -4.4295676052570343e-03</internalNodes>      <leafValues>        2.0740230381488800e-01 -1.0711910575628281e-01</leafValues></_>    <_>      <internalNodes>        0 -1 112503 -9.4433743506669998e-03</internalNodes>      <leafValues>        -3.3968502283096313e-01 6.2327358871698380e-02</leafValues></_>    <_>      <internalNodes>        0 -1 89580 -5.1411637105047703e-03</internalNodes>      <leafValues>        3.8410803675651550e-01 -5.6126393377780914e-02</leafValues></_>    <_>      <internalNodes>        0 -1 44091 6.4368918538093567e-03</internalNodes>      <leafValues>        -1.0697440057992935e-01 2.0609050989151001e-01</leafValues></_>    <_>      <internalNodes>        0 -1 125172 -6.2592420727014542e-04</internalNodes>      <leafValues>        -2.1692265570163727e-01 8.7598077952861786e-02</leafValues></_></weakClassifiers></stage5></opencv_storage>