<?xml version="1.0"?><opencv_storage><stage7>  <maxWeakCount>69</maxWeakCount>  <stageThreshold>-7.1125108003616333e-01</stageThreshold>  <weakClassifiers>    <_>      <internalNodes>        0 -1 102458 7.8778907656669617e-02</internalNodes>      <leafValues>        2.1632653474807739e-01 6.0634922981262207e-01</leafValues></_>    <_>      <internalNodes>        0 -1 83268 3.1803240999579430e-03</internalNodes>      <leafValues>        -7.9507619142532349e-02 3.1129038333892822e-01</leafValues></_>    <_>      <internalNodes>        0 -1 90559 -2.6567047461867332e-03</internalNodes>      <leafValues>        1.4559195935726166e-01 -2.0435683429241180e-01</leafValues></_>    <_>      <internalNodes>        0 -1 78243 1.1962170538026839e-04</internalNodes>      <leafValues>        -1.5622924268245697e-01 1.5869319438934326e-01</leafValues></_>    <_>      <internalNodes>        0 -1 70346 -7.4850584496743977e-05</internalNodes>      <leafValues>        1.0053847730159760e-01 -3.0777236819267273e-01</leafValues></_>    <_>      <internalNodes>        0 -1 85540 3.1225322745740414e-03</internalNodes>      <leafValues>        -1.1325845122337341e-01 2.5960183143615723e-01</leafValues></_>    <_>      <internalNodes>        0 -1 84190 -1.6553814057260752e-03</internalNodes>      <leafValues>        -1.7555636167526245e-01 2.1961587667465210e-01</leafValues></_>    <_>      <internalNodes>        0 -1 77828 1.9565357360988855e-03</internalNodes>      <leafValues>        -6.9473691284656525e-02 3.5267770290374756e-01</leafValues></_>    <_>      <internalNodes>        0 -1 85731 -1.0722808074206114e-03</internalNodes>      <leafValues>        -3.1779566407203674e-01 8.1704549491405487e-02</leafValues></_>    <_>      <internalNodes>        0 -1 114150 -2.9364880174398422e-04</internalNodes>      <leafValues>        1.5471135079860687e-01 -1.5581621229648590e-01</leafValues></_>    <_>      <internalNodes>        0 -1 98537 -2.2717833053320646e-04</internalNodes>      <leafValues>        1.3961850106716156e-01 -1.9245399534702301e-01</leafValues></_>    <_>      <internalNodes>        0 -1 19274 -5.0558091606944799e-04</internalNodes>      <leafValues>        -2.9487583041191101e-01 8.7163634598255157e-02</leafValues></_>    <_>      <internalNodes>        0 -1 91021 -4.9835362005978823e-04</internalNodes>      <leafValues>        1.5576256811618805e-01 -1.6016525030136108e-01</leafValues></_>    <_>      <internalNodes>        0 -1 91485 1.8811319023370743e-04</internalNodes>      <leafValues>        1.8223141133785248e-01 -1.8903215229511261e-01</leafValues></_>    <_>      <internalNodes>        0 -1 32687 2.3232538253068924e-02</internalNodes>      <leafValues>        -4.4829711318016052e-02 4.7227820754051208e-01</leafValues></_>    <_>      <internalNodes>        0 -1 122833 -2.5142926722764969e-02</internalNodes>      <leafValues>        3.7579402327537537e-01 -6.7417256534099579e-02</leafValues></_>    <_>      <internalNodes>        0 -1 84275 5.5222427472472191e-03</internalNodes>      <leafValues>        7.6361909508705139e-02 -3.2985800504684448e-01</leafValues></_>    <_>      <internalNodes>        0 -1 77441 2.8745911549776793e-03</internalNodes>      <leafValues>        6.2891155481338501e-02 -3.5686621069908142e-01</leafValues></_>    <_>      <internalNodes>        0 -1 85399 7.9828343586996198e-05</internalNodes>      <leafValues>        -1.8551054596900940e-01 1.2300859391689301e-01</leafValues></_>    <_>      <internalNodes>        0 -1 43474 -6.0879420489072800e-03</internalNodes>      <leafValues>        2.1702964603900909e-01 -1.1971530318260193e-01</leafValues></_>    <_>      <internalNodes>        0 -1 68887 -5.8168068062514067e-04</internalNodes>      <leafValues>        1.7441292107105255e-01 -1.4690259099006653e-01</leafValues></_>    <_>      <internalNodes>        0 -1 116189 6.3001319766044617e-02</internalNodes>      <leafValues>        -6.7293159663677216e-02 3.4624195098876953e-01</leafValues></_>    <_>      <internalNodes>        0 -1 79200 -3.3677328610792756e-04</internalNodes>      <leafValues>        -1.9288547337055206e-01 1.1983110755681992e-01</leafValues></_>    <_>      <internalNodes>        0 -1 123085 -3.2048214226961136e-02</internalNodes>      <leafValues>        4.5532861351966858e-01 -5.3293809294700623e-02</leafValues></_>    <_>      <internalNodes>        0 -1 73011 8.6138467304408550e-04</internalNodes>      <leafValues>        1.0237380117177963e-01 -2.4138313531875610e-01</leafValues></_>    <_>      <internalNodes>        0 -1 68974 -1.2801286764442921e-02</internalNodes>      <leafValues>        -3.4797924757003784e-01 5.9147417545318604e-02</leafValues></_>    <_>      <internalNodes>        0 -1 98952 -9.9248234182596207e-03</internalNodes>      <leafValues>        4.2988091707229614e-01 -4.7962740063667297e-02</leafValues></_>    <_>      <internalNodes>        0 -1 86069 1.5157940797507763e-03</internalNodes>      <leafValues>        -1.3221637904644012e-01 1.9716905057430267e-01</leafValues></_>    <_>      <internalNodes>        0 -1 97458 -3.4660773817449808e-03</internalNodes>      <leafValues>        2.1463122963905334e-01 -9.6681669354438782e-02</leafValues></_>    <_>      <internalNodes>        0 -1 85787 -1.1896594660356641e-03</internalNodes>      <leafValues>        -3.1542289257049561e-01 7.6999336481094360e-02</leafValues></_>    <_>      <internalNodes>        0 -1 91793 3.3016540110111237e-03</internalNodes>      <leafValues>        -1.5815731883049011e-01 1.7126302421092987e-01</leafValues></_>    <_>      <internalNodes>        0 -1 53415 -1.2683935463428497e-02</internalNodes>      <leafValues>        4.6049988269805908e-01 -4.4757444411516190e-02</leafValues></_>    <_>      <internalNodes>        0 -1 91214 -1.1574077419936657e-02</internalNodes>      <leafValues>        -6.2633526325225830e-01 3.7327647209167480e-02</leafValues></_>    <_>      <internalNodes>        0 -1 121549 -2.9513000044971704e-03</internalNodes>      <leafValues>        -2.5767624378204346e-01 7.6182708144187927e-02</leafValues></_>    <_>      <internalNodes>        0 -1 91962 -3.3450120827183127e-04</internalNodes>      <leafValues>        1.0465329140424728e-01 -2.2174876928329468e-01</leafValues></_>    <_>      <internalNodes>        0 -1 41192 7.2341766208410263e-03</internalNodes>      <leafValues>        -9.3096829950809479e-02 2.0655602216720581e-01</leafValues></_>    <_>      <internalNodes>        0 -1 92600 -7.1147978305816650e-03</internalNodes>      <leafValues>        -6.1986911296844482e-01 3.2994166016578674e-02</leafValues></_>    <_>      <internalNodes>        0 -1 108824 4.1874370072036982e-04</internalNodes>      <leafValues>        1.0072603076696396e-01 -1.8606269359588623e-01</leafValues></_>    <_>      <internalNodes>        0 -1 82730 -6.7398757673799992e-03</internalNodes>      <leafValues>        2.6841634511947632e-01 -7.7619910240173340e-02</leafValues></_>    <_>      <internalNodes>        0 -1 98826 1.4536450908053666e-04</internalNodes>      <leafValues>        -1.5490199625492096e-01 1.2929272651672363e-01</leafValues></_>    <_>      <internalNodes>        0 -1 27457 5.0163853913545609e-02</internalNodes>      <leafValues>        -3.0583493411540985e-02 6.6698229312896729e-01</leafValues></_>    <_>      <internalNodes>        0 -1 78925 -1.8201244529336691e-04</internalNodes>      <leafValues>        1.4303028583526611e-01 -1.2763504683971405e-01</leafValues></_>    <_>      <internalNodes>        0 -1 70361 -1.7760824412107468e-02</internalNodes>      <leafValues>        -4.0467989444732666e-01 5.0071101635694504e-02</leafValues></_>    <_>      <internalNodes>        0 -1 76296 -3.6102498415857553e-03</internalNodes>      <leafValues>        4.8238813877105713e-01 -4.4766902923583984e-02</leafValues></_>    <_>      <internalNodes>        0 -1 6 -3.7064979551360011e-04</internalNodes>      <leafValues>        -2.2485148906707764e-01 8.4517158567905426e-02</leafValues></_>    <_>      <internalNodes>        0 -1 6 2.4451100034639239e-04</internalNodes>      <leafValues>        8.8091440498828888e-02 -2.1001030504703522e-01</leafValues></_>    <_>      <internalNodes>        0 -1 115513 1.4683711528778076e-01</internalNodes>      <leafValues>        1.9836334511637688e-02 -9.0822285413742065e-01</leafValues></_>    <_>      <internalNodes>        0 -1 88065 1.1354718357324600e-01</internalNodes>      <leafValues>        1.7502693459391594e-02 -8.1780856847763062e-01</leafValues></_>    <_>      <internalNodes>        0 -1 58864 -1.7828447744250298e-03</internalNodes>      <leafValues>        2.7510768175125122e-01 -6.9546587765216827e-02</leafValues></_>    <_>      <internalNodes>        0 -1 76299 -3.4776790998876095e-03</internalNodes>      <leafValues>        -3.3949607610702515e-01 5.5340453982353210e-02</leafValues></_>    <_>      <internalNodes>        0 -1 76443 3.0355237424373627e-02</internalNodes>      <leafValues>        3.9042454212903976e-02 -4.5306012034416199e-01</leafValues></_>    <_>      <internalNodes>        0 -1 50056 2.2068263962864876e-02</internalNodes>      <leafValues>        -5.9118002653121948e-02 3.1301358342170715e-01</leafValues></_>    <_>      <internalNodes>        0 -1 54684 3.6823231726884842e-02</internalNodes>      <leafValues>        5.0267897546291351e-02 -3.8949376344680786e-01</leafValues></_>    <_>      <internalNodes>        0 -1 125081 -2.4582732468843460e-02</internalNodes>      <leafValues>        5.2723973989486694e-01 -3.8574825972318649e-02</leafValues></_>    <_>      <internalNodes>        0 -1 70722 6.4392894506454468e-02</internalNodes>      <leafValues>        -3.7124212831258774e-02 4.5151653885841370e-01</leafValues></_>    <_>      <internalNodes>        0 -1 60558 -3.8881152868270874e-02</internalNodes>      <leafValues>        3.1051164865493774e-01 -6.0262002050876617e-02</leafValues></_>    <_>      <internalNodes>        0 -1 86014 -2.9931846074759960e-03</internalNodes>      <leafValues>        1.9025993347167969e-01 -9.2712350189685822e-02</leafValues></_>    <_>      <internalNodes>        0 -1 79449 -1.0232439264655113e-02</internalNodes>      <leafValues>        -5.0985252857208252e-01 3.3502306789159775e-02</leafValues></_>    <_>      <internalNodes>        0 -1 96035 9.8567968234419823e-03</internalNodes>      <leafValues>        -4.1709408164024353e-02 4.5661878585815430e-01</leafValues></_>    <_>      <internalNodes>        0 -1 84625 6.4495380502194166e-04</internalNodes>      <leafValues>        -1.2748566269874573e-01 1.4688409864902496e-01</leafValues></_>    <_>      <internalNodes>        0 -1 95038 -1.2448163703083992e-02</internalNodes>      <leafValues>        4.3075421452522278e-01 -4.6274241060018539e-02</leafValues></_>    <_>      <internalNodes>        0 -1 85291 1.0211786720901728e-03</internalNodes>      <leafValues>        -1.1669941246509552e-01 1.7789711058139801e-01</leafValues></_>    <_>      <internalNodes>        0 -1 24334 -2.5871027261018753e-02</internalNodes>      <leafValues>        4.0995651483535767e-01 -4.0367446839809418e-02</leafValues></_>    <_>      <internalNodes>        0 -1 57819 -1.0256046429276466e-02</internalNodes>      <leafValues>        2.4865499138832092e-01 -7.0656940340995789e-02</leafValues></_>    <_>      <internalNodes>        0 -1 28500 -8.1745274364948273e-03</internalNodes>      <leafValues>        2.1557119488716125e-01 -8.6132645606994629e-02</leafValues></_>    <_>      <internalNodes>        0 -1 75736 2.8006918728351593e-02</internalNodes>      <leafValues>        2.7934331446886063e-02 -7.0513260364532471e-01</leafValues></_>    <_>      <internalNodes>        0 -1 17286 8.1608695909380913e-03</internalNodes>      <leafValues>        -8.2139566540718079e-02 2.4694043397903442e-01</leafValues></_>    <_>      <internalNodes>        0 -1 85291 -2.1145014092326164e-02</internalNodes>      <leafValues>        -8.2101845741271973e-01 2.5574235245585442e-02</leafValues></_>    <_>      <internalNodes>        0 -1 76661 -1.7966672778129578e-02</internalNodes>      <leafValues>        2.3357947170734406e-01 -9.1386541724205017e-02</leafValues></_></weakClassifiers></stage7></opencv_storage>