<?xml version="1.0"?><opencv_storage><stage16>  <maxWeakCount>11</maxWeakCount>  <stageThreshold>-1.3311330080032349e+00</stageThreshold>  <weakClassifiers>    <_>      <internalNodes>        0 -1 111065 1.2032981612719595e-04</internalNodes>      <leafValues>        -1.2871633768081665e+00 1.2871633768081665e+00</leafValues></_>    <_>      <internalNodes>        0 -1 135797 -1.1984296179434750e-05</internalNodes>      <leafValues>        8.6337476968765259e-01 -8.6337476968765259e-01</leafValues></_>    <_>      <internalNodes>        0 -1 21626 2.5601342320442200e-02</internalNodes>      <leafValues>        -8.5920274257659912e-01 8.5920274257659912e-01</leafValues></_>    <_>      <internalNodes>        0 -1 37532 1.1472369544208050e-02</internalNodes>      <leafValues>        -8.5700422525405884e-01 8.5700422525405884e-01</leafValues></_>    <_>      <internalNodes>        0 -1 104468 -1.7716949805617332e-03</internalNodes>      <leafValues>        9.0184009075164795e-01 -9.0184009075164795e-01</leafValues></_>    <_>      <internalNodes>        0 -1 76836 -1.0898727923631668e-02</internalNodes>      <leafValues>        8.1073468923568726e-01 -8.1073468923568726e-01</leafValues></_>    <_>      <internalNodes>        0 -1 151128 1.6615704225841910e-04</internalNodes>      <leafValues>        -9.1646206378936768e-01 9.1646206378936768e-01</leafValues></_>    <_>      <internalNodes>        0 -1 147181 -5.1581181585788727e-02</internalNodes>      <leafValues>        7.8712540864944458e-01 -7.8712540864944458e-01</leafValues></_>    <_>      <internalNodes>        0 -1 53539 -2.2956430912017822e-01</internalNodes>      <leafValues>        8.0729824304580688e-01 -8.0729824304580688e-01</leafValues></_>    <_>      <internalNodes>        0 -1 35459 -1.3717639259994030e-02</internalNodes>      <leafValues>        6.9840586185455322e-01 -6.9840586185455322e-01</leafValues></_>    <_>      <internalNodes>        0 -1 112243 -7.6135424897074699e-03</internalNodes>      <leafValues>        -8.0946594476699829e-01 8.0946594476699829e-01</leafValues></_></weakClassifiers></stage16></opencv_storage>