<?xml version="1.0"?><opencv_storage><stage8>  <maxWeakCount>9</maxWeakCount>  <stageThreshold>-1.3867707252502441e+00</stageThreshold>  <weakClassifiers>    <_>      <internalNodes>        0 -1 2512032 -1.6608431935310364e-02</internalNodes>      <leafValues>        6.0613811016082764e-01 -6.4525991678237915e-01</leafValues></_>    <_>      <internalNodes>        0 -1 27876 2.4967079982161522e-02</internalNodes>      <leafValues>        -4.9891138076782227e-01 5.6955003738403320e-01</leafValues></_>    <_>      <internalNodes>        0 -1 2454489 9.2321579359122552e-06</internalNodes>      <leafValues>        3.7153661251068115e-01 -7.3256587982177734e-01</leafValues></_>    <_>      <internalNodes>        0 -1 2173919 5.6958706409204751e-06</internalNodes>      <leafValues>        -8.2684874534606934e-01 2.8937205672264099e-01</leafValues></_>    <_>      <internalNodes>        0 -1 2651934 3.7716832011938095e-02</internalNodes>      <leafValues>        -4.6644026041030884e-01 5.5842238664627075e-01</leafValues></_>    <_>      <internalNodes>        0 -1 2301403 -1.9431039618211798e-05</internalNodes>      <leafValues>        2.9264685511589050e-01 -7.9165691137313843e-01</leafValues></_>    <_>      <internalNodes>        0 -1 126284 1.4835751615464687e-02</internalNodes>      <leafValues>        -4.0753251314163208e-01 5.6319075822830200e-01</leafValues></_>    <_>      <internalNodes>        0 -1 461163 5.0016948953270912e-03</internalNodes>      <leafValues>        -4.8554819822311401e-01 4.8250383138656616e-01</leafValues></_>    <_>      <internalNodes>        0 -1 1833293 -2.2233566269278526e-03</internalNodes>      <leafValues>        2.4260585010051727e-01 -8.3865213394165039e-01</leafValues></_></weakClassifiers></stage8></opencv_storage>