<?xml version="1.0"?><opencv_storage><cascade>  <stageType>BOOST</stageType>  <featureType>HAAR</featureType>  <height>50</height>  <width>50</width>  <stageParams>    <boostType>GAB</boostType>    <minHitRate>9.9900001287460327e-01</minHitRate>    <maxFalseAlarm>5.0000000000000000e-01</maxFalseAlarm>    <weightTrimRate>9.4999999999999996e-01</weightTrimRate>    <maxDepth>1</maxDepth>    <maxWeakCount>100</maxWeakCount></stageParams>  <featureParams>    <maxCatCount>0</maxCatCount>    <featSize>1</featSize>    <mode>BASIC</mode></featureParams>  <stageNum>21</stageNum>  <stages>    <!-- stage 0 -->    <_>      <maxWeakCount>3</maxWeakCount>      <stageThreshold>-8.8369709253311157e-01</stageThreshold>      <weakClassifiers>        <_>          <internalNodes>            0 -1 88 -2.6882620528340340e-02</internalNodes>          <leafValues>            8.9922481775283813e-01 -9.1452991962432861e-01</leafValues></_>        <_>          <internalNodes>            0 -1 47 1.4377839863300323e-02</internalNodes>          <leafValues>            -7.2536420822143555e-01 9.2703855037689209e-01</leafValues></_>        <_>          <internalNodes>            0 -1 58 -5.5623292922973633e-02</internalNodes>          <leafValues>            7.8366661071777344e-01 -8.9620572328567505e-01</leafValues></_></weakClassifiers></_>    <!-- stage 1 -->    <_>      <maxWeakCount>5</maxWeakCount>      <stageThreshold>-8.7504941225051880e-01</stageThreshold>      <weakClassifiers>        <_>          <internalNodes>            0 -1 91 1.6658179461956024e-02</internalNodes>          <leafValues>            -7.3109245300292969e-01 8.2812500000000000e-01</leafValues></_>        <_>          <internalNodes>            0 -1 86 2.2377822548151016e-02</internalNodes>          <leafValues>            -7.5293409824371338e-01 7.0815616846084595e-01</leafValues></_>        <_>          <internalNodes>            0 -1 16 -1.1095236055552959e-02</internalNodes>          <leafValues>            7.5483834743499756e-01 -6.9974243640899658e-01</leafValues></_>        <_>          <internalNodes>            0 -1 48 -1.7703293124213815e-03</internalNodes>          <leafValues>            5.4275834560394287e-01 -8.3253318071365356e-01</leafValues></_>        <_>          <internalNodes>            0 -1 72 -1.7266964539885521e-02</internalNodes>          <leafValues>            7.6596122980117798e-01 -5.8575457334518433e-01</leafValues></_></weakClassifiers></_>    <!-- stage 2 -->    <_>      <maxWeakCount>5</maxWeakCount>      <stageThreshold>-1.1634522676467896e+00</stageThreshold>      <weakClassifiers>        <_>          <internalNodes>            0 -1 32 7.4389213696122169e-03</internalNodes>          <leafValues>            -8.4180790185928345e-01 6.9633507728576660e-01</leafValues></_>        <_>          <internalNodes>            0 -1 42 1.1180281639099121e-02</internalNodes>          <leafValues>            -7.0963865518569946e-01 7.2955697774887085e-01</leafValues></_>        <_>          <internalNodes>            0 -1 66 5.0984499976038933e-03</internalNodes>          <leafValues>            -8.0674755573272705e-01 5.9745597839355469e-01</leafValues></_>        <_>          <internalNodes>            0 -1 82 -3.9067134261131287e-02</internalNodes>          <leafValues>            6.0794967412948608e-01 -7.9325240850448608e-01</leafValues></_>        <_>          <internalNodes>            0 -1 64 -6.8773850216530263e-05</internalNodes>          <leafValues>            5.4879856109619141e-01 -6.1620646715164185e-01</leafValues></_></weakClassifiers></_>    <!-- stage 3 -->    <_>      <maxWeakCount>5</maxWeakCount>      <stageThreshold>-9.5952111482620239e-01</stageThreshold>      <weakClassifiers>        <_>          <internalNodes>            0 -1 31 -3.0259978026151657e-02</internalNodes>          <leafValues>            6.4705884456634521e-01 -8.7096774578094482e-01</leafValues></_>        <_>          <internalNodes>            0 -1 67 6.4343865960836411e-03</internalNodes>          <leafValues>            -5.8524417877197266e-01 7.3926705121994019e-01</leafValues></_>        <_>          <internalNodes>            0 -1 11 7.6139634475111961e-03</internalNodes>          <leafValues>            -5.2253538370132446e-01 7.8472936153411865e-01</leafValues></_>        <_>          <internalNodes>            0 -1 90 -1.1401310621295124e-04</internalNodes>          <leafValues>            5.5369383096694946e-01 -7.3776161670684814e-01</leafValues></_>        <_>          <internalNodes>            0 -1 84 1.3799841326544993e-05</internalNodes>          <leafValues>            -8.0862808227539062e-01 4.3247658014297485e-01</leafValues></_></weakClassifiers></_>    <!-- stage 4 -->    <_>      <maxWeakCount>6</maxWeakCount>      <stageThreshold>-7.2053164243698120e-01</stageThreshold>      <weakClassifiers>        <_>          <internalNodes>            0 -1 100 2.1415276452898979e-02</internalNodes>          <leafValues>            -6.2331837415695190e-01 7.3814040422439575e-01</leafValues></_>        <_>          <internalNodes>            0 -1 28 -2.3744340986013412e-02</internalNodes>          <leafValues>            4.9413272738456726e-01 -8.2224160432815552e-01</leafValues></_>        <_>          <internalNodes>            0 -1 73 4.5446092262864113e-03</internalNodes>          <leafValues>            -6.0657328367233276e-01 6.5624487400054932e-01</leafValues></_>        <_>          <internalNodes>            0 -1 95 -1.2354409322142601e-02</internalNodes>          <leafValues>            5.1505672931671143e-01 -7.5131535530090332e-01</leafValues></_>        <_>          <internalNodes>            0 -1 87 7.1139313513413072e-04</internalNodes>          <leafValues>            -7.7232402563095093e-01 4.6437755227088928e-01</leafValues></_>        <_>          <internalNodes>            0 -1 69 -1.7545573064126074e-04</internalNodes>          <leafValues>            3.5572132468223572e-01 -8.3017927408218384e-01</leafValues></_></weakClassifiers></_>    <!-- stage 5 -->    <_>      <maxWeakCount>6</maxWeakCount>      <stageThreshold>-6.9951134920120239e-01</stageThreshold>      <weakClassifiers>        <_>          <internalNodes>            0 -1 109 9.3360827304422855e-04</internalNodes>          <leafValues>            -6.9791668653488159e-01 6.8817204236984253e-01</leafValues></_>        <_>          <internalNodes>            0 -1 56 -3.1881069298833609e-04</internalNodes>          <leafValues>            4.6822789311408997e-01 -8.1008005142211914e-01</leafValues></_>        <_>          <internalNodes>            0 -1 43 1.5799179673194885e-02</internalNodes>          <leafValues>            -8.1896734237670898e-01 4.4724720716476440e-01</leafValues></_>        <_>          <internalNodes>            0 -1 19 -1.6833545640110970e-02</internalNodes>          <leafValues>            6.5543264150619507e-01 -5.5718117952346802e-01</leafValues></_>        <_>          <internalNodes>            0 -1 5 1.6243442893028259e-02</internalNodes>          <leafValues>            -6.3332879543304443e-01 5.3236448764801025e-01</leafValues></_>        <_>          <internalNodes>            0 -1 45 -4.0515631553716958e-04</internalNodes>          <leafValues>            3.7396144866943359e-01 -8.2835388183593750e-01</leafValues></_></weakClassifiers></_>    <!-- stage 6 -->    <_>      <maxWeakCount>5</maxWeakCount>      <stageThreshold>-8.0524402856826782e-01</stageThreshold>      <weakClassifiers>        <_>          <internalNodes>            0 -1 2 1.7208639532327652e-02</internalNodes>          <leafValues>            -4.0000000596046448e-01 7.9565215110778809e-01</leafValues></_>        <_>          <internalNodes>            0 -1 65 -3.1869763042777777e-03</internalNodes>          <leafValues>            4.3366277217864990e-01 -9.3781632184982300e-01</leafValues></_>        <_>          <internalNodes>            0 -1 57 5.5698247160762548e-04</internalNodes>          <leafValues>            -6.0891628265380859e-01 5.2739948034286499e-01</leafValues></_>        <_>          <internalNodes>            0 -1 38 -1.1817094637081027e-03</internalNodes>          <leafValues>            3.1124484539031982e-01 -9.4807893037796021e-01</leafValues></_>        <_>          <internalNodes>            0 -1 74 -6.9347298704087734e-03</internalNodes>          <leafValues>            5.4826462268829346e-01 -5.4123538732528687e-01</leafValues></_></weakClassifiers></_>    <!-- stage 7 -->    <_>      <maxWeakCount>7</maxWeakCount>      <stageThreshold>-1.1291577816009521e+00</stageThreshold>      <weakClassifiers>        <_>          <internalNodes>            0 -1 53 5.2011050283908844e-03</internalNodes>          <leafValues>            -6.5174126625061035e-01 6.9398909807205200e-01</leafValues></_>        <_>          <internalNodes>            0 -1 111 1.8850791093427688e-05</internalNodes>          <leafValues>            -7.1358102560043335e-01 5.7200115919113159e-01</leafValues></_>        <_>          <internalNodes>            0 -1 106 4.3700812384486198e-03</internalNodes>          <leafValues>            -8.1068909168243408e-01 4.9273046851158142e-01</leafValues></_>        <_>          <internalNodes>            0 -1 50 7.3998773586936295e-05</internalNodes>          <leafValues>            -7.5990623235702515e-01 4.0517875552177429e-01</leafValues></_>        <_>          <internalNodes>            0 -1 52 -9.2640314251184464e-03</internalNodes>          <leafValues>            7.8922390937805176e-01 -4.5678701996803284e-01</leafValues></_>        <_>          <internalNodes>            0 -1 41 9.5083075575530529e-04</internalNodes>          <leafValues>            4.1347801685333252e-01 -8.7610590457916260e-01</leafValues></_>        <_>          <internalNodes>            0 -1 0 1.7908168956637383e-02</internalNodes>          <leafValues>            -6.1558198928833008e-01 5.6448662281036377e-01</leafValues></_></weakClassifiers></_>    <!-- stage 8 -->    <_>      <maxWeakCount>6</maxWeakCount>      <stageThreshold>-2.5332397222518921e-01</stageThreshold>      <weakClassifiers>        <_>          <internalNodes>            0 -1 114 -4.7441593778785318e-05</internalNodes>          <leafValues>            -7.1578949689865112e-01 6.8928569555282593e-01</leafValues></_>        <_>          <internalNodes>            0 -1 117 -1.5349570661783218e-02</internalNodes>          <leafValues>            7.6838034391403198e-01 -4.2138555645942688e-01</leafValues></_>        <_>          <internalNodes>            0 -1 68 -4.0034370613284409e-05</internalNodes>          <leafValues>            -8.6275637149810791e-01 4.4567832350730896e-01</leafValues></_>        <_>          <internalNodes>            0 -1 101 5.2634708117693663e-04</internalNodes>          <leafValues>            -8.2317811250686646e-01 3.7689208984375000e-01</leafValues></_>        <_>          <internalNodes>            0 -1 40 7.2266603820025921e-03</internalNodes>          <leafValues>            -6.7823648452758789e-01 5.5262714624404907e-01</leafValues></_>        <_>          <internalNodes>            0 -1 39 -4.7943340614438057e-03</internalNodes>          <leafValues>            7.9737436771392822e-01 -4.5024880766868591e-01</leafValues></_></weakClassifiers></_>    <!-- stage 9 -->    <_>      <maxWeakCount>5</maxWeakCount>      <stageThreshold>-9.0014654397964478e-01</stageThreshold>      <weakClassifiers>        <_>          <internalNodes>            0 -1 71 -2.0116735249757767e-03</internalNodes>          <leafValues>            -9.6581196784973145e-01 5.7345974445343018e-01</leafValues></_>        <_>          <internalNodes>            0 -1 26 -9.0836780145764351e-04</internalNodes>          <leafValues>            6.7480635643005371e-01 -5.4831945896148682e-01</leafValues></_>        <_>          <internalNodes>            0 -1 60 -1.0251106694340706e-02</internalNodes>          <leafValues>            5.2367776632308960e-01 -6.9957607984542847e-01</leafValues></_>        <_>          <internalNodes>            0 -1 15 -6.4351586624979973e-03</internalNodes>          <leafValues>            6.0804349184036255e-01 -5.0129598379135132e-01</leafValues></_>        <_>          <internalNodes>            0 -1 30 -1.0554243344813585e-03</internalNodes>          <leafValues>            3.7482494115829468e-01 -8.3375418186187744e-01</leafValues></_></weakClassifiers></_>    <!-- stage 10 -->    <_>      <maxWeakCount>5</maxWeakCount>      <stageThreshold>-7.3733109235763550e-01</stageThreshold>      <weakClassifiers>        <_>          <internalNodes>            0 -1 13 -2.5486170779913664e-03</internalNodes>          <leafValues>            -6.0765552520751953e-01 6.9685769081115723e-01</leafValues></_>        <_>          <internalNodes>            0 -1 1 3.7161476910114288e-02</internalNodes>          <leafValues>            -3.3950272202491760e-01 8.5390490293502808e-01</leafValues></_>        <_>          <internalNodes>            0 -1 44 -8.9094080030918121e-03</internalNodes>          <leafValues>            -8.8242018222808838e-01 4.0381950139999390e-01</leafValues></_>        <_>          <internalNodes>            0 -1 102 2.6261433959007263e-02</internalNodes>          <leafValues>            -5.4614323377609253e-01 5.4665422439575195e-01</leafValues></_>        <_>          <internalNodes>            0 -1 85 2.5375138648087159e-05</internalNodes>          <leafValues>            -7.4064654111862183e-01 4.1400897502899170e-01</leafValues></_></weakClassifiers></_>    <!-- stage 11 -->    <_>      <maxWeakCount>7</maxWeakCount>      <stageThreshold>-9.7254824638366699e-01</stageThreshold>      <weakClassifiers>        <_>          <internalNodes>            0 -1 110 2.0296807633712888e-05</internalNodes>          <leafValues>            -7.4683547019958496e-01 6.2162160873413086e-01</leafValues></_>        <_>          <internalNodes>            0 -1 20 -7.2954799979925156e-03</internalNodes>          <leafValues>            6.7402553558349609e-01 -5.0413066148757935e-01</leafValues></_>        <_>          <internalNodes>            0 -1 18 -3.0505379661917686e-02</internalNodes>          <leafValues>            7.1946269273757935e-01 -4.1571047902107239e-01</leafValues></_>        <_>          <internalNodes>            0 -1 99 -3.1763745937496424e-05</internalNodes>          <leafValues>            4.3965631723403931e-01 -7.0857596397399902e-01</leafValues></_>        <_>          <internalNodes>            0 -1 75 3.9269888657145202e-04</internalNodes>          <leafValues>            3.7672445178031921e-01 -8.0893987417221069e-01</leafValues></_>        <_>          <internalNodes>            0 -1 4 2.5710891932249069e-02</internalNodes>          <leafValues>            -4.9246910214424133e-01 7.7765393257141113e-01</leafValues></_>        <_>          <internalNodes>            0 -1 49 3.8436413160525262e-04</internalNodes>          <leafValues>            3.7021666765213013e-01 -9.6227705478668213e-01</leafValues></_></weakClassifiers></_>    <!-- stage 12 -->    <_>      <maxWeakCount>6</maxWeakCount>      <stageThreshold>-9.9692595005035400e-01</stageThreshold>      <weakClassifiers>        <_>          <internalNodes>            0 -1 6 -8.1670694053173065e-03</internalNodes>          <leafValues>            -8.6363637447357178e-01 5.8899676799774170e-01</leafValues></_>        <_>          <internalNodes>            0 -1 35 -5.1889074966311455e-03</internalNodes>          <leafValues>            4.8812332749366760e-01 -7.5278437137603760e-01</leafValues></_>        <_>          <internalNodes>            0 -1 76 5.7103764265775681e-04</internalNodes>          <leafValues>            -7.2698265314102173e-01 4.0745899081230164e-01</leafValues></_>        <_>          <internalNodes>            0 -1 108 2.7002296410501003e-03</internalNodes>          <leafValues>            -6.5114808082580566e-01 4.6741059422492981e-01</leafValues></_>        <_>          <internalNodes>            0 -1 9 -3.2903980463743210e-03</internalNodes>          <leafValues>            -8.5937696695327759e-01 3.3787977695465088e-01</leafValues></_>        <_>          <internalNodes>            0 -1 116 1.4403564819076564e-05</internalNodes>          <leafValues>            -6.5851682424545288e-01 4.1883808374404907e-01</leafValues></_></weakClassifiers></_>    <!-- stage 13 -->    <_>      <maxWeakCount>7</maxWeakCount>      <stageThreshold>-9.5226109027862549e-01</stageThreshold>      <weakClassifiers>        <_>          <internalNodes>            0 -1 103 6.9877854548394680e-03</internalNodes>          <leafValues>            -7.0329672098159790e-01 6.6549295186996460e-01</leafValues></_>        <_>          <internalNodes>            0 -1 112 2.8868953450000845e-06</internalNodes>          <leafValues>            -5.9835183620452881e-01 4.8288819193840027e-01</leafValues></_>        <_>          <internalNodes>            0 -1 54 -4.2284034192562103e-02</internalNodes>          <leafValues>            4.5097509026527405e-01 -7.8542268276214600e-01</leafValues></_>        <_>          <internalNodes>            0 -1 92 -1.5274969860911369e-02</internalNodes>          <leafValues>            6.5108942985534668e-01 -4.5336538553237915e-01</leafValues></_>        <_>          <internalNodes>            0 -1 21 -1.9542083144187927e-02</internalNodes>          <leafValues>            6.7665159702301025e-01 -4.8539486527442932e-01</leafValues></_>        <_>          <internalNodes>            0 -1 59 -3.0883220024406910e-03</internalNodes>          <leafValues>            -8.7691485881805420e-01 3.4689357876777649e-01</leafValues></_>        <_>          <internalNodes>            0 -1 17 1.2140066828578711e-03</internalNodes>          <leafValues>            -5.4180002212524414e-01 4.9027904868125916e-01</leafValues></_></weakClassifiers></_>    <!-- stage 14 -->    <_>      <maxWeakCount>6</maxWeakCount>      <stageThreshold>-5.8058071136474609e-01</stageThreshold>      <weakClassifiers>        <_>          <internalNodes>            0 -1 46 -8.0730917397886515e-04</internalNodes>          <leafValues>            6.2080538272857666e-01 -7.7922075986862183e-01</leafValues></_>        <_>          <internalNodes>            0 -1 10 6.6121295094490051e-03</internalNodes>          <leafValues>            -5.3957521915435791e-01 7.1851676702499390e-01</leafValues></_>        <_>          <internalNodes>            0 -1 62 -3.0202120542526245e-03</internalNodes>          <leafValues>            -8.7353253364562988e-01 3.5877773165702820e-01</leafValues></_>        <_>          <internalNodes>            0 -1 78 -1.6154058976098895e-03</internalNodes>          <leafValues>            5.8339840173721313e-01 -5.0872284173965454e-01</leafValues></_>        <_>          <internalNodes>            0 -1 93 -2.4530792143195868e-04</internalNodes>          <leafValues>            -9.6526437997817993e-01 3.1675881147384644e-01</leafValues></_>        <_>          <internalNodes>            0 -1 34 -3.0748753342777491e-03</internalNodes>          <leafValues>            7.1159058809280396e-01 -4.2761772871017456e-01</leafValues></_></weakClassifiers></_>    <!-- stage 15 -->    <_>      <maxWeakCount>7</maxWeakCount>      <stageThreshold>-9.8153394460678101e-01</stageThreshold>      <weakClassifiers>        <_>          <internalNodes>            0 -1 97 -1.4154387827147730e-05</internalNodes>          <leafValues>            -6.8421053886413574e-01 6.3385146856307983e-01</leafValues></_>        <_>          <internalNodes>            0 -1 105 3.9569218643009663e-05</internalNodes>          <leafValues>            -7.2526550292968750e-01 5.0368165969848633e-01</leafValues></_>        <_>          <internalNodes>            0 -1 29 -3.4497447777539492e-03</internalNodes>          <leafValues>            4.0167382359504700e-01 -8.5836780071258545e-01</leafValues></_>        <_>          <internalNodes>            0 -1 27 2.2358100861310959e-02</internalNodes>          <leafValues>            -5.8005970716476440e-01 5.7423037290573120e-01</leafValues></_>        <_>          <internalNodes>            0 -1 51 -1.2546849029604346e-04</internalNodes>          <leafValues>            3.7801095843315125e-01 -9.1587442159652710e-01</leafValues></_>        <_>          <internalNodes>            0 -1 25 -6.1948643997311592e-03</internalNodes>          <leafValues>            6.6523450613021851e-01 -4.8460540175437927e-01</leafValues></_>        <_>          <internalNodes>            0 -1 7 1.4811694622039795e-02</internalNodes>          <leafValues>            -4.0582308173179626e-01 8.9730203151702881e-01</leafValues></_></weakClassifiers></_>    <!-- stage 16 -->    <_>      <maxWeakCount>8</maxWeakCount>      <stageThreshold>-9.0035563707351685e-01</stageThreshold>      <weakClassifiers>        <_>          <internalNodes>            0 -1 37 -2.2276951931416988e-03</internalNodes>          <leafValues>            6.3025212287902832e-01 -8.0645161867141724e-01</leafValues></_>        <_>          <internalNodes>            0 -1 107 2.9736263677477837e-03</internalNodes>          <leafValues>            -6.1142957210540771e-01 6.0339301824569702e-01</leafValues></_>        <_>          <internalNodes>            0 -1 70 7.2962446138262749e-03</internalNodes>          <leafValues>            -5.0036770105361938e-01 7.3065567016601562e-01</leafValues></_>        <_>          <internalNodes>            0 -1 61 1.0045841336250305e-03</internalNodes>          <leafValues>            -4.9497240781784058e-01 6.5180623531341553e-01</leafValues></_>        <_>          <internalNodes>            0 -1 98 3.2964301226456882e-06</internalNodes>          <leafValues>            -7.5085830688476562e-01 3.9883303642272949e-01</leafValues></_>        <_>          <internalNodes>            0 -1 36 9.1398635413497686e-04</internalNodes>          <leafValues>            -5.0139665603637695e-01 5.8173418045043945e-01</leafValues></_>        <_>          <internalNodes>            0 -1 14 -1.5421487390995026e-02</internalNodes>          <leafValues>            7.4930912256240845e-01 -3.8443881273269653e-01</leafValues></_>        <_>          <internalNodes>            0 -1 33 1.5177297592163086e-01</internalNodes>          <leafValues>            -3.8256132602691650e-01 8.5308939218521118e-01</leafValues></_></weakClassifiers></_>    <!-- stage 17 -->    <_>      <maxWeakCount>5</maxWeakCount>      <stageThreshold>-7.5889545679092407e-01</stageThreshold>      <weakClassifiers>        <_>          <internalNodes>            0 -1 96 2.4048848717939109e-04</internalNodes>          <leafValues>            -8.2822084426879883e-01 6.5587735176086426e-01</leafValues></_>        <_>          <internalNodes>            0 -1 24 -1.7702035838738084e-03</internalNodes>          <leafValues>            6.8769896030426025e-01 -5.2610081434249878e-01</leafValues></_>        <_>          <internalNodes>            0 -1 94 -7.0573923949268647e-06</internalNodes>          <leafValues>            -8.8757002353668213e-01 3.9840614795684814e-01</leafValues></_>        <_>          <internalNodes>            0 -1 3 8.1620752811431885e-02</internalNodes>          <leafValues>            -3.9018946886062622e-01 8.1113445758819580e-01</leafValues></_>        <_>          <internalNodes>            0 -1 63 -6.9631874794140458e-05</internalNodes>          <leafValues>            5.8720946311950684e-01 -5.1765096187591553e-01</leafValues></_></weakClassifiers></_>    <!-- stage 18 -->    <_>      <maxWeakCount>6</maxWeakCount>      <stageThreshold>-1.1191128492355347e+00</stageThreshold>      <weakClassifiers>        <_>          <internalNodes>            0 -1 89 1.6102210793178529e-05</internalNodes>          <leafValues>            6.3511186838150024e-01 -7.0414203405380249e-01</leafValues></_>        <_>          <internalNodes>            0 -1 55 -6.3383823726326227e-04</internalNodes>          <leafValues>            6.9500643014907837e-01 -5.6632411479949951e-01</leafValues></_>        <_>          <internalNodes>            0 -1 77 3.3329252619296312e-04</internalNodes>          <leafValues>            -5.5298697948455811e-01 7.0439547300338745e-01</leafValues></_>        <_>          <internalNodes>            0 -1 22 1.4536792412400246e-02</internalNodes>          <leafValues>            -4.8373773694038391e-01 7.0738703012466431e-01</leafValues></_>        <_>          <internalNodes>            0 -1 81 7.5289240339770913e-04</internalNodes>          <leafValues>            -7.9494005441665649e-01 4.0771651268005371e-01</leafValues></_>        <_>          <internalNodes>            0 -1 113 7.9525336623191833e-03</internalNodes>          <leafValues>            -5.3569495677947998e-01 7.0913749933242798e-01</leafValues></_></weakClassifiers></_>    <!-- stage 19 -->    <_>      <maxWeakCount>4</maxWeakCount>      <stageThreshold>-2.8721553087234497e-01</stageThreshold>      <weakClassifiers>        <_>          <internalNodes>            0 -1 79 1.0282811708748341e-03</internalNodes>          <leafValues>            6.7179489135742188e-01 -8.6666667461395264e-01</leafValues></_>        <_>          <internalNodes>            0 -1 115 2.8868953450000845e-06</internalNodes>          <leafValues>            -7.8807246685028076e-01 7.3260623216629028e-01</leafValues></_>        <_>          <internalNodes>            0 -1 12 1.5147352591156960e-02</internalNodes>          <leafValues>            -6.5293508768081665e-01 8.2323223352432251e-01</leafValues></_>        <_>          <internalNodes>            0 -1 8 4.8616138519719243e-04</internalNodes>          <leafValues>            5.4429137706756592e-01 -8.8672673702239990e-01</leafValues></_></weakClassifiers></_>    <!-- stage 20 -->    <_>      <maxWeakCount>4</maxWeakCount>      <stageThreshold>3.8874972611665726e-02</stageThreshold>      <weakClassifiers>        <_>          <internalNodes>            0 -1 104 2.4086576886475086e-03</internalNodes>          <leafValues>            -7.0895522832870483e-01 9.1286307573318481e-01</leafValues></_>        <_>          <internalNodes>            0 -1 83 6.3600113207940012e-05</internalNodes>          <leafValues>            8.4776043891906738e-01 -7.6413512229919434e-01</leafValues></_>        <_>          <internalNodes>            0 -1 80 3.0067501938901842e-04</internalNodes>          <leafValues>            -9.2654341459274292e-01 7.6494485139846802e-01</leafValues></_>        <_>          <internalNodes>            0 -1 23 -5.8140536566497758e-05</internalNodes>          <leafValues>            -8.6487507820129395e-01 8.4975504875183105e-01</leafValues></_></weakClassifiers></_></stages>  <features>    <_>      <rects>        <_>          0 13 14 13 -1.</_>        <_>          7 13 7 13 2.</_></rects>      <tilted>0</tilted></_>    <_>      <rects>        <_>          0 14 18 13 -1.</_>        <_>          6 14 6 13 3.</_></rects>      <tilted>0</tilted></_>    <_>      <rects>        <_>          0 17 21 9 -1.</_>        <_>          7 17 7 9 3.</_></rects>      <tilted>0</tilted></_>    <_>      <rects>        <_>          1 1 18 42 -1.</_>        <_>          10 1 9 42 2.</_></rects>      <tilted>0</tilted></_>    <_>      <rects>        <_>          2 8 48 2 -1.</_>        <_>          18 8 16 2 3.</_></rects>      <tilted>0</tilted></_>    <_>      <rects>        <_>          2 40 30 6 -1.</_>        <_>          17 40 15 6 2.</_></rects>      <tilted>0</tilted></_>    <_>      <rects>        <_>          3 5 25 30 -1.</_>        <_>          3 15 25 10 3.</_></rects>      <tilted>0</tilted></_>    <_>      <rects>        <_>          3 14 21 4 -1.</_>        <_>          10 14 7 4 3.</_></rects>      <tilted>0</tilted></_>    <_>      <rects>        <_>          3 14 26 2 -1.</_>        <_>          3 14 13 1 2.</_>        <_>          16 15 13 1 2.</_></rects>      <tilted>0</tilted></_>    <_>      <rects>        <_>          3 16 23 9 -1.</_>        <_>          3 19 23 3 3.</_></rects>      <tilted>0</tilted></_>    <_>      <rects>        <_>          4 14 12 7 -1.</_>        <_>          8 14 4 7 3.</_></rects>      <tilted>0</tilted></_>    <_>      <rects>        <_>          4 15 12 7 -1.</_>        <_>          8 15 4 7 3.</_></rects>      <tilted>0</tilted></_>    <_>      <rects>        <_>          4 39 26 9 -1.</_>        <_>          17 39 13 9 2.</_></rects>      <tilted>0</tilted></_>    <_>      <rects>        <_>          5 23 26 10 -1.</_>        <_>          5 23 13 5 2.</_>        <_>          18 28 13 5 2.</_></rects>      <tilted>0</tilted></_>    <_>      <rects>        <_>          5 25 12 12 -1.</_>        <_>          5 31 12 6 2.</_></rects>      <tilted>0</tilted></_>    <_>      <rects>        <_>          5 44 28 6 -1.</_>        <_>          5 44 14 3 2.</_>        <_>          19 47 14 3 2.</_></rects>      <tilted>0</tilted></_>    <_>      <rects>        <_>          6 4 18 18 -1.</_>        <_>          6 4 9 9 2.</_>        <_>          15 13 9 9 2.</_></rects>      <tilted>0</tilted></_>    <_>      <rects>        <_>          6 27 6 13 -1.</_>        <_>          9 27 3 13 2.</_></rects>      <tilted>0</tilted></_>    <_>      <rects>        <_>          6 27 18 14 -1.</_>        <_>          6 34 18 7 2.</_></rects>      <tilted>0</tilted></_>    <_>      <rects>        <_>          7 1 12 26 -1.</_>        <_>          7 1 6 13 2.</_>        <_>          13 14 6 13 2.</_></rects>      <tilted>0</tilted></_>    <_>      <rects>        <_>          7 5 16 12 -1.</_>        <_>          7 5 8 6 2.</_>        <_>          15 11 8 6 2.</_></rects>      <tilted>0</tilted></_>    <_>      <rects>        <_>          8 27 13 12 -1.</_>        <_>          8 33 13 6 2.</_></rects>      <tilted>0</tilted></_>    <_>      <rects>        <_>          9 1 2 42 -1.</_>        <_>          9 15 2 14 3.</_></rects>      <tilted>0</tilted></_>    <_>      <rects>        <_>          9 17 3 5 -1.</_>        <_>          10 17 1 5 3.</_></rects>      <tilted>0</tilted></_>    <_>      <rects>        <_>          10 17 6 6 -1.</_>        <_>          13 17 3 6 2.</_></rects>      <tilted>0</tilted></_>    <_>      <rects>        <_>          10 34 9 12 -1.</_>        <_>          10 38 9 4 3.</_></rects>      <tilted>0</tilted></_>    <_>      <rects>        <_>          11 17 4 5 -1.</_>        <_>          13 17 2 5 2.</_></rects>      <tilted>0</tilted></_>    <_>      <rects>        <_>          13 0 24 8 -1.</_>        <_>          13 4 24 4 2.</_></rects>      <tilted>0</tilted></_>    <_>      <rects>        <_>          13 11 6 32 -1.</_>        <_>          13 27 6 16 2.</_></rects>      <tilted>0</tilted></_>    <_>      <rects>        <_>          13 18 17 6 -1.</_>        <_>          13 21 17 3 2.</_></rects>      <tilted>0</tilted></_>    <_>      <rects>        <_>          13 18 18 4 -1.</_>        <_>          13 20 18 2 2.</_></rects>      <tilted>0</tilted></_>    <_>      <rects>        <_>          13 19 27 22 -1.</_>        <_>          22 19 9 22 3.</_></rects>      <tilted>0</tilted></_>    <_>      <rects>        <_>          13 36 24 8 -1.</_>        <_>          25 36 12 8 2.</_></rects>      <tilted>0</tilted></_>    <_>      <rects>        <_>          14 0 36 49 -1.</_>        <_>          26 0 12 49 3.</_></rects>      <tilted>0</tilted></_>    <_>      <rects>        <_>          14 7 6 12 -1.</_>        <_>          14 7 3 6 2.</_>        <_>          17 13 3 6 2.</_></rects>      <tilted>0</tilted></_>    <_>      <rects>        <_>          14 9 15 10 -1.</_>        <_>          14 14 15 5 2.</_></rects>      <tilted>0</tilted></_>    <_>      <rects>        <_>          14 11 6 10 -1.</_>        <_>          16 11 2 10 3.</_></rects>      <tilted>0</tilted></_>    <_>      <rects>        <_>          14 12 17 8 -1.</_>        <_>          14 16 17 4 2.</_></rects>      <tilted>0</tilted></_>    <_>      <rects>        <_>          14 19 12 19 -1.</_>        <_>          20 19 6 19 2.</_></rects>      <tilted>0</tilted></_>    <_>      <rects>        <_>          14 31 5 10 -1.</_>        <_>          14 36 5 5 2.</_></rects>      <tilted>0</tilted></_>    <_>      <rects>        <_>          15 0 31 6 -1.</_>        <_>          15 3 31 3 2.</_></rects>      <tilted>0</tilted></_>    <_>      <rects>        <_>          15 28 9 8 -1.</_>        <_>          18 28 3 8 3.</_></rects>      <tilted>0</tilted></_>    <_>      <rects>        <_>          16 1 17 8 -1.</_>        <_>          16 5 17 4 2.</_></rects>      <tilted>0</tilted></_>    <_>      <rects>        <_>          16 8 33 12 -1.</_>        <_>          27 8 11 12 3.</_></rects>      <tilted>0</tilted></_>    <_>      <rects>        <_>          16 27 22 8 -1.</_>        <_>          16 31 22 4 2.</_></rects>      <tilted>0</tilted></_>    <_>      <rects>        <_>          17 15 7 6 -1.</_>        <_>          17 18 7 3 2.</_></rects>      <tilted>0</tilted></_>    <_>      <rects>        <_>          17 26 5 8 -1.</_>        <_>          17 30 5 4 2.</_></rects>      <tilted>0</tilted></_>    <_>      <rects>        <_>          18 0 20 10 -1.</_>        <_>          18 5 20 5 2.</_></rects>      <tilted>0</tilted></_>    <_>      <rects>        <_>          18 22 3 12 -1.</_>        <_>          18 28 3 6 2.</_></rects>      <tilted>0</tilted></_>    <_>      <rects>        <_>          18 23 3 9 -1.</_>        <_>          19 23 1 9 3.</_></rects>      <tilted>0</tilted></_>    <_>      <rects>        <_>          19 16 8 1 -1.</_>        <_>          23 16 4 1 2.</_></rects>      <tilted>0</tilted></_>    <_>      <rects>        <_>          19 22 6 19 -1.</_>        <_>          22 22 3 19 2.</_></rects>      <tilted>0</tilted></_>    <_>      <rects>        <_>          19 44 16 6 -1.</_>        <_>          19 47 16 3 2.</_></rects>      <tilted>0</tilted></_>    <_>      <rects>        <_>          20 1 15 8 -1.</_>        <_>          20 5 15 4 2.</_></rects>      <tilted>0</tilted></_>    <_>      <rects>        <_>          20 8 11 22 -1.</_>        <_>          20 19 11 11 2.</_></rects>      <tilted>0</tilted></_>    <_>      <rects>        <_>          20 22 13 2 -1.</_>        <_>          20 23 13 1 2.</_></rects>      <tilted>0</tilted></_>    <_>      <rects>        <_>          20 26 1 10 -1.</_>        <_>          20 31 1 5 2.</_></rects>      <tilted>0</tilted></_>    <_>      <rects>        <_>          21 4 6 6 -1.</_>        <_>          21 6 6 2 3.</_></rects>      <tilted>0</tilted></_>    <_>      <rects>        <_>          21 7 9 32 -1.</_>        <_>          21 23 9 16 2.</_></rects>      <tilted>0</tilted></_>    <_>      <rects>        <_>          21 25 2 12 -1.</_>        <_>          21 31 2 6 2.</_></rects>      <tilted>0</tilted></_>    <_>      <rects>        <_>          21 26 18 9 -1.</_>        <_>          27 26 6 9 3.</_></rects>      <tilted>0</tilted></_>    <_>      <rects>        <_>          21 41 4 6 -1.</_>        <_>          21 43 4 2 3.</_></rects>      <tilted>0</tilted></_>    <_>      <rects>        <_>          22 5 14 37 -1.</_>        <_>          29 5 7 37 2.</_></rects>      <tilted>0</tilted></_>    <_>      <rects>        <_>          22 8 4 9 -1.</_>        <_>          22 11 4 3 3.</_></rects>      <tilted>0</tilted></_>    <_>      <rects>        <_>          22 10 4 2 -1.</_>        <_>          22 11 4 1 2.</_></rects>      <tilted>0</tilted></_>    <_>      <rects>        <_>          22 19 3 18 -1.</_>        <_>          22 28 3 9 2.</_></rects>      <tilted>0</tilted></_>    <_>      <rects>        <_>          22 35 8 10 -1.</_>        <_>          22 40 8 5 2.</_></rects>      <tilted>0</tilted></_>    <_>      <rects>        <_>          23 1 3 15 -1.</_>        <_>          23 6 3 5 3.</_></rects>      <tilted>0</tilted></_>    <_>      <rects>        <_>          23 15 4 4 -1.</_>        <_>          25 15 2 4 2.</_></rects>      <tilted>0</tilted></_>    <_>      <rects>        <_>          23 21 6 2 -1.</_>        <_>          23 22 6 1 2.</_></rects>      <tilted>0</tilted></_>    <_>      <rects>        <_>          24 0 4 15 -1.</_>        <_>          24 5 4 5 3.</_></rects>      <tilted>0</tilted></_>    <_>      <rects>        <_>          24 6 15 14 -1.</_>        <_>          29 6 5 14 3.</_></rects>      <tilted>0</tilted></_>    <_>      <rects>        <_>          24 32 18 14 -1.</_>        <_>          24 32 9 7 2.</_>        <_>          33 39 9 7 2.</_></rects>      <tilted>0</tilted></_>    <_>      <rects>        <_>          24 39 9 9 -1.</_>        <_>          24 42 9 3 3.</_></rects>      <tilted>0</tilted></_>    <_>      <rects>        <_>          24 42 10 8 -1.</_>        <_>          24 46 10 4 2.</_></rects>      <tilted>0</tilted></_>    <_>      <rects>        <_>          25 16 3 30 -1.</_>        <_>          26 16 1 30 3.</_></rects>      <tilted>0</tilted></_>    <_>      <rects>        <_>          25 25 4 20 -1.</_>        <_>          25 25 2 10 2.</_>        <_>          27 35 2 10 2.</_></rects>      <tilted>0</tilted></_>    <_>      <rects>        <_>          25 40 2 6 -1.</_>        <_>          25 42 2 2 3.</_></rects>      <tilted>0</tilted></_>    <_>      <rects>        <_>          25 44 4 6 -1.</_>        <_>          25 47 4 3 2.</_></rects>      <tilted>0</tilted></_>    <_>      <rects>        <_>          26 15 6 10 -1.</_>        <_>          28 15 2 10 3.</_></rects>      <tilted>0</tilted></_>    <_>      <rects>        <_>          26 33 2 12 -1.</_>        <_>          26 39 2 6 2.</_></rects>      <tilted>0</tilted></_>    <_>      <rects>        <_>          27 7 8 36 -1.</_>        <_>          27 7 4 18 2.</_>        <_>          31 25 4 18 2.</_></rects>      <tilted>0</tilted></_>    <_>      <rects>        <_>          27 9 9 22 -1.</_>        <_>          27 20 9 11 2.</_></rects>      <tilted>0</tilted></_>    <_>      <rects>        <_>          27 17 3 2 -1.</_>        <_>          28 17 1 2 3.</_></rects>      <tilted>0</tilted></_>    <_>      <rects>        <_>          27 39 1 2 -1.</_>        <_>          27 40 1 1 2.</_></rects>      <tilted>0</tilted></_>    <_>      <rects>        <_>          27 41 3 2 -1.</_>        <_>          27 42 3 1 2.</_></rects>      <tilted>0</tilted></_>    <_>      <rects>        <_>          28 0 5 27 -1.</_>        <_>          28 9 5 9 3.</_></rects>      <tilted>0</tilted></_>    <_>      <rects>        <_>          28 1 1 15 -1.</_>        <_>          28 6 1 5 3.</_></rects>      <tilted>0</tilted></_>    <_>      <rects>        <_>          28 12 5 33 -1.</_>        <_>          28 23 5 11 3.</_></rects>      <tilted>0</tilted></_>    <_>      <rects>        <_>          28 12 7 2 -1.</_>        <_>          28 13 7 1 2.</_></rects>      <tilted>0</tilted></_>    <_>      <rects>        <_>          28 21 1 4 -1.</_>        <_>          28 23 1 2 2.</_></rects>      <tilted>0</tilted></_>    <_>      <rects>        <_>          28 23 12 16 -1.</_>        <_>          34 23 6 16 2.</_></rects>      <tilted>0</tilted></_>    <_>      <rects>        <_>          28 39 22 8 -1.</_>        <_>          39 39 11 8 2.</_></rects>      <tilted>0</tilted></_>    <_>      <rects>        <_>          29 10 6 7 -1.</_>        <_>          31 10 2 7 3.</_></rects>      <tilted>0</tilted></_>    <_>      <rects>        <_>          29 15 2 1 -1.</_>        <_>          30 15 1 1 2.</_></rects>      <tilted>0</tilted></_>    <_>      <rects>        <_>          29 16 3 27 -1.</_>        <_>          29 25 3 9 3.</_></rects>      <tilted>0</tilted></_>    <_>      <rects>        <_>          29 33 4 9 -1.</_>        <_>          31 33 2 9 2.</_></rects>      <tilted>0</tilted></_>    <_>      <rects>        <_>          30 12 4 2 -1.</_>        <_>          32 12 2 2 2.</_></rects>      <tilted>0</tilted></_>    <_>      <rects>        <_>          30 38 3 2 -1.</_>        <_>          30 39 3 1 2.</_></rects>      <tilted>0</tilted></_>    <_>      <rects>        <_>          30 39 6 4 -1.</_>        <_>          30 39 3 2 2.</_>        <_>          33 41 3 2 2.</_></rects>      <tilted>0</tilted></_>    <_>      <rects>        <_>          31 2 8 24 -1.</_>        <_>          31 10 8 8 3.</_></rects>      <tilted>0</tilted></_>    <_>      <rects>        <_>          31 7 4 32 -1.</_>        <_>          33 7 2 32 2.</_></rects>      <tilted>0</tilted></_>    <_>      <rects>        <_>          31 13 18 19 -1.</_>        <_>          37 13 6 19 3.</_></rects>      <tilted>0</tilted></_>    <_>      <rects>        <_>          31 17 10 14 -1.</_>        <_>          36 17 5 14 2.</_></rects>      <tilted>0</tilted></_>    <_>      <rects>        <_>          31 31 12 12 -1.</_>        <_>          35 31 4 12 3.</_></rects>      <tilted>0</tilted></_>    <_>      <rects>        <_>          31 36 1 4 -1.</_>        <_>          31 38 1 2 2.</_></rects>      <tilted>0</tilted></_>    <_>      <rects>        <_>          32 14 6 23 -1.</_>        <_>          35 14 3 23 2.</_></rects>      <tilted>0</tilted></_>    <_>      <rects>        <_>          33 30 15 3 -1.</_>        <_>          38 30 5 3 3.</_></rects>      <tilted>0</tilted></_>    <_>      <rects>        <_>          35 0 3 14 -1.</_>        <_>          35 7 3 7 2.</_></rects>      <tilted>0</tilted></_>    <_>      <rects>        <_>          35 20 4 13 -1.</_>        <_>          37 20 2 13 2.</_></rects>      <tilted>0</tilted></_>    <_>      <rects>        <_>          35 33 2 2 -1.</_>        <_>          36 33 1 2 2.</_></rects>      <tilted>0</tilted></_>    <_>      <rects>        <_>          36 34 1 4 -1.</_>        <_>          36 36 1 2 2.</_></rects>      <tilted>0</tilted></_>    <_>      <rects>        <_>          36 34 3 2 -1.</_>        <_>          36 35 3 1 2.</_></rects>      <tilted>0</tilted></_>    <_>      <rects>        <_>          37 7 5 21 -1.</_>        <_>          37 14 5 7 3.</_></rects>      <tilted>0</tilted></_>    <_>      <rects>        <_>          37 29 2 6 -1.</_>        <_>          37 32 2 3 2.</_></rects>      <tilted>0</tilted></_>    <_>      <rects>        <_>          38 30 1 4 -1.</_>        <_>          38 32 1 2 2.</_></rects>      <tilted>0</tilted></_>    <_>      <rects>        <_>          39 26 2 4 -1.</_>        <_>          40 26 1 4 2.</_></rects>      <tilted>0</tilted></_>    <_>      <rects>        <_>          42 14 8 25 -1.</_>        <_>          46 14 4 25 2.</_></rects>      <tilted>0</tilted></_></features></cascade></opencv_storage>