<?xml version="1.0"?><opencv_storage><stage10>  <maxWeakCount>5</maxWeakCount>  <stageThreshold>-7.3733109235763550e-01</stageThreshold>  <weakClassifiers>    <_>      <internalNodes>        0 -1 650527 -2.5486170779913664e-03</internalNodes>      <leafValues>        -6.0765552520751953e-01 6.9685769081115723e-01</leafValues></_>    <_>      <internalNodes>        0 -1 58106 3.7161476910114288e-02</internalNodes>      <leafValues>        -3.3950272202491760e-01 8.5390490293502808e-01</leafValues></_>    <_>      <internalNodes>        0 -1 1687961 -8.9094080030918121e-03</internalNodes>      <leafValues>        -8.8242018222808838e-01 4.0381950139999390e-01</leafValues></_>    <_>      <internalNodes>        0 -1 2605563 2.6261433959007263e-02</internalNodes>      <leafValues>        -5.4614323377609253e-01 5.4665422439575195e-01</leafValues></_>    <_>      <internalNodes>        0 -1 2433644 2.5375138648087159e-05</internalNodes>      <leafValues>        -7.4064654111862183e-01 4.1400897502899170e-01</leafValues></_></weakClassifiers></stage10></opencv_storage>