<?xml version="1.0"?><opencv_storage><stage11>  <maxWeakCount>7</maxWeakCount>  <stageThreshold>-9.7254824638366699e-01</stageThreshold>  <weakClassifiers>    <_>      <internalNodes>        0 -1 2780870 2.0296807633712888e-05</internalNodes>      <leafValues>        -7.4683547019958496e-01 6.2162160873413086e-01</leafValues></_>    <_>      <internalNodes>        0 -1 806424 -7.2954799979925156e-03</internalNodes>      <leafValues>        6.7402553558349609e-01 -5.0413066148757935e-01</leafValues></_>    <_>      <internalNodes>        0 -1 764869 -3.0505379661917686e-02</internalNodes>      <leafValues>        7.1946269273757935e-01 -4.1571047902107239e-01</leafValues></_>    <_>      <internalNodes>        0 -1 2582593 -3.1763745937496424e-05</internalNodes>      <leafValues>        4.3965631723403931e-01 -7.0857596397399902e-01</leafValues></_>    <_>      <internalNodes>        0 -1 2296811 3.9269888657145202e-04</internalNodes>      <leafValues>        3.7672445178031921e-01 -8.0893987417221069e-01</leafValues></_>    <_>      <internalNodes>        0 -1 272210 2.5710891932249069e-02</internalNodes>      <leafValues>        -4.9246910214424133e-01 7.7765393257141113e-01</leafValues></_>    <_>      <internalNodes>        0 -1 1836516 3.8436413160525262e-04</internalNodes>      <leafValues>        3.7021666765213013e-01 -9.6227705478668213e-01</leafValues></_></weakClassifiers></stage11></opencv_storage>