<?xml version="1.0"?><opencv_storage><stage14>  <maxWeakCount>6</maxWeakCount>  <stageThreshold>-5.8058071136474609e-01</stageThreshold>  <weakClassifiers>    <_>      <internalNodes>        0 -1 1764720 -8.0730917397886515e-04</internalNodes>      <leafValues>        6.2080538272857666e-01 -7.7922075986862183e-01</leafValues></_>    <_>      <internalNodes>        0 -1 516538 6.6121295094490051e-03</internalNodes>      <leafValues>        -5.3957521915435791e-01 7.1851676702499390e-01</leafValues></_>    <_>      <internalNodes>        0 -1 2086054 -3.0202120542526245e-03</internalNodes>      <leafValues>        -8.7353253364562988e-01 3.5877773165702820e-01</leafValues></_>    <_>      <internalNodes>        0 -1 2323168 -1.6154058976098895e-03</internalNodes>      <leafValues>        5.8339840173721313e-01 -5.0872284173965454e-01</leafValues></_>    <_>      <internalNodes>        0 -1 2505885 -2.4530792143195868e-04</internalNodes>      <leafValues>        -9.6526437997817993e-01 3.1675881147384644e-01</leafValues></_>    <_>      <internalNodes>        0 -1 1476284 -3.0748753342777491e-03</internalNodes>      <leafValues>        7.1159058809280396e-01 -4.2761772871017456e-01</leafValues></_></weakClassifiers></stage14></opencv_storage>