<?xml version="1.0"?><opencv_storage><stage1>  <maxWeakCount>5</maxWeakCount>  <stageThreshold>-8.7504941225051880e-01</stageThreshold>  <weakClassifiers>    <_>      <internalNodes>        0 -1 2473028 1.6658179461956024e-02</internalNodes>      <leafValues>        -7.3109245300292969e-01 8.2812500000000000e-01</leafValues></_>    <_>      <internalNodes>        0 -1 2436058 2.2377822548151016e-02</internalNodes>      <leafValues>        -7.5293409824371338e-01 7.0815616846084595e-01</leafValues></_>    <_>      <internalNodes>        0 -1 698240 -1.1095236055552959e-02</internalNodes>      <leafValues>        7.5483834743499756e-01 -6.9974243640899658e-01</leafValues></_>    <_>      <internalNodes>        0 -1 1834998 -1.7703293124213815e-03</internalNodes>      <leafValues>        5.4275834560394287e-01 -8.3253318071365356e-01</leafValues></_>    <_>      <internalNodes>        0 -1 2257580 -1.7266964539885521e-02</internalNodes>      <leafValues>        7.6596122980117798e-01 -5.8575457334518433e-01</leafValues></_></weakClassifiers></stage1></opencv_storage>