<?xml version="1.0"?><opencv_storage><stage6>  <maxWeakCount>6</maxWeakCount>  <stageThreshold>-5.5946344137191772e-01</stageThreshold>  <weakClassifiers>    <_>      <internalNodes>        0 -1 85310 1.3715367822442204e-04</internalNodes>      <leafValues>        6.2341666221618652e-01 -6.8878167867660522e-01</leafValues></_>    <_>      <internalNodes>        0 -1 96980 7.6988845830783248e-04</internalNodes>      <leafValues>        3.1051248311996460e-01 -9.5164299011230469e-01</leafValues></_>    <_>      <internalNodes>        0 -1 93839 -1.9802527502179146e-02</internalNodes>      <leafValues>        -8.9980119466781616e-01 2.6274424791336060e-01</leafValues></_>    <_>      <internalNodes>        0 -1 127844 -1.2511753011494875e-03</internalNodes>      <leafValues>        2.4238839745521545e-01 -8.9160621166229248e-01</leafValues></_>    <_>      <internalNodes>        0 -1 128557 -8.6885067867115140e-04</internalNodes>      <leafValues>        -8.8913875818252563e-01 2.3642595112323761e-01</leafValues></_>    <_>      <internalNodes>        0 -1 119257 3.7144133239053190e-04</internalNodes>      <leafValues>        2.3979252576828003e-01 -9.8487842082977295e-01</leafValues></_></weakClassifiers></stage6></opencv_storage>