<?xml version="1.0"?><opencv_storage><stage15>  <maxWeakCount>8</maxWeakCount>  <stageThreshold>-8.7274283170700073e-01</stageThreshold>  <weakClassifiers>    <_>      <internalNodes>        0 -1 72791 -1.5805766452103853e-04</internalNodes>      <leafValues>        6.0154330730438232e-01 -5.1724135875701904e-01</leafValues></_>    <_>      <internalNodes>        0 -1 137282 -4.1260424768552184e-04</internalNodes>      <leafValues>        -6.9182574748992920e-01 3.7110614776611328e-01</leafValues></_>    <_>      <internalNodes>        0 -1 75453 -1.4622729213442653e-04</internalNodes>      <leafValues>        4.3880465626716614e-01 -5.7008194923400879e-01</leafValues></_>    <_>      <internalNodes>        0 -1 80335 -3.3096843399107456e-03</internalNodes>      <leafValues>        2.2193841636180878e-01 -7.8831553459167480e-01</leafValues></_>    <_>      <internalNodes>        0 -1 67645 -3.6660250276327133e-02</internalNodes>      <leafValues>        -8.2036244869232178e-01 2.0965969562530518e-01</leafValues></_>    <_>      <internalNodes>        0 -1 60010 1.7107459716498852e-03</internalNodes>      <leafValues>        2.3273588716983795e-01 -6.8759107589721680e-01</leafValues></_>    <_>      <internalNodes>        0 -1 145050 1.7402053344994783e-03</internalNodes>      <leafValues>        -3.3902400732040405e-01 6.2029564380645752e-01</leafValues></_>    <_>      <internalNodes>        0 -1 21267 8.7631084024906158e-03</internalNodes>      <leafValues>        -3.7822335958480835e-01 5.0601428747177124e-01</leafValues></_></weakClassifiers></stage15></opencv_storage>