<?xml version="1.0"?><opencv_storage><stage14>  <maxWeakCount>6</maxWeakCount>  <stageThreshold>-4.4520288705825806e-01</stageThreshold>  <weakClassifiers>    <_>      <internalNodes>        0 -1 27414 3.5034278407692909e-03</internalNodes>      <leafValues>        -2.9446935653686523e-01 6.8159204721450806e-01</leafValues></_>    <_>      <internalNodes>        0 -1 138624 1.4226240637071896e-05</internalNodes>      <leafValues>        -8.9990639686584473e-01 2.9879295825958252e-01</leafValues></_>    <_>      <internalNodes>        0 -1 130127 2.1490261133294553e-04</internalNodes>      <leafValues>        2.3170173168182373e-01 -8.7437784671783447e-01</leafValues></_>    <_>      <internalNodes>        0 -1 98748 4.0458170697093010e-03</internalNodes>      <leafValues>        1.6756409406661987e-01 -8.1296002864837646e-01</leafValues></_>    <_>      <internalNodes>        0 -1 128258 -5.7321325584780425e-05</internalNodes>      <leafValues>        -9.7309446334838867e-01 1.7321971058845520e-01</leafValues></_>    <_>      <internalNodes>        0 -1 128557 -1.0229975450783968e-03</internalNodes>      <leafValues>        -8.6012589931488037e-01 1.7668734490871429e-01</leafValues></_></weakClassifiers></stage14></opencv_storage>