<?xml version="1.0"?>
<opencv_storage>
<stage2>
  <maxWeakCount>5</maxWeakCount>
  <stageThreshold>-6.4064395427703857e-01</stageThreshold>
  <weakClassifiers>
    <_>
      <internalNodes>
        0 -1 56479 9.0450853109359741e-02</internalNodes>
      <leafValues>
        -5.1550960540771484e-01 8.4505790472030640e-01</leafValues></_>
    <_>
      <internalNodes>
        0 -1 25045 1.8320292234420776e-02</internalNodes>
      <leafValues>
        -7.8867286443710327e-01 5.7156646251678467e-01</leafValues></_>
    <_>
      <internalNodes>
        0 -1 118969 4.3000027537345886e-02</internalNodes>
      <leafValues>
        -5.0945705175399780e-01 6.7511993646621704e-01</leafValues></_>
    <_>
      <internalNodes>
        0 -1 44817 5.5884145200252533e-02</internalNodes>
      <leafValues>
        -4.4323676824569702e-01 7.4240946769714355e-01</leafValues></_>
    <_>
      <internalNodes>
        0 -1 81496 1.8119274172931910e-03</internalNodes>
      <leafValues>
        -6.8056827783584595e-01 4.3165540695190430e-01</leafValues></_></weakClassifiers></stage2>
</opencv_storage>
