<?xml version="1.0"?>
<opencv_storage>
<stage5>
  <maxWeakCount>6</maxWeakCount>
  <stageThreshold>-7.5157266855239868e-01</stageThreshold>
  <weakClassifiers>
    <_>
      <internalNodes>
        0 -1 56504 6.9611869752407074e-02</internalNodes>
      <leafValues>
        -4.2019543051719666e-01 7.2344011068344116e-01</leafValues></_>
    <_>
      <internalNodes>
        0 -1 16101 2.7960792183876038e-02</internalNodes>
      <leafValues>
        -6.6825073957443237e-01 4.9015307426452637e-01</leafValues></_>
    <_>
      <internalNodes>
        0 -1 79995 -6.1249462887644768e-03</internalNodes>
      <leafValues>
        5.4781943559646606e-01 -4.6450787782669067e-01</leafValues></_>
    <_>
      <internalNodes>
        0 -1 68758 -1.3415100984275341e-03</internalNodes>
      <leafValues>
        3.0044737458229065e-01 -9.0004575252532959e-01</leafValues></_>
    <_>
      <internalNodes>
        0 -1 108352 7.4055660516023636e-03</internalNodes>
      <leafValues>
        -7.0153492689132690e-01 3.1275057792663574e-01</leafValues></_>
    <_>
      <internalNodes>
        0 -1 59542 -1.2385568697936833e-04</internalNodes>
      <leafValues>
        -8.9740461111068726e-01 1.9014160335063934e-01</leafValues></_></weakClassifiers></stage5>
</opencv_storage>
