<?xml version="1.0"?><opencv_storage><stage4>  <maxWeakCount>5</maxWeakCount>  <stageThreshold>-8.1010735034942627e-01</stageThreshold>  <weakClassifiers>    <_>      <internalNodes>        0 -1 805975 -77070614 -1016088082 -1067749278 -520093705        2073386574 -134381574 -559625 -276824081</internalNodes>      <leafValues>        -6.8326693773269653e-01 7.0502549409866333e-01</leafValues></_>    <_>      <internalNodes>        0 -1 33997 -256902422 -370945588 251056 1154306519 -1853124402        1359201256 -2147159885 -1128268833</internalNodes>      <leafValues>        -6.7267638444900513e-01 6.1557990312576294e-01</leafValues></_>    <_>      <internalNodes>        0 -1 420173 -1052675 -68747781 -15 -537727804 -268566597        -1125842956 -134218497 -9055020</internalNodes>      <leafValues>        -5.2892410755157471e-01 6.9201129674911499e-01</leafValues></_>    <_>      <internalNodes>        0 -1 684901 -262975250 1563771916 -737669062 -1639477097        -1304227313 -633617913 -1711017541 -1594103265</internalNodes>      <leafValues>        -6.8815648555755615e-01 5.2895694971084595e-01</leafValues></_>    <_>      <internalNodes>        0 -1 458095 -200016289 -49589963 -506904357 -275054335        -743870412 -72727992 -1968723212 -16774400</internalNodes>      <leafValues>        -7.0845967531204224e-01 5.4580307006835938e-01</leafValues></_></weakClassifiers></stage4></opencv_storage>