<?xml version="1.0"?><opencv_storage><stage6>  <maxWeakCount>72</maxWeakCount>  <stageThreshold>-7.9504233598709106e-01</stageThreshold>  <weakClassifiers>    <_>      <internalNodes>        0 -1 104735 3.0401729047298431e-02</internalNodes>      <leafValues>        2.1247562766075134e-01 6.6488415002822876e-01</leafValues></_>    <_>      <internalNodes>        0 -1 65002 2.0678199827671051e-02</internalNodes>      <leafValues>        -8.2381762564182281e-02 3.3253344893455505e-01</leafValues></_>    <_>      <internalNodes>        0 -1 95358 1.2521939352154732e-02</internalNodes>      <leafValues>        -1.2468944489955902e-01 2.4465617537498474e-01</leafValues></_>    <_>      <internalNodes>        0 -1 70638 -2.2068319958634675e-04</internalNodes>      <leafValues>        1.5948125720024109e-01 -1.7528067529201508e-01</leafValues></_>    <_>      <internalNodes>        0 -1 98537 -1.7010871670208871e-04</internalNodes>      <leafValues>        1.0146357119083405e-01 -2.3233284056186676e-01</leafValues></_>    <_>      <internalNodes>        0 -1 84190 -4.1016405448317528e-03</internalNodes>      <leafValues>        -1.9338116049766541e-01 1.6171753406524658e-01</leafValues></_>    <_>      <internalNodes>        0 -1 97838 -3.1713763019070029e-04</internalNodes>      <leafValues>        1.7182564735412598e-01 -1.8984815478324890e-01</leafValues></_>    <_>      <internalNodes>        0 -1 98897 -6.5533153247088194e-05</internalNodes>      <leafValues>        1.3910920917987823e-01 -1.7128305137157440e-01</leafValues></_>    <_>      <internalNodes>        0 -1 77828 6.2128546414896846e-04</internalNodes>      <leafValues>        -1.1623264104127884e-01 2.3023775219917297e-01</leafValues></_>    <_>      <internalNodes>        0 -1 85041 9.8106439691036940e-04</internalNodes>      <leafValues>        -1.1218549311161041e-01 2.4149776995182037e-01</leafValues></_>    <_>      <internalNodes>        0 -1 77868 -2.9515748610720038e-04</internalNodes>      <leafValues>        1.3316340744495392e-01 -2.6144012808799744e-01</leafValues></_>    <_>      <internalNodes>        0 -1 92075 -2.3009359836578369e-02</internalNodes>      <leafValues>        3.4019887447357178e-01 -1.1091866344213486e-01</leafValues></_>    <_>      <internalNodes>        0 -1 104395 4.2651416151784360e-04</internalNodes>      <leafValues>        -1.7796918749809265e-01 1.8865460157394409e-01</leafValues></_>    <_>      <internalNodes>        0 -1 78305 -2.9211561195552349e-03</internalNodes>      <leafValues>        -5.7490432262420654e-01 5.5060930550098419e-02</leafValues></_>    <_>      <internalNodes>        0 -1 97952 -2.3166861385107040e-02</internalNodes>      <leafValues>        -6.4909595251083374e-01 3.9322003722190857e-02</leafValues></_>    <_>      <internalNodes>        0 -1 109109 3.1910592224448919e-04</internalNodes>      <leafValues>        1.2932339310646057e-01 -2.2042040526866913e-01</leafValues></_>    <_>      <internalNodes>        0 -1 90165 -1.5415964648127556e-02</internalNodes>      <leafValues>        4.7935372591018677e-01 -5.3085941821336746e-02</leafValues></_>    <_>      <internalNodes>        0 -1 30749 4.3313659727573395e-02</internalNodes>      <leafValues>        -5.3682129830121994e-02 4.1390421986579895e-01</leafValues></_>    <_>      <internalNodes>        0 -1 86072 -4.5802546665072441e-03</internalNodes>      <leafValues>        2.0221392810344696e-01 -1.1181052774190903e-01</leafValues></_>    <_>      <internalNodes>        0 -1 68451 3.4792799502611160e-02</internalNodes>      <leafValues>        6.5140515565872192e-02 -4.3054404854774475e-01</leafValues></_>    <_>      <internalNodes>        0 -1 68432 -1.1570492759346962e-02</internalNodes>      <leafValues>        -5.8290904760360718e-01 3.7176817655563354e-02</leafValues></_>    <_>      <internalNodes>        0 -1 52397 2.2382695227861404e-02</internalNodes>      <leafValues>        -4.1580528020858765e-02 5.3893595933914185e-01</leafValues></_>    <_>      <internalNodes>        0 -1 75708 -6.0670496895909309e-04</internalNodes>      <leafValues>        1.7488481104373932e-01 -1.6401278972625732e-01</leafValues></_>    <_>      <internalNodes>        0 -1 98857 -9.3957446515560150e-03</internalNodes>      <leafValues>        2.5891399383544922e-01 -8.8901013135910034e-02</leafValues></_>    <_>      <internalNodes>        0 -1 37762 -4.2189075611531734e-04</internalNodes>      <leafValues>        -2.2109344601631165e-01 1.0119072347879410e-01</leafValues></_>    <_>      <internalNodes>        0 -1 99067 -7.6797819929197431e-05</internalNodes>      <leafValues>        1.3090933859348297e-01 -1.7805081605911255e-01</leafValues></_>    <_>      <internalNodes>        0 -1 92675 1.4637848362326622e-02</internalNodes>      <leafValues>        -7.5048245489597321e-02 3.9231401681900024e-01</leafValues></_>    <_>      <internalNodes>        0 -1 61780 3.7329136393964291e-03</internalNodes>      <leafValues>        -5.5633787065744400e-02 3.3687588572502136e-01</leafValues></_>    <_>      <internalNodes>        0 -1 84174 2.4979037698358297e-04</internalNodes>      <leafValues>        -1.1390753090381622e-01 1.8616846203804016e-01</leafValues></_>    <_>      <internalNodes>        0 -1 77350 -2.9299262678250670e-04</internalNodes>      <leafValues>        1.3064660131931305e-01 -1.7819412052631378e-01</leafValues></_>    <_>      <internalNodes>        0 -1 77836 -2.1970730740576982e-03</internalNodes>      <leafValues>        -2.5634896755218506e-01 8.2877442240715027e-02</leafValues></_>    <_>      <internalNodes>        0 -1 78923 -2.0213513635098934e-03</internalNodes>      <leafValues>        -3.2119485735893250e-01 6.8295486271381378e-02</leafValues></_>    <_>      <internalNodes>        0 -1 76658 2.5741659104824066e-02</internalNodes>      <leafValues>        -6.5380327403545380e-02 3.0912226438522339e-01</leafValues></_>    <_>      <internalNodes>        0 -1 103838 1.0078921914100647e-02</internalNodes>      <leafValues>        3.6555550992488861e-02 -5.9202682971954346e-01</leafValues></_>    <_>      <internalNodes>        0 -1 121520 3.7253939080983400e-04</internalNodes>      <leafValues>        9.0957373380661011e-02 -2.1154780685901642e-01</leafValues></_>    <_>      <internalNodes>        0 -1 105117 2.7322925161570311e-03</internalNodes>      <leafValues>        -1.0080271959304810e-01 1.8163090944290161e-01</leafValues></_>    <_>      <internalNodes>        0 -1 82719 2.1518826484680176e-02</internalNodes>      <leafValues>        4.4108264148235321e-02 -4.4544839859008789e-01</leafValues></_>    <_>      <internalNodes>        0 -1 82617 -4.9079168587923050e-02</internalNodes>      <leafValues>        3.2060888409614563e-01 -6.1269797384738922e-02</leafValues></_>    <_>      <internalNodes>        0 -1 98024 -2.1616369485855103e-03</internalNodes>      <leafValues>        -2.1746209263801575e-01 1.0268988460302353e-01</leafValues></_>    <_>      <internalNodes>        0 -1 92246 3.2552100718021393e-02</internalNodes>      <leafValues>        -6.4459189772605896e-02 3.4967869520187378e-01</leafValues></_>    <_>      <internalNodes>        0 -1 61056 1.1122902855277061e-02</internalNodes>      <leafValues>        3.9129823446273804e-02 -5.8097082376480103e-01</leafValues></_>    <_>      <internalNodes>        0 -1 102411 -6.5893843770027161e-02</internalNodes>      <leafValues>        2.5288847088813782e-01 -8.5611328482627869e-02</leafValues></_>    <_>      <internalNodes>        0 -1 82602 2.1195318549871445e-03</internalNodes>      <leafValues>        -8.9637786149978638e-02 2.0623122155666351e-01</leafValues></_>    <_>      <internalNodes>        0 -1 82038 -3.1670434400439262e-03</internalNodes>      <leafValues>        2.3398579657077789e-01 -1.0052768886089325e-01</leafValues></_>    <_>      <internalNodes>        0 -1 1882 2.1656710305251181e-04</internalNodes>      <leafValues>        1.0257396101951599e-01 -1.9770431518554688e-01</leafValues></_>    <_>      <internalNodes>        0 -1 71479 3.4965042141266167e-04</internalNodes>      <leafValues>        8.2473106682300568e-02 -2.1374925971031189e-01</leafValues></_>    <_>      <internalNodes>        0 -1 61999 -3.0943945050239563e-02</internalNodes>      <leafValues>        -8.3074373006820679e-01 2.1890975534915924e-02</leafValues></_>    <_>      <internalNodes>        0 -1 17291 3.2747037708759308e-02</internalNodes>      <leafValues>        -6.3773386180400848e-02 3.2151648402214050e-01</leafValues></_>    <_>      <internalNodes>        0 -1 19785 3.2811820507049561e-02</internalNodes>      <leafValues>        -4.9118820577859879e-02 3.7844488024711609e-01</leafValues></_>    <_>      <internalNodes>        0 -1 44678 -5.4795324802398682e-02</internalNodes>      <leafValues>        -3.1444275379180908e-01 6.1825059354305267e-02</leafValues></_>    <_>      <internalNodes>        0 -1 114229 7.0039853453636169e-03</internalNodes>      <leafValues>        -8.8797189295291901e-02 2.2875000536441803e-01</leafValues></_>    <_>      <internalNodes>        0 -1 108289 3.7740254774689674e-03</internalNodes>      <leafValues>        -1.1709429323673248e-01 1.5402142703533173e-01</leafValues></_>    <_>      <internalNodes>        0 -1 88225 -1.7078090459108353e-02</internalNodes>      <leafValues>        3.0582407116889954e-01 -7.6434202492237091e-02</leafValues></_>    <_>      <internalNodes>        0 -1 21051 -1.5899952268227935e-03</internalNodes>      <leafValues>        1.3927662372589111e-01 -1.3644480705261230e-01</leafValues></_>    <_>      <internalNodes>        0 -1 80706 -1.6452152340207249e-04</internalNodes>      <leafValues>        -1.6967572271823883e-01 1.1679518222808838e-01</leafValues></_>    <_>      <internalNodes>        0 -1 80020 -8.1929820589721203e-04</internalNodes>      <leafValues>        -2.3786166310310364e-01 8.2008868455886841e-02</leafValues></_>    <_>      <internalNodes>        0 -1 58155 -2.8064656071364880e-03</internalNodes>      <leafValues>        3.2314720749855042e-01 -6.3333787024021149e-02</leafValues></_>    <_>      <internalNodes>        0 -1 25143 -3.9350133389234543e-02</internalNodes>      <leafValues>        2.0104996860027313e-01 -9.6580713987350464e-02</leafValues></_>    <_>      <internalNodes>        0 -1 42931 2.2229023277759552e-02</internalNodes>      <leafValues>        -6.9853693246841431e-02 2.8260293602943420e-01</leafValues></_>    <_>      <internalNodes>        0 -1 44695 5.0906129181385040e-02</internalNodes>      <leafValues>        3.3940345048904419e-02 -5.8186775445938110e-01</leafValues></_>    <_>      <internalNodes>        0 -1 91871 -1.5388573519885540e-03</internalNodes>      <leafValues>        2.0243686437606812e-01 -9.9923200905323029e-02</leafValues></_>    <_>      <internalNodes>        0 -1 97453 2.5886562652885914e-03</internalNodes>      <leafValues>        -1.1503943055868149e-01 1.9996297359466553e-01</leafValues></_>    <_>      <internalNodes>        0 -1 91033 3.3113653771579266e-03</internalNodes>      <leafValues>        5.6672967970371246e-02 -3.7166583538055420e-01</leafValues></_>    <_>      <internalNodes>        0 -1 78208 1.0652069468051195e-03</internalNodes>      <leafValues>        -1.3130997121334076e-01 1.5317551791667938e-01</leafValues></_>    <_>      <internalNodes>        0 -1 69855 2.6079844683408737e-03</internalNodes>      <leafValues>        -4.4526901096105576e-02 4.0255782008171082e-01</leafValues></_>    <_>      <internalNodes>        0 -1 69871 3.8754133856855333e-04</internalNodes>      <leafValues>        1.3778631389141083e-01 -1.6978526115417480e-01</leafValues></_>    <_>      <internalNodes>        0 -1 61796 1.1038580909371376e-02</internalNodes>      <leafValues>        -4.2214844375848770e-02 5.2638375759124756e-01</leafValues></_>    <_>      <internalNodes>        0 -1 118655 -2.0292036235332489e-02</internalNodes>      <leafValues>        -5.5600786209106445e-01 3.7451777607202530e-02</leafValues></_>    <_>      <internalNodes>        0 -1 115985 8.2891043275594711e-03</internalNodes>      <leafValues>        -9.5408976078033447e-02 1.8642146885395050e-01</leafValues></_>    <_>      <internalNodes>        0 -1 85054 -9.1700043412856758e-05</internalNodes>      <leafValues>        1.2082006037235260e-01 -1.6624769568443298e-01</leafValues></_>    <_>      <internalNodes>        0 -1 83772 -1.9338456913828850e-02</internalNodes>      <leafValues>        -4.8041501641273499e-01 4.2353142052888870e-02</leafValues></_>    <_>      <internalNodes>        0 -1 75410 2.8894878923892975e-02</internalNodes>      <leafValues>        4.6421840786933899e-02 -3.9309278130531311e-01</leafValues></_></weakClassifiers></stage6></opencv_storage>