<?xml version="1.0"?><opencv_storage><stage6>  <maxWeakCount>5</maxWeakCount>  <stageThreshold>-1.5489519834518433e+00</stageThreshold>  <weakClassifiers>    <_>      <internalNodes>        0 -1 218471 2.3244976182468235e-04</internalNodes>      <leafValues>        -1.3463273048400879e+00 7.5562000274658203e-01</leafValues></_>    <_>      <internalNodes>        0 -1 189235 -6.1564357019960880e-04</internalNodes>      <leafValues>        -1.9020617008209229e+00 3.3313408493995667e-01</leafValues></_>    <_>      <internalNodes>        0 -1 156608 -5.1180308219045401e-05</internalNodes>      <leafValues>        6.8459147214889526e-01 -1.2005831003189087e+00</leafValues></_>    <_>      <internalNodes>        0 -1 136552 4.4634431833401322e-04</internalNodes>      <leafValues>        3.2377392053604126e-01 -1.4818060398101807e+00</leafValues></_>    <_>      <internalNodes>        0 -1 117121 -1.4336949680000544e-03</internalNodes>      <leafValues>        -1.6785647869110107e+00 3.4105041623115540e-01</leafValues></_></weakClassifiers></stage6></opencv_storage>