<?xml version="1.0"?><opencv_storage><stage9>  <maxWeakCount>5</maxWeakCount>  <stageThreshold>-1.3925536870956421e+00</stageThreshold>  <weakClassifiers>    <_>      <internalNodes>        0 -1 155784 -1.5529696247540414e-04</internalNodes>      <leafValues>        -7.3863309621810913e-01 7.5612914562225342e-01</leafValues></_>    <_>      <internalNodes>        0 -1 206478 3.0316066840896383e-05</internalNodes>      <leafValues>        -9.2313486337661743e-01 3.9688804745674133e-01</leafValues></_>    <_>      <internalNodes>        0 -1 172654 2.4983743205666542e-03</internalNodes>      <leafValues>        3.5375633835792542e-01 -1.7883893251419067e+00</leafValues></_>    <_>      <internalNodes>        0 -1 203733 3.2515465863980353e-04</internalNodes>      <leafValues>        -1.2603118419647217e+00 3.9597442746162415e-01</leafValues></_>    <_>      <internalNodes>        0 -1 137993 -8.0580997746437788e-05</internalNodes>      <leafValues>        3.4160631895065308e-01 -1.6533033847808838e+00</leafValues></_></weakClassifiers></stage9></opencv_storage>