<?xml version="1.0"?><opencv_storage><stage13>  <maxWeakCount>5</maxWeakCount>  <stageThreshold>-1.1471198797225952e+00</stageThreshold>  <weakClassifiers>    <_>      <internalNodes>        0 -1 140687 1.3438001587928738e-05</internalNodes>      <leafValues>        -9.5417350530624390e-01 6.7579495906829834e-01</leafValues></_>    <_>      <internalNodes>        0 -1 38934 4.6896896674297750e-04</internalNodes>      <leafValues>        -5.6168049573898315e-01 4.9238693714141846e-01</leafValues></_>    <_>      <internalNodes>        0 -1 172876 2.9928988078609109e-04</internalNodes>      <leafValues>        2.8987953066825867e-01 -1.9877740144729614e+00</leafValues></_>    <_>      <internalNodes>        0 -1 203520 -3.4834639518521726e-04</internalNodes>      <leafValues>        -1.2257159948348999e+00 2.7895942330360413e-01</leafValues></_>    <_>      <internalNodes>        0 -1 113677 -1.8744334578514099e-02</internalNodes>      <leafValues>        -2.0097713470458984e+00 2.5050318241119385e-01</leafValues></_></weakClassifiers></stage13></opencv_storage>