<?xml version="1.0"?><opencv_storage><stage5>  <maxWeakCount>8</maxWeakCount>  <stageThreshold>-1.1169050931930542e+00</stageThreshold>  <weakClassifiers>    <_>      <internalNodes>        0 -1 791055 3.0798362568020821e-02</internalNodes>      <leafValues>        -5.2272725105285645e-01 6.8867921829223633e-01</leafValues></_>    <_>      <internalNodes>        0 -1 2510554 -2.1579051463049836e-05</internalNodes>      <leafValues>        -7.1630418300628662e-01 4.5796313881874084e-01</leafValues></_>    <_>      <internalNodes>        0 -1 2008296 6.7607099190354347e-03</internalNodes>      <leafValues>        -6.0616749525070190e-01 4.5294183492660522e-01</leafValues></_>    <_>      <internalNodes>        0 -1 2197920 4.9754003994166851e-03</internalNodes>      <leafValues>        -7.4484986066818237e-01 3.9828100800514221e-01</leafValues></_>    <_>      <internalNodes>        0 -1 2248427 8.9186105469707400e-05</internalNodes>      <leafValues>        -7.4890887737274170e-01 2.9293203353881836e-01</leafValues></_>    <_>      <internalNodes>        0 -1 2633878 -5.2048720419406891e-02</internalNodes>      <leafValues>        6.1566889286041260e-01 -4.3625321984291077e-01</leafValues></_>    <_>      <internalNodes>        0 -1 2286568 -2.8092064894735813e-04</internalNodes>      <leafValues>        -8.4739691019058228e-01 2.6956668496131897e-01</leafValues></_>    <_>      <internalNodes>        0 -1 1833333 -2.4761346867308021e-04</internalNodes>      <leafValues>        2.8695327043533325e-01 -8.6542320251464844e-01</leafValues></_></weakClassifiers></stage5></opencv_storage>