<?xml version="1.0"?><opencv_storage><stage8>  <maxWeakCount>7</maxWeakCount>  <stageThreshold>-1.2250443696975708e+00</stageThreshold>  <weakClassifiers>    <_>      <internalNodes>        0 -1 99494 2.6672136300476268e-05</internalNodes>      <leafValues>        -6.9820356369018555e-01 6.2881648540496826e-01</leafValues></_>    <_>      <internalNodes>        0 -1 97867 -2.6599928969517350e-04</internalNodes>      <leafValues>        3.9510595798492432e-01 -7.4300694465637207e-01</leafValues></_>    <_>      <internalNodes>        0 -1 84362 -8.6798111442476511e-04</internalNodes>      <leafValues>        -8.9863967895507812e-01 2.8605875372886658e-01</leafValues></_>    <_>      <internalNodes>        0 -1 153025 -1.1365845421096310e-04</internalNodes>      <leafValues>        2.5645843148231506e-01 -7.0020133256912231e-01</leafValues></_>    <_>      <internalNodes>        0 -1 119515 1.8988168449141085e-04</internalNodes>      <leafValues>        2.4827253818511963e-01 -9.1733539104461670e-01</leafValues></_>    <_>      <internalNodes>        0 -1 129515 4.0267939766636118e-05</internalNodes>      <leafValues>        1.6997548937797546e-01 -9.5206308364868164e-01</leafValues></_>    <_>      <internalNodes>        0 -1 119572 -9.1377954231575131e-04</internalNodes>      <leafValues>        -8.9182996749877930e-01 2.1206070482730865e-01</leafValues></_></weakClassifiers></stage8></opencv_storage>