<?xml version="1.0"?><opencv_storage><stage13>  <maxWeakCount>6</maxWeakCount>  <stageThreshold>-6.8825721740722656e-01</stageThreshold>  <weakClassifiers>    <_>      <internalNodes>        0 -1 118853 -1.8314031185582280e-03</internalNodes>      <leafValues>        5.1635587215423584e-01 -9.1649270057678223e-01</leafValues></_>    <_>      <internalNodes>        0 -1 119257 -2.8021973557770252e-03</internalNodes>      <leafValues>        -7.9572021961212158e-01 3.1450852751731873e-01</leafValues></_>    <_>      <internalNodes>        0 -1 98378 1.0885456867981702e-04</internalNodes>      <leafValues>        -8.2263213396072388e-01 2.7312910556793213e-01</leafValues></_>    <_>      <internalNodes>        0 -1 128563 5.3608477173838764e-05</internalNodes>      <leafValues>        -7.4248343706130981e-01 3.0489173531532288e-01</leafValues></_>    <_>      <internalNodes>        0 -1 136156 3.3682903449516743e-05</internalNodes>      <leafValues>        -8.4586453437805176e-01 1.9738054275512695e-01</leafValues></_>    <_>      <internalNodes>        0 -1 107338 -1.1604283936321735e-03</internalNodes>      <leafValues>        1.8157060444355011e-01 -9.2456567287445068e-01</leafValues></_></weakClassifiers></stage13></opencv_storage>