<?xml version="1.0"?>
<opencv_storage>
<stage12>
  <maxWeakCount>9</maxWeakCount>
  <stageThreshold>-8.1144672632217407e-01</stageThreshold>
  <weakClassifiers>
    <_>
      <internalNodes>
        0 -1 52227 1.3177434448152781e-04</internalNodes>
      <leafValues>
        5.2886527776718140e-01 -6.7235493659973145e-01</leafValues></_>
    <_>
      <internalNodes>
        0 -1 112517 4.9224887043237686e-03</internalNodes>
      <leafValues>
        -4.3194603919982910e-01 4.8379334807395935e-01</leafValues></_>
    <_>
      <internalNodes>
        0 -1 70767 7.9559097066521645e-03</internalNodes>
      <leafValues>
        2.6990678906440735e-01 -8.2857465744018555e-01</leafValues></_>
    <_>
      <internalNodes>
        0 -1 109045 3.6832378245890141e-03</internalNodes>
      <leafValues>
        -3.8611409068107605e-01 5.1515406370162964e-01</leafValues></_>
    <_>
      <internalNodes>
        0 -1 10197 3.8661086559295654e-01</internalNodes>
      <leafValues>
        -4.4013324379920959e-01 4.0070924162864685e-01</leafValues></_>
    <_>
      <internalNodes>
        0 -1 90030 -9.6076095360331237e-05</internalNodes>
      <leafValues>
        -6.0799193382263184e-01 2.9666694998741150e-01</leafValues></_>
    <_>
      <internalNodes>
        0 -1 107445 7.5850063003599644e-03</internalNodes>
      <leafValues>
        -3.2037207484245300e-01 6.6513502597808838e-01</leafValues></_>
    <_>
      <internalNodes>
        0 -1 75737 1.3411062536761165e-03</internalNodes>
      <leafValues>
        -3.2910805940628052e-01 6.0989487171173096e-01</leafValues></_>
    <_>
      <internalNodes>
        0 -1 96794 2.6446038857102394e-02</internalNodes>
      <leafValues>
        -5.7783740758895874e-01 3.5395157337188721e-01</leafValues></_></weakClassifiers></stage12>
</opencv_storage>
