<?xml version="1.0"?>
<opencv_storage>
<stage7>
  <maxWeakCount>8</maxWeakCount>
  <stageThreshold>-8.8901966810226440e-01</stageThreshold>
  <weakClassifiers>
    <_>
      <internalNodes>
        0 -1 20266 2.2022777795791626e-01</internalNodes>
      <leafValues>
        -3.3550488948822021e-01 6.7959529161453247e-01</leafValues></_>
    <_>
      <internalNodes>
        0 -1 116283 6.6824024543166161e-03</internalNodes>
      <leafValues>
        -4.4433391094207764e-01 5.5964124202728271e-01</leafValues></_>
    <_>
      <internalNodes>
        0 -1 85311 -3.7708664312958717e-03</internalNodes>
      <leafValues>
        -8.9278626441955566e-01 2.8151947259902954e-01</leafValues></_>
    <_>
      <internalNodes>
        0 -1 59415 -3.6125123500823975e-02</internalNodes>
      <leafValues>
        2.8910639882087708e-01 -7.8915071487426758e-01</leafValues></_>
    <_>
      <internalNodes>
        0 -1 63114 2.9512494802474976e-03</internalNodes>
      <leafValues>
        -5.4267120361328125e-01 3.6668708920478821e-01</leafValues></_>
    <_>
      <internalNodes>
        0 -1 83964 -8.7504100520163774e-05</internalNodes>
      <leafValues>
        -6.3586241006851196e-01 3.0695065855979919e-01</leafValues></_>
    <_>
      <internalNodes>
        0 -1 89863 2.6627823710441589e-02</internalNodes>
      <leafValues>
        -8.1122910976409912e-01 2.2212725877761841e-01</leafValues></_>
    <_>
      <internalNodes>
        0 -1 93684 -6.3875312916934490e-03</internalNodes>
      <leafValues>
        4.6074891090393066e-01 -4.7355309128761292e-01</leafValues></_></weakClassifiers></stage7>
</opencv_storage>
