<?xml version="1.0"?>
<opencv_storage>
<stage6>
  <maxWeakCount>8</maxWeakCount>
  <stageThreshold>-1.0211038589477539e+00</stageThreshold>
  <weakClassifiers>
    <_>
      <internalNodes>
        0 -1 77677 7.6902112923562527e-03</internalNodes>
      <leafValues>
        -8.3443707227706909e-01 5.6875836849212646e-01</leafValues></_>
    <_>
      <internalNodes>
        0 -1 64651 5.7905405759811401e-02</internalNodes>
      <leafValues>
        -4.9321168661117554e-01 5.4683929681777954e-01</leafValues></_>
    <_>
      <internalNodes>
        0 -1 60165 -1.1893184273503721e-04</internalNodes>
      <leafValues>
        -8.6542111635208130e-01 3.1774306297302246e-01</leafValues></_>
    <_>
      <internalNodes>
        0 -1 60165 6.5492626163177192e-05</internalNodes>
      <leafValues>
        3.5150012373924255e-01 -5.7352840900421143e-01</leafValues></_>
    <_>
      <internalNodes>
        0 -1 119753 -3.8818880915641785e-02</internalNodes>
      <leafValues>
        5.1354295015335083e-01 -4.1651976108551025e-01</leafValues></_>
    <_>
      <internalNodes>
        0 -1 84180 -3.4602067898958921e-04</internalNodes>
      <leafValues>
        -8.4261178970336914e-01 2.5699457526206970e-01</leafValues></_>
    <_>
      <internalNodes>
        0 -1 71302 5.4394855396822095e-04</internalNodes>
      <leafValues>
        -4.9559953808784485e-01 3.5566768050193787e-01</leafValues></_>
    <_>
      <internalNodes>
        0 -1 65863 5.2047811448574066e-02</internalNodes>
      <leafValues>
        -5.7335001230239868e-01 2.9242649674415588e-01</leafValues></_></weakClassifiers></stage6>
</opencv_storage>
