<?xml version="1.0"?><opencv_storage><stage18>  <maxWeakCount>6</maxWeakCount>  <stageThreshold>-1.1191128492355347e+00</stageThreshold>  <weakClassifiers>    <_>      <internalNodes>        0 -1 2458260 1.6102210793178529e-05</internalNodes>      <leafValues>        6.3511186838150024e-01 -7.0414203405380249e-01</leafValues></_>    <_>      <internalNodes>        0 -1 1982606 -6.3383823726326227e-04</internalNodes>      <leafValues>        6.9500643014907837e-01 -5.6632411479949951e-01</leafValues></_>    <_>      <internalNodes>        0 -1 2321616 3.3329252619296312e-04</internalNodes>      <leafValues>        -5.5298697948455811e-01 7.0439547300338745e-01</leafValues></_>    <_>      <internalNodes>        0 -1 993348 1.4536792412400246e-02</internalNodes>      <leafValues>        -4.8373773694038391e-01 7.0738703012466431e-01</leafValues></_>    <_>      <internalNodes>        0 -1 2396203 7.5289240339770913e-04</internalNodes>      <leafValues>        -7.9494005441665649e-01 4.0771651268005371e-01</leafValues></_>    <_>      <internalNodes>        0 -1 2826194 7.9525336623191833e-03</internalNodes>      <leafValues>        -5.3569495677947998e-01 7.0913749933242798e-01</leafValues></_></weakClassifiers></stage18></opencv_storage>