<?xml version="1.0"?><opencv_storage><stage2>  <maxWeakCount>5</maxWeakCount>  <stageThreshold>-1.1634522676467896e+00</stageThreshold>  <weakClassifiers>    <_>      <internalNodes>        0 -1 1447030 7.4389213696122169e-03</internalNodes>      <leafValues>        -8.4180790185928345e-01 6.9633507728576660e-01</leafValues></_>    <_>      <internalNodes>        0 -1 1628194 1.1180281639099121e-02</internalNodes>      <leafValues>        -7.0963865518569946e-01 7.2955697774887085e-01</leafValues></_>    <_>      <internalNodes>        0 -1 2133598 5.0984499976038933e-03</internalNodes>      <leafValues>        -8.0674755573272705e-01 5.9745597839355469e-01</leafValues></_>    <_>      <internalNodes>        0 -1 2400374 -3.9067134261131287e-02</internalNodes>      <leafValues>        6.0794967412948608e-01 -7.9325240850448608e-01</leafValues></_>    <_>      <internalNodes>        0 -1 2096786 -6.8773850216530263e-05</internalNodes>      <leafValues>        5.4879856109619141e-01 -6.1620646715164185e-01</leafValues></_></weakClassifiers></stage2></opencv_storage>